FANN_FLO_2.1
num_layers=5
learning_rate=0.700000
connection_rate=0.750000
network_type=0
learning_momentum=0.000000
training_algorithm=2
train_error_function=1
train_stop_function=0
cascade_output_change_fraction=0.010000
quickprop_decay=-0.000100
quickprop_mu=1.750000
rprop_increase_factor=1.200000
rprop_decrease_factor=0.500000
rprop_delta_min=0.000000
rprop_delta_max=50.000000
rprop_delta_zero=0.100000
cascade_output_stagnation_epochs=12
cascade_candidate_change_fraction=0.010000
cascade_candidate_stagnation_epochs=12
cascade_max_out_epochs=150
cascade_max_cand_epochs=150
cascade_num_candidate_groups=2
bit_fail_limit=3.49999999999999977796e-01
cascade_candidate_limit=1.00000000000000000000e+03
cascade_weight_multiplier=4.00000000000000022204e-01
cascade_activation_functions_count=10
cascade_activation_functions=3 5 7 8 10 11 14 15 16 17
cascade_activation_steepnesses_count=4
cascade_activation_steepnesses=2.50000000000000000000e-01 5.00000000000000000000e-01 7.50000000000000000000e-01 1.00000000000000000000e+00
layer_sizes=217 317 21 11 2
scale_included=0
neurons (num_inputs, activation_function, activation_steepness)=(0, 0, 0.00000000000000000000e+00) (0, 0, 0.00000000000000000000e+00) (0, 0, 0.00000000000000000000e+00) (0, 0, 0.00000000000000000000e+00) (0, 0, 0.00000000000000000000e+00) (0, 0, 0.00000000000000000000e+00) (0, 0, 0.00000000000000000000e+00) (0, 0, 0.00000000000000000000e+00) (0, 0, 0.00000000000000000000e+00) (0, 0, 0.00000000000000000000e+00) (0, 0, 0.00000000000000000000e+00) (0, 0, 0.00000000000000000000e+00) (0, 0, 0.00000000000000000000e+00) (0, 0, 0.00000000000000000000e+00) (0, 0, 0.00000000000000000000e+00) (0, 0, 0.00000000000000000000e+00) (0, 0, 0.00000000000000000000e+00) (0, 0, 0.00000000000000000000e+00) (0, 0, 0.00000000000000000000e+00) (0, 0, 0.00000000000000000000e+00) (0, 0, 0.00000000000000000000e+00) (0, 0, 0.00000000000000000000e+00) (0, 0, 0.00000000000000000000e+00) (0, 0, 0.00000000000000000000e+00) (0, 0, 0.00000000000000000000e+00) (0, 0, 0.00000000000000000000e+00) (0, 0, 0.00000000000000000000e+00) (0, 0, 0.00000000000000000000e+00) (0, 0, 0.00000000000000000000e+00) (0, 0, 0.00000000000000000000e+00) (0, 0, 0.00000000000000000000e+00) (0, 0, 0.00000000000000000000e+00) (0, 0, 0.00000000000000000000e+00) (0, 0, 0.00000000000000000000e+00) (0, 0, 0.00000000000000000000e+00) (0, 0, 0.00000000000000000000e+00) (0, 0, 0.00000000000000000000e+00) (0, 0, 0.00000000000000000000e+00) (0, 0, 0.00000000000000000000e+00) (0, 0, 0.00000000000000000000e+00) (0, 0, 0.00000000000000000000e+00) (0, 0, 0.00000000000000000000e+00) (0, 0, 0.00000000000000000000e+00) (0, 0, 0.00000000000000000000e+00) (0, 0, 0.00000000000000000000e+00) (0, 0, 0.00000000000000000000e+00) (0, 0, 0.00000000000000000000e+00) (0, 0, 0.00000000000000000000e+00) (0, 0, 0.00000000000000000000e+00) (0, 0, 0.00000000000000000000e+00) (0, 0, 0.00000000000000000000e+00) (0, 0, 0.00000000000000000000e+00) (0, 0, 0.00000000000000000000e+00) (0, 0, 0.00000000000000000000e+00) (0, 0, 0.00000000000000000000e+00) (0, 0, 0.00000000000000000000e+00) (0, 0, 0.00000000000000000000e+00) (0, 0, 0.00000000000000000000e+00) (0, 0, 0.00000000000000000000e+00) (0, 0, 0.00000000000000000000e+00) (0, 0, 0.00000000000000000000e+00) (0, 0, 0.00000000000000000000e+00) (0, 0, 0.00000000000000000000e+00) (0, 0, 0.00000000000000000000e+00) (0, 0, 0.00000000000000000000e+00) (0, 0, 0.00000000000000000000e+00) (0, 0, 0.00000000000000000000e+00) (0, 0, 0.00000000000000000000e+00) (0, 0, 0.00000000000000000000e+00) (0, 0, 0.00000000000000000000e+00) (0, 0, 0.00000000000000000000e+00) (0, 0, 0.00000000000000000000e+00) (0, 0, 0.00000000000000000000e+00) (0, 0, 0.00000000000000000000e+00) (0, 0, 0.00000000000000000000e+00) (0, 0, 0.00000000000000000000e+00) (0, 0, 0.00000000000000000000e+00) (0, 0, 0.00000000000000000000e+00) (0, 0, 0.00000000000000000000e+00) (0, 0, 0.00000000000000000000e+00) (0, 0, 0.00000000000000000000e+00) (0, 0, 0.00000000000000000000e+00) (0, 0, 0.00000000000000000000e+00) (0, 0, 0.00000000000000000000e+00) (0, 0, 0.00000000000000000000e+00) (0, 0, 0.00000000000000000000e+00) (0, 0, 0.00000000000000000000e+00) (0, 0, 0.00000000000000000000e+00) (0, 0, 0.00000000000000000000e+00) (0, 0, 0.00000000000000000000e+00) (0, 0, 0.00000000000000000000e+00) (0, 0, 0.00000000000000000000e+00) (0, 0, 0.00000000000000000000e+00) (0, 0, 0.00000000000000000000e+00) (0, 0, 0.00000000000000000000e+00) (0, 0, 0.00000000000000000000e+00) (0, 0, 0.00000000000000000000e+00) (0, 0, 0.00000000000000000000e+00) (0, 0, 0.00000000000000000000e+00) (0, 0, 0.00000000000000000000e+00) (0, 0, 0.00000000000000000000e+00) (0, 0, 0.00000000000000000000e+00) (0, 0, 0.00000000000000000000e+00) (0, 0, 0.00000000000000000000e+00) (0, 0, 0.00000000000000000000e+00) (0, 0, 0.00000000000000000000e+00) (0, 0, 0.00000000000000000000e+00) (0, 0, 0.00000000000000000000e+00) (0, 0, 0.00000000000000000000e+00) (0, 0, 0.00000000000000000000e+00) (0, 0, 0.00000000000000000000e+00) (0, 0, 0.00000000000000000000e+00) (0, 0, 0.00000000000000000000e+00) (0, 0, 0.00000000000000000000e+00) (0, 0, 0.00000000000000000000e+00) (0, 0, 0.00000000000000000000e+00) (0, 0, 0.00000000000000000000e+00) (0, 0, 0.00000000000000000000e+00) (0, 0, 0.00000000000000000000e+00) (0, 0, 0.00000000000000000000e+00) (0, 0, 0.00000000000000000000e+00) (0, 0, 0.00000000000000000000e+00) (0, 0, 0.00000000000000000000e+00) (0, 0, 0.00000000000000000000e+00) (0, 0, 0.00000000000000000000e+00) (0, 0, 0.00000000000000000000e+00) (0, 0, 0.00000000000000000000e+00) (0, 0, 0.00000000000000000000e+00) (0, 0, 0.00000000000000000000e+00) (0, 0, 0.00000000000000000000e+00) (0, 0, 0.00000000000000000000e+00) (0, 0, 0.00000000000000000000e+00) (0, 0, 0.00000000000000000000e+00) (0, 0, 0.00000000000000000000e+00) (0, 0, 0.00000000000000000000e+00) (0, 0, 0.00000000000000000000e+00) (0, 0, 0.00000000000000000000e+00) (0, 0, 0.00000000000000000000e+00) (0, 0, 0.00000000000000000000e+00) (0, 0, 0.00000000000000000000e+00) (0, 0, 0.00000000000000000000e+00) (0, 0, 0.00000000000000000000e+00) (0, 0, 0.00000000000000000000e+00) (0, 0, 0.00000000000000000000e+00) (0, 0, 0.00000000000000000000e+00) (0, 0, 0.00000000000000000000e+00) (0, 0, 0.00000000000000000000e+00) (0, 0, 0.00000000000000000000e+00) (0, 0, 0.00000000000000000000e+00) (0, 0, 0.00000000000000000000e+00) (0, 0, 0.00000000000000000000e+00) (0, 0, 0.00000000000000000000e+00) (0, 0, 0.00000000000000000000e+00) (0, 0, 0.00000000000000000000e+00) (0, 0, 0.00000000000000000000e+00) (0, 0, 0.00000000000000000000e+00) (0, 0, 0.00000000000000000000e+00) (0, 0, 0.00000000000000000000e+00) (0, 0, 0.00000000000000000000e+00) (0, 0, 0.00000000000000000000e+00) (0, 0, 0.00000000000000000000e+00) (0, 0, 0.00000000000000000000e+00) (0, 0, 0.00000000000000000000e+00) (0, 0, 0.00000000000000000000e+00) (0, 0, 0.00000000000000000000e+00) (0, 0, 0.00000000000000000000e+00) (0, 0, 0.00000000000000000000e+00) (0, 0, 0.00000000000000000000e+00) (0, 0, 0.00000000000000000000e+00) (0, 0, 0.00000000000000000000e+00) (0, 0, 0.00000000000000000000e+00) (0, 0, 0.00000000000000000000e+00) (0, 0, 0.00000000000000000000e+00) (0, 0, 0.00000000000000000000e+00) (0, 0, 0.00000000000000000000e+00) (0, 0, 0.00000000000000000000e+00) (0, 0, 0.00000000000000000000e+00) (0, 0, 0.00000000000000000000e+00) (0, 0, 0.00000000000000000000e+00) (0, 0, 0.00000000000000000000e+00) (0, 0, 0.00000000000000000000e+00) (0, 0, 0.00000000000000000000e+00) (0, 0, 0.00000000000000000000e+00) (0, 0, 0.00000000000000000000e+00) (0, 0, 0.00000000000000000000e+00) (0, 0, 0.00000000000000000000e+00) (0, 0, 0.00000000000000000000e+00) (0, 0, 0.00000000000000000000e+00) (0, 0, 0.00000000000000000000e+00) (0, 0, 0.00000000000000000000e+00) (0, 0, 0.00000000000000000000e+00) (0, 0, 0.00000000000000000000e+00) (0, 0, 0.00000000000000000000e+00) (0, 0, 0.00000000000000000000e+00) (0, 0, 0.00000000000000000000e+00) (0, 0, 0.00000000000000000000e+00) (0, 0, 0.00000000000000000000e+00) (0, 0, 0.00000000000000000000e+00) (0, 0, 0.00000000000000000000e+00) (0, 0, 0.00000000000000000000e+00) (0, 0, 0.00000000000000000000e+00) (0, 0, 0.00000000000000000000e+00) (0, 0, 0.00000000000000000000e+00) (0, 0, 0.00000000000000000000e+00) (0, 0, 0.00000000000000000000e+00) (0, 0, 0.00000000000000000000e+00) (0, 0, 0.00000000000000000000e+00) (0, 0, 0.00000000000000000000e+00) (0, 0, 0.00000000000000000000e+00) (0, 0, 0.00000000000000000000e+00) (0, 0, 0.00000000000000000000e+00) (0, 0, 0.00000000000000000000e+00) (0, 0, 0.00000000000000000000e+00) (0, 0, 0.00000000000000000000e+00) (0, 0, 0.00000000000000000000e+00) (0, 0, 0.00000000000000000000e+00) (0, 0, 0.00000000000000000000e+00) (163, 4, 5.00000000000000000000e-01) (163, 4, 5.00000000000000000000e-01) (163, 4, 5.00000000000000000000e-01) (163, 4, 5.00000000000000000000e-01) (163, 4, 5.00000000000000000000e-01) (163, 4, 5.00000000000000000000e-01) (163, 4, 5.00000000000000000000e-01) (163, 4, 5.00000000000000000000e-01) (163, 4, 5.00000000000000000000e-01) (163, 4, 5.00000000000000000000e-01) (163, 4, 5.00000000000000000000e-01) (163, 4, 5.00000000000000000000e-01) (163, 4, 5.00000000000000000000e-01) (163, 4, 5.00000000000000000000e-01) (163, 4, 5.00000000000000000000e-01) (163, 4, 5.00000000000000000000e-01) (163, 4, 5.00000000000000000000e-01) (163, 4, 5.00000000000000000000e-01) (163, 4, 5.00000000000000000000e-01) (163, 4, 5.00000000000000000000e-01) (163, 4, 5.00000000000000000000e-01) (163, 4, 5.00000000000000000000e-01) (163, 4, 5.00000000000000000000e-01) (163, 4, 5.00000000000000000000e-01) (163, 4, 5.00000000000000000000e-01) (163, 4, 5.00000000000000000000e-01) (163, 4, 5.00000000000000000000e-01) (163, 4, 5.00000000000000000000e-01) (163, 4, 5.00000000000000000000e-01) (163, 4, 5.00000000000000000000e-01) (163, 4, 5.00000000000000000000e-01) (163, 4, 5.00000000000000000000e-01) (163, 4, 5.00000000000000000000e-01) (163, 4, 5.00000000000000000000e-01) (163, 4, 5.00000000000000000000e-01) (163, 4, 5.00000000000000000000e-01) (163, 4, 5.00000000000000000000e-01) (163, 4, 5.00000000000000000000e-01) (163, 4, 5.00000000000000000000e-01) (163, 4, 5.00000000000000000000e-01) (163, 4, 5.00000000000000000000e-01) (163, 4, 5.00000000000000000000e-01) (163, 4, 5.00000000000000000000e-01) (163, 4, 5.00000000000000000000e-01) (163, 4, 5.00000000000000000000e-01) (163, 4, 5.00000000000000000000e-01) (163, 4, 5.00000000000000000000e-01) (163, 4, 5.00000000000000000000e-01) (163, 4, 5.00000000000000000000e-01) (163, 4, 5.00000000000000000000e-01) (163, 4, 5.00000000000000000000e-01) (163, 4, 5.00000000000000000000e-01) (163, 4, 5.00000000000000000000e-01) (163, 4, 5.00000000000000000000e-01) (163, 4, 5.00000000000000000000e-01) (163, 4, 5.00000000000000000000e-01) (163, 4, 5.00000000000000000000e-01) (163, 4, 5.00000000000000000000e-01) (163, 4, 5.00000000000000000000e-01) (163, 4, 5.00000000000000000000e-01) (163, 4, 5.00000000000000000000e-01) (163, 4, 5.00000000000000000000e-01) (163, 4, 5.00000000000000000000e-01) (163, 4, 5.00000000000000000000e-01) (163, 4, 5.00000000000000000000e-01) (163, 4, 5.00000000000000000000e-01) (163, 4, 5.00000000000000000000e-01) (163, 4, 5.00000000000000000000e-01) (163, 4, 5.00000000000000000000e-01) (163, 4, 5.00000000000000000000e-01) (163, 4, 5.00000000000000000000e-01) (163, 4, 5.00000000000000000000e-01) (163, 4, 5.00000000000000000000e-01) (163, 4, 5.00000000000000000000e-01) (163, 4, 5.00000000000000000000e-01) (163, 4, 5.00000000000000000000e-01) (163, 4, 5.00000000000000000000e-01) (163, 4, 5.00000000000000000000e-01) (163, 4, 5.00000000000000000000e-01) (163, 4, 5.00000000000000000000e-01) (163, 4, 5.00000000000000000000e-01) (163, 4, 5.00000000000000000000e-01) (163, 4, 5.00000000000000000000e-01) (163, 4, 5.00000000000000000000e-01) (163, 4, 5.00000000000000000000e-01) (163, 4, 5.00000000000000000000e-01) (163, 4, 5.00000000000000000000e-01) (163, 4, 5.00000000000000000000e-01) (163, 4, 5.00000000000000000000e-01) (163, 4, 5.00000000000000000000e-01) (163, 4, 5.00000000000000000000e-01) (163, 4, 5.00000000000000000000e-01) (163, 4, 5.00000000000000000000e-01) (163, 4, 5.00000000000000000000e-01) (163, 4, 5.00000000000000000000e-01) (163, 4, 5.00000000000000000000e-01) (163, 4, 5.00000000000000000000e-01) (163, 4, 5.00000000000000000000e-01) (163, 4, 5.00000000000000000000e-01) (163, 4, 5.00000000000000000000e-01) (163, 4, 5.00000000000000000000e-01) (163, 4, 5.00000000000000000000e-01) (163, 4, 5.00000000000000000000e-01) (163, 4, 5.00000000000000000000e-01) (163, 4, 5.00000000000000000000e-01) (163, 4, 5.00000000000000000000e-01) (163, 4, 5.00000000000000000000e-01) (163, 4, 5.00000000000000000000e-01) (163, 4, 5.00000000000000000000e-01) (163, 4, 5.00000000000000000000e-01) (163, 4, 5.00000000000000000000e-01) (163, 4, 5.00000000000000000000e-01) (163, 4, 5.00000000000000000000e-01) (163, 4, 5.00000000000000000000e-01) (163, 4, 5.00000000000000000000e-01) (163, 4, 5.00000000000000000000e-01) (163, 4, 5.00000000000000000000e-01) (163, 4, 5.00000000000000000000e-01) (163, 4, 5.00000000000000000000e-01) (163, 4, 5.00000000000000000000e-01) (163, 4, 5.00000000000000000000e-01) (163, 4, 5.00000000000000000000e-01) (163, 4, 5.00000000000000000000e-01) (163, 4, 5.00000000000000000000e-01) (163, 4, 5.00000000000000000000e-01) (163, 4, 5.00000000000000000000e-01) (163, 4, 5.00000000000000000000e-01) (163, 4, 5.00000000000000000000e-01) (163, 4, 5.00000000000000000000e-01) (163, 4, 5.00000000000000000000e-01) (163, 4, 5.00000000000000000000e-01) (163, 4, 5.00000000000000000000e-01) (163, 4, 5.00000000000000000000e-01) (163, 4, 5.00000000000000000000e-01) (163, 4, 5.00000000000000000000e-01) (163, 4, 5.00000000000000000000e-01) (163, 4, 5.00000000000000000000e-01) (163, 4, 5.00000000000000000000e-01) (163, 4, 5.00000000000000000000e-01) (163, 4, 5.00000000000000000000e-01) (163, 4, 5.00000000000000000000e-01) (163, 4, 5.00000000000000000000e-01) (163, 4, 5.00000000000000000000e-01) (163, 4, 5.00000000000000000000e-01) (163, 4, 5.00000000000000000000e-01) (163, 4, 5.00000000000000000000e-01) (163, 4, 5.00000000000000000000e-01) (163, 4, 5.00000000000000000000e-01) (163, 4, 5.00000000000000000000e-01) (163, 4, 5.00000000000000000000e-01) (163, 4, 5.00000000000000000000e-01) (163, 4, 5.00000000000000000000e-01) (163, 4, 5.00000000000000000000e-01) (163, 4, 5.00000000000000000000e-01) (163, 4, 5.00000000000000000000e-01) (163, 4, 5.00000000000000000000e-01) (163, 4, 5.00000000000000000000e-01) (163, 4, 5.00000000000000000000e-01) (163, 4, 5.00000000000000000000e-01) (163, 4, 5.00000000000000000000e-01) (163, 4, 5.00000000000000000000e-01) (163, 4, 5.00000000000000000000e-01) (163, 4, 5.00000000000000000000e-01) (163, 4, 5.00000000000000000000e-01) (163, 4, 5.00000000000000000000e-01) (163, 4, 5.00000000000000000000e-01) (163, 4, 5.00000000000000000000e-01) (163, 4, 5.00000000000000000000e-01) (163, 4, 5.00000000000000000000e-01) (163, 4, 5.00000000000000000000e-01) (163, 4, 5.00000000000000000000e-01) (163, 4, 5.00000000000000000000e-01) (163, 4, 5.00000000000000000000e-01) (163, 4, 5.00000000000000000000e-01) (163, 4, 5.00000000000000000000e-01) (163, 4, 5.00000000000000000000e-01) (163, 4, 5.00000000000000000000e-01) (163, 4, 5.00000000000000000000e-01) (163, 4, 5.00000000000000000000e-01) (163, 4, 5.00000000000000000000e-01) (163, 4, 5.00000000000000000000e-01) (163, 4, 5.00000000000000000000e-01) (163, 4, 5.00000000000000000000e-01) (163, 4, 5.00000000000000000000e-01) (163, 4, 5.00000000000000000000e-01) (163, 4, 5.00000000000000000000e-01) (163, 4, 5.00000000000000000000e-01) (163, 4, 5.00000000000000000000e-01) (163, 4, 5.00000000000000000000e-01) (163, 4, 5.00000000000000000000e-01) (163, 4, 5.00000000000000000000e-01) (163, 4, 5.00000000000000000000e-01) (163, 4, 5.00000000000000000000e-01) (163, 4, 5.00000000000000000000e-01) (163, 4, 5.00000000000000000000e-01) (163, 4, 5.00000000000000000000e-01) (163, 4, 5.00000000000000000000e-01) (163, 4, 5.00000000000000000000e-01) (163, 4, 5.00000000000000000000e-01) (163, 4, 5.00000000000000000000e-01) (163, 4, 5.00000000000000000000e-01) (163, 4, 5.00000000000000000000e-01) (163, 4, 5.00000000000000000000e-01) (163, 4, 5.00000000000000000000e-01) (163, 4, 5.00000000000000000000e-01) (163, 4, 5.00000000000000000000e-01) (163, 4, 5.00000000000000000000e-01) (163, 4, 5.00000000000000000000e-01) (163, 4, 5.00000000000000000000e-01) (163, 4, 5.00000000000000000000e-01) (163, 4, 5.00000000000000000000e-01) (163, 4, 5.00000000000000000000e-01) (163, 4, 5.00000000000000000000e-01) (163, 4, 5.00000000000000000000e-01) (163, 4, 5.00000000000000000000e-01) (163, 4, 5.00000000000000000000e-01) (163, 4, 5.00000000000000000000e-01) (163, 4, 5.00000000000000000000e-01) (163, 4, 5.00000000000000000000e-01) (163, 4, 5.00000000000000000000e-01) (163, 4, 5.00000000000000000000e-01) (163, 4, 5.00000000000000000000e-01) (163, 4, 5.00000000000000000000e-01) (163, 4, 5.00000000000000000000e-01) (163, 4, 5.00000000000000000000e-01) (163, 4, 5.00000000000000000000e-01) (163, 4, 5.00000000000000000000e-01) (163, 4, 5.00000000000000000000e-01) (163, 4, 5.00000000000000000000e-01) (163, 4, 5.00000000000000000000e-01) (163, 4, 5.00000000000000000000e-01) (163, 4, 5.00000000000000000000e-01) (163, 4, 5.00000000000000000000e-01) (163, 4, 5.00000000000000000000e-01) (163, 4, 5.00000000000000000000e-01) (163, 4, 5.00000000000000000000e-01) (163, 4, 5.00000000000000000000e-01) (163, 4, 5.00000000000000000000e-01) (163, 4, 5.00000000000000000000e-01) (163, 4, 5.00000000000000000000e-01) (163, 4, 5.00000000000000000000e-01) (163, 4, 5.00000000000000000000e-01) (163, 4, 5.00000000000000000000e-01) (163, 4, 5.00000000000000000000e-01) (163, 4, 5.00000000000000000000e-01) (163, 4, 5.00000000000000000000e-01) (163, 4, 5.00000000000000000000e-01) (163, 4, 5.00000000000000000000e-01) (163, 4, 5.00000000000000000000e-01) (163, 4, 5.00000000000000000000e-01) (163, 4, 5.00000000000000000000e-01) (163, 4, 5.00000000000000000000e-01) (163, 4, 5.00000000000000000000e-01) (163, 4, 5.00000000000000000000e-01) (163, 4, 5.00000000000000000000e-01) (163, 4, 5.00000000000000000000e-01) (163, 4, 5.00000000000000000000e-01) (163, 4, 5.00000000000000000000e-01) (163, 4, 5.00000000000000000000e-01) (163, 4, 5.00000000000000000000e-01) (163, 4, 5.00000000000000000000e-01) (163, 4, 5.00000000000000000000e-01) (163, 4, 5.00000000000000000000e-01) (163, 4, 5.00000000000000000000e-01) (163, 4, 5.00000000000000000000e-01) (163, 4, 5.00000000000000000000e-01) (163, 4, 5.00000000000000000000e-01) (163, 4, 5.00000000000000000000e-01) (163, 4, 5.00000000000000000000e-01) (163, 4, 5.00000000000000000000e-01) (163, 4, 5.00000000000000000000e-01) (163, 4, 5.00000000000000000000e-01) (163, 4, 5.00000000000000000000e-01) (163, 4, 5.00000000000000000000e-01) (163, 4, 5.00000000000000000000e-01) (163, 4, 5.00000000000000000000e-01) (163, 4, 5.00000000000000000000e-01) (163, 4, 5.00000000000000000000e-01) (163, 4, 5.00000000000000000000e-01) (163, 4, 5.00000000000000000000e-01) (163, 4, 5.00000000000000000000e-01) (163, 4, 5.00000000000000000000e-01) (163, 4, 5.00000000000000000000e-01) (163, 4, 5.00000000000000000000e-01) (163, 4, 5.00000000000000000000e-01) (163, 4, 5.00000000000000000000e-01) (163, 4, 5.00000000000000000000e-01) (163, 4, 5.00000000000000000000e-01) (163, 4, 5.00000000000000000000e-01) (163, 4, 5.00000000000000000000e-01) (163, 4, 5.00000000000000000000e-01) (163, 4, 5.00000000000000000000e-01) (163, 4, 5.00000000000000000000e-01) (163, 4, 5.00000000000000000000e-01) (163, 4, 5.00000000000000000000e-01) (163, 4, 5.00000000000000000000e-01) (163, 4, 5.00000000000000000000e-01) (163, 4, 5.00000000000000000000e-01) (163, 4, 5.00000000000000000000e-01) (163, 4, 5.00000000000000000000e-01) (163, 4, 5.00000000000000000000e-01) (163, 4, 5.00000000000000000000e-01) (163, 4, 5.00000000000000000000e-01) (163, 4, 5.00000000000000000000e-01) (163, 4, 5.00000000000000000000e-01) (163, 4, 5.00000000000000000000e-01) (163, 4, 5.00000000000000000000e-01) (163, 4, 5.00000000000000000000e-01) (163, 4, 5.00000000000000000000e-01) (163, 4, 5.00000000000000000000e-01) (163, 4, 5.00000000000000000000e-01) (163, 4, 5.00000000000000000000e-01) (163, 4, 5.00000000000000000000e-01) (163, 4, 5.00000000000000000000e-01) (163, 4, 5.00000000000000000000e-01) (163, 4, 5.00000000000000000000e-01) (0, 0, 0.00000000000000000000e+00) (238, 4, 5.00000000000000000000e-01) (238, 4, 5.00000000000000000000e-01) (238, 4, 5.00000000000000000000e-01) (238, 4, 5.00000000000000000000e-01) (238, 4, 5.00000000000000000000e-01) (238, 4, 5.00000000000000000000e-01) (238, 4, 5.00000000000000000000e-01) (238, 4, 5.00000000000000000000e-01) (238, 4, 5.00000000000000000000e-01) (238, 4, 5.00000000000000000000e-01) (238, 4, 5.00000000000000000000e-01) (238, 4, 5.00000000000000000000e-01) (238, 4, 5.00000000000000000000e-01) (238, 4, 5.00000000000000000000e-01) (238, 4, 5.00000000000000000000e-01) (238, 4, 5.00000000000000000000e-01) (238, 4, 5.00000000000000000000e-01) (238, 4, 5.00000000000000000000e-01) (238, 4, 5.00000000000000000000e-01) (238, 4, 5.00000000000000000000e-01) (0, 0, 0.00000000000000000000e+00) (16, 4, 5.00000000000000000000e-01) (16, 4, 5.00000000000000000000e-01) (16, 4, 5.00000000000000000000e-01) (16, 4, 5.00000000000000000000e-01) (16, 4, 5.00000000000000000000e-01) (16, 4, 5.00000000000000000000e-01) (16, 4, 5.00000000000000000000e-01) (16, 4, 5.00000000000000000000e-01) (16, 4, 5.00000000000000000000e-01) (16, 4, 5.00000000000000000000e-01) (0, 0, 0.00000000000000000000e+00) (11, 5, 5.00000000000000000000e-01) (0, 5, 0.00000000000000000000e+00)
connections (connected_to_neuron, weight)=(216, -4.49262865052743654015e-01) (104, 1.50000000000000000000e+03) (133, -1.47500000000000000000e+03) (186, 3.56266464834320428778e+00) (23, 1.50000000000000000000e+03) (114, 8.74363906596891338197e-01) (33, -1.39589272554098670298e+03) (153, 1.13297043792628460146e+00) (193, 1.02480745504410697322e+03) (196, -2.60329821569860264674e+00) (63, 1.57993177589010125317e+00) (155, 1.50000000000000000000e+03) (0, -1.94781903889922745066e+02) (29, 1.10784915340763654967e+03) (69, -9.82895390618436067598e+02) (173, 1.50000000000000000000e+03) (185, 1.38993032779595841930e+03) (137, 1.50000000000000000000e+03) (30, 1.50000000000000000000e+03) (120, -6.60603528396433716807e+02) (175, 4.16277813172887789506e+00) (75, 1.50000000000000000000e+03) (187, 4.51769788814478090444e+01) (119, 2.72317692070684724825e+00) (194, 7.86174430197288870659e+02) (31, 8.79473436514665962704e+00) (92, -4.45583013411873935183e+02) (61, 1.50000000000000000000e+03) (19, -4.45065128913953799383e+02) (58, -3.36700815032310618591e+00) (111, -4.00089129306671907216e+02) (161, 1.19479790199430198072e+01) (90, 5.78344359506266698645e+01) (126, -1.31582124145890611544e+03) (67, 1.02212191787321683023e+03) (82, -1.00254898636783173060e+03) (96, -1.79124761474099301495e+02) (93, 1.50000000000000000000e+03) (125, -1.47500000000000000000e+03) (3, -3.21985014985896924600e+01) (189, -7.24351588500612479038e+02) (50, -6.60690598228222256694e+02) (42, -1.47500000000000000000e+03) (52, -1.07566811718175426904e+03) (97, 3.19746502019524081462e+00) (85, 1.50000000000000000000e+03) (43, -6.78332669311441947002e+01) (84, -1.35947577573515582117e+03) (89, 2.52021492439506822336e+00) (190, 4.89163125583019848364e+02) (32, 1.50000000000000000000e+03) (71, 1.39944544225683239347e+03) (41, -3.01905328922183230134e+02) (176, 3.55870788922016885181e+01) (164, 1.50000000000000000000e+03) (122, 1.68278069209454343991e+02) (197, 1.50000000000000000000e+03) (180, 3.82745030473059415499e+01) (35, 9.99790262540716012651e-01) (36, -9.76251601676342506408e-01) (140, 1.50000000000000000000e+03) (142, -1.25258491119499058186e+03) (79, 1.50000000000000000000e+03) (103, 1.50000000000000000000e+03) (47, 1.04879620399784653273e+03) (195, 1.39664335377127827087e+02) (25, -1.35960988658823180231e+03) (88, 1.31073122939235327067e+03) (156, 1.50000000000000000000e+03) (141, -1.50000000000000000000e+03) (154, 1.50000000000000000000e+03) (203, 2.55881803541492702792e+00) (74, 4.45171053110929051400e+02) (200, -3.79607869652909130309e+02) (188, 2.09048707507150810514e+00) (191, 7.50662440112971722783e+01) (151, -1.50000000000000000000e+03) (37, 1.13591901115900827790e+03) (46, -1.31779955502839403181e+01) (22, 1.38239589179200550006e+02) (171, 1.37284808198897735565e+03) (81, 1.50000000000000000000e+03) (5, -1.47500000000000000000e+03) (54, 1.50000000000000000000e+03) (213, -1.50000000000000000000e+03) (83, -6.31345141877920141837e+01) (107, 1.50000000000000000000e+03) (55, 2.58190074874506680924e-01) (174, -1.92069657449621274736e+02) (177, 7.66129484772064728304e+00) (138, 1.50000000000000000000e+03) (158, -8.15352048293662590162e-01) (160, 1.50000000000000000000e+03) (124, -1.15736701025432694223e+03) (51, 6.40378405377503838736e+01) (1, 1.50000000000000000000e+03) (39, -1.47500000000000000000e+03) (44, -1.47500000000000000000e+03) (48, 1.37292268376587526291e+03) (6, 9.21232657351297689274e+02) (106, -1.02383073128495198034e+03) (135, -1.88289774939439979562e+02) (202, -1.50000000000000000000e+03) (101, -1.47500000000000000000e+03) (40, 1.50000000000000000000e+03) (178, 9.44021564434090243445e-01) (127, 1.25369979950012080394e+02) (143, 1.50000000000000000000e+03) (86, 7.17799326548677552040e+00) (99, 1.39938795070847299939e+03) (169, 4.94271262835202833230e+02) (210, 1.08866221938549915649e+03) (208, -9.82085642064159856091e+02) (112, 1.50000000000000000000e+03) (16, -1.36066897979333634794e+03) (100, 8.47278485616401177971e-01) (59, 1.50000000000000000000e+03) (118, 2.55760553796129215698e+02) (110, 7.48833279053056685370e+02) (2, 1.50000000000000000000e+03) (87, 1.50000000000000000000e+03) (65, 5.07835609133827688311e+02) (66, 1.50000000000000000000e+03) (123, 1.37448979215359304362e+03) (18, 2.11747450360133093739e+00) (198, 4.03727204517191395894e+01) (205, 1.43761464745717759683e+00) (73, 1.79596586343653854101e+02) (172, -1.26354596706413940410e+03) (4, 1.01495920382464191789e+03) (24, -1.59203571415470833017e+02) (53, 1.50000000000000000000e+03) (56, 1.30805595959392508121e+03) (207, 8.95363524755436124281e+00) (34, -1.12005370374832887137e+03) (182, 1.97659376555795796016e-01) (94, -1.47500000000000000000e+03) (95, 5.18513854326509093795e+00) (38, -7.01325574859427774754e+02) (199, 1.50000000000000000000e+03) (9, -8.16048269276941073969e-01) (76, -1.21270841250324860994e+03) (165, -3.72099175790120773044e+00) (181, 1.20354814066930315697e+00) (117, -1.47500000000000000000e+03) (60, -1.47500000000000000000e+03) (146, -1.26303943197040166524e+03) (91, 1.37949087122049877507e+03) (166, -1.68006645542609760469e+02) (62, -2.90239282763375854302e+02) (128, -6.21954103995115747949e+00) (17, -7.01777713757556398377e+02) (72, -6.13378307039645775944e+00) (12, 5.19792565291929236082e+01) (102, -7.42452254894830332432e+01) (129, -6.66685152188279403163e+02) (183, 1.34474817606508196377e+02) (184, 1.50000000000000000000e+03) (15, 1.50000000000000000000e+03) (163, -6.66631150735283313224e+01) (57, 1.50000000000000000000e+03) (80, 1.50000000000000000000e+03) (116, 9.27865047887916034597e+01) (216, -1.29936748797319201465e-01) (84, -1.50000000000000000000e+03) (50, -2.65321825255665089571e+02) (76, -1.50000000000000000000e+03) (10, 9.95170561851431671130e+02) (190, 4.28399604670983649157e+02) (203, 8.98758308934100913490e-01) (78, 1.50000000000000000000e+03) (72, 7.56632249276438517693e-02) (37, 9.59863956123317166202e+02) (32, 1.50000000000000000000e+03) (208, -1.50000000000000000000e+03) (170, 6.97515756252191105463e-03) (38, -7.19045962199275436433e+02) (204, -1.50000000000000000000e+03) (115, 1.13535930883022615490e+01) (205, -2.54705610622772971041e-02) (192, -1.50000000000000000000e+03) (178, 5.99501336108554117033e+00) (175, 2.36031441767213365779e+01) (104, 1.50000000000000000000e+03) (19, -1.50000000000000000000e+03) (89, 4.08552451487770838412e+02) (164, 1.50000000000000000000e+03) (86, 3.69402943892385877689e+01) (82, -1.50000000000000000000e+03) (127, 1.90361530028382901492e+02) (45, 1.54810643792523461304e-01) (184, 1.50000000000000000000e+03) (60, -1.50000000000000000000e+03) (165, -1.05535870174788080078e+01) (8, -4.70878425213054341292e-01) (64, 1.41468317319899028917e+02) (103, 1.50000000000000000000e+03) (210, 6.18887546633562692477e+02) (147, -1.60985492570258847955e-01) (100, -1.05170041156242555225e+00) (160, 1.33373686735275396131e+03) (31, 5.85631953500287750103e+02) (158, 1.90663106746908998790e-02) (94, -1.50000000000000000000e+03) (161, 2.02568619329133392526e+00) (171, 1.50000000000000000000e+03) (126, -1.09087127212804125520e+03) (99, 1.34079999079704271026e+03) (143, 1.50000000000000000000e+03) (81, 1.39079999079704271026e+03) (112, 1.50000000000000000000e+03) (88, 1.50000000000000000000e+03) (39, -1.50000000000000000000e+03) (11, 1.47976051090092960294e+03) (40, 1.47599999868869781494e+03) (5, -1.50000000000000000000e+03) (98, 5.65061694137217841671e+02) (28, 1.50000000000000000000e+03) (173, 1.50000000000000000000e+03) (53, 1.50000000000000000000e+03) (102, -2.65233020345345266833e+02) (159, 1.37296434561999876678e+03) (152, 1.21755581950207172781e+02) (194, 8.15844325445798972396e+02) (148, -1.50000000000000000000e+03) (195, 9.57213786190453788549e+02) (7, 1.79278784342357830894e+01) (12, 1.48283972065771422422e+02) (139, 3.34882067818112083568e-01) (116, 6.14181511730648594494e+02) (197, 1.50000000000000000000e+03) (75, 1.39079999079704271026e+03) (209, -2.89193996031897326837e-01) (13, -1.50000000000000000000e+03) (156, 1.50000000000000000000e+03) (6, 4.02803648297904260289e+02) (29, 6.14541638644197632857e+02) (172, -1.50000000000000000000e+03) (107, 1.50000000000000000000e+03) (122, 5.40087451140641860547e+02) (63, 3.77913695886638194565e+01) (174, -1.40990164597095599675e+03) (59, 1.35056811878600410637e+03) (215, 1.50000000000000000000e+03) (151, -1.50000000000000000000e+03) (182, -5.13332407312914962283e-01) (154, 1.50000000000000000000e+03) (206, 1.38012290176573446843e+03) (23, 1.50000000000000000000e+03) (149, -2.25840210762919539889e+01) (65, 7.03176587647953738269e+02) (117, -1.50000000000000000000e+03) (41, -2.53594990799528972047e+01) (49, 3.75895116737569949805e+01) (155, 1.50000000000000000000e+03) (52, -1.09090560801253809586e+03) (43, -1.48707168049996766968e+02) (167, 1.43039999480247479369e+03) (73, 7.77301346184981184706e+02) (185, 1.39455680796639924779e+01) (135, -1.41750063772494809200e+03) (34, -1.50000000000000000000e+03) (169, 1.26311468885566705467e+03) (16, -1.50000000000000000000e+03) (141, -1.50000000000000000000e+03) (18, 3.94661319688367825620e+02) (55, 6.41138754273824218455e-02) (153, 3.56628417187892510221e-01) (181, 2.29194404142829410986e+00) (66, 1.20493865053267722942e+03) (67, 1.15258217117312574373e+03) (21, -1.50000000000000000000e+03) (2, 1.50000000000000000000e+03) (196, -4.78802001317277898806e+01) (24, -6.28918552443796897933e+02) (188, 3.52760734975094025767e-01) (162, 7.26839964327545970946e+01) (121, -1.50000000000000000000e+03) (74, 2.14572539510007857189e+02) (134, -1.50000000000000000000e+03) (119, 1.94564727952888851803e+01) (176, 1.14463461569886067082e+03) (93, 1.50000000000000000000e+03) (125, -1.50000000000000000000e+03) (198, 2.60576658964173146771e+00) (25, -1.50000000000000000000e+03) (179, -1.61672156995693654835e+02) (131, 1.50000000000000000000e+03) (56, 1.48199999856948852539e+03) (22, 1.09149229715907267746e+03) (212, 1.50000000000000000000e+03) (27, -1.50000000000000000000e+03) (133, -1.50000000000000000000e+03) (79, 1.39079999079704271026e+03) (48, 1.50000000000000000000e+03) (207, 4.57930599319159092886e+00) (61, 1.50000000000000000000e+03) (33, -1.50000000000000000000e+03) (68, 1.50000000000000000000e+03) (54, 1.50000000000000000000e+03) (211, 1.50000000000000000000e+03) (191, 4.69650842543972828480e+02) (42, -1.50000000000000000000e+03) (110, 1.50000000000000000000e+03) (163, -2.25706933612906368580e+01) (200, -1.36005788221488933232e+03) (193, 9.96122491772508624308e+02) (168, 9.19420337212314734643e+02) (69, -1.50000000000000000000e+03) (101, -1.50000000000000000000e+03) (108, -1.50000000000000000000e+03) (77, 1.50000000000000000000e+03) (26, -1.50000000000000000000e+03) (3, -6.52865126860743600901e+01) (35, -3.09144419400965375644e+01) (95, 9.44666044507937243679e+01) (87, 1.39079999079704271026e+03) (142, -1.50000000000000000000e+03) (136, 1.50000000000000000000e+03) (189, -1.09331473272750622527e+03) (70, 9.84580461388750478591e+01) (214, -1.50000000000000000000e+03) (46, -8.81114374082882356731e+00) (213, -1.50000000000000000000e+03) (166, -9.33495719417722511935e+02) (199, 1.50000000000000000000e+03) (216, 4.19936350269776936805e-01) (158, -3.47083331966616559505e-01) (9, -2.07849212169317287824e-01) (26, -1.50000000000000000000e+03) (134, -1.50000000000000000000e+03) (139, -5.09296517248860824978e-01) (60, -1.50000000000000000000e+03) (97, -3.41519880882094213348e+01) (15, 1.04997892429304101825e+03) (20, 1.04079999079704271026e+03) (137, 9.78128565523794122782e+02) (69, -1.50000000000000000000e+03) (51, 3.49557713251711732028e+02) (187, 2.43241180740618858636e+01) (124, -1.50000000000000000000e+03) (70, -9.26784216516128367402e+01) (105, -1.50000000000000000000e+03) (128, -1.73042379368638670201e+01) (27, -1.50000000000000000000e+03) (182, 5.58671305758057346047e-01) (146, -1.50000000000000000000e+03) (44, -1.50000000000000000000e+03) (163, -5.26790739373576997195e+01) (138, 1.50000000000000000000e+03) (122, 7.21045354173016335153e+01) (172, -1.50000000000000000000e+03) (29, -3.17799844009093348518e+01) (72, 5.08705043037858906096e-01) (152, -6.62852987917374480986e+00) (166, -5.43408609545464400981e+02) (24, -1.05093908446418602409e+01) (75, 1.23692884250098427401e+03) (164, 1.43399999594688415527e+03) (82, -1.50000000000000000000e+03) (119, 1.43954514200018790504e+00) (207, 7.60227494801992587092e-01) (130, 8.90891263068434824390e+01) (113, 6.90473733529744171378e-01) (92, -8.80359029477109743311e+02) (48, 1.34079999079704271026e+03) (200, -1.36159018836525433471e+03) (77, 8.96335103305296229337e+02) (36, -4.54237569674023973221e+01) (90, 8.20016891703246869838e+02) (65, 5.73875751008363408801e+02) (85, 1.29079999079704271026e+03) (115, 7.01796175372968367157e+00) (83, -3.00810473018838298032e+00) (188, 5.55025384288643452990e-01) (180, -1.36367006611472447730e+01) (52, -1.09065275255329038373e+03) (0, -1.12037813508731301226e+03) (169, 7.95778634874436761493e+02) (183, 1.37340751893849784437e+02) (6, 6.56968619404508103798e+02) (110, 1.50000000000000000000e+03) (3, -4.90018432062750548539e+01) (116, -1.09929355194244493532e+02) (98, 4.06427689973415738223e+02) (47, 7.29018577337247052128e+02) (142, -1.50000000000000000000e+03) (61, 1.50000000000000000000e+03) (154, 1.50000000000000000000e+03) (148, -1.50000000000000000000e+03) (150, 1.43043070417144622297e+03) (136, 1.50000000000000000000e+03) (50, -5.43002680458564213950e+02) (71, 7.53158183454906293264e+02) (193, 4.06841492101835797257e+02) (11, 1.32044482987715582567e+03) (112, 1.50000000000000000000e+03) (203, 4.93059092219031713800e-01) (109, -4.55467499072267827387e+01) (108, -1.50000000000000000000e+03) (35, -1.73729986505931748297e+01) (17, -1.34296920590657441608e+03) (129, -1.50000000000000000000e+03) (120, -1.40093500696512205650e+03) (95, -4.14849995662940926877e+01) (81, 1.43043070417144622297e+03) (28, 1.43399999594688415527e+03) (7, -9.74532175011721619740e+01) (19, -1.50000000000000000000e+03) (106, -1.50000000000000000000e+03) (53, 1.50000000000000000000e+03) (58, -1.42081135607146580302e-01) (167, 8.26478601384047465217e+02) (118, 7.13002223789836193646e+01) (176, 7.19971179158993646041e+00) (114, 6.12501819922248835759e-01) (32, 1.43399999594688415527e+03) (151, -1.50000000000000000000e+03) (8, 4.67806203867931758023e-01) (173, 1.50000000000000000000e+03) (23, 1.50000000000000000000e+03) (87, 1.34079999079704271026e+03) (59, 1.20149502499872960470e+03) (189, -1.50000000000000000000e+03) (196, -5.51213220058204797169e+02) (30, 1.50000000000000000000e+03) (99, 1.08214603318965259859e+03) (132, -1.50000000000000000000e+03) (199, 1.50000000000000000000e+03) (40, 1.35105117619991119682e+03) (131, 1.50000000000000000000e+03) (104, 1.50000000000000000000e+03) (198, -2.43273450689137815672e+00) (31, 1.47133815750130452216e+01) (107, 1.50000000000000000000e+03) (49, 2.60453894933305946324e+02) (33, -1.50000000000000000000e+03) (185, 9.97406108061563941192e+02) (4, 1.49957890466649337213e+03) (64, 3.14836927026263651896e+02) (144, 6.52310919783692611418e+02) (86, -1.03522248500717580555e+02) (149, -8.82897380832572231668e+00) (76, -1.50000000000000000000e+03) (125, -1.50000000000000000000e+03) (56, 1.10470890872752761425e+03) (184, 1.44539999539852124144e+03) (41, -9.08448453245098789921e+02) (12, -1.49036277229658793431e+02) (160, 2.96086102331856977798e+02) (205, 4.65169282411360296425e-01) (101, -1.50000000000000000000e+03) (213, -1.50000000000000000000e+03) (96, -1.12006569676797107604e+03) (37, 8.08088395700802379906e+02) (209, -2.23579789644665183346e+01) (140, 1.50000000000000000000e+03) (201, -2.47397643221175611572e+00) (79, 1.41651684168841302380e+03) (123, 8.98629566960323813873e+02) (45, 5.08928648037511588420e-01) (147, -1.04791267955085198871e+00) (127, -2.30224899428707496796e+00) (68, 1.50000000000000000000e+03) (14, -5.88750683557182075134e+00) (211, 1.50000000000000000000e+03) (126, -1.50000000000000000000e+03) (91, 1.34079999079704271026e+03) (84, -1.50000000000000000000e+03) (155, 1.50000000000000000000e+03) (10, 1.17203744453055378472e+03) (204, -1.50000000000000000000e+03) (102, -2.64198927293553595064e+02) (73, 1.23905607150127366367e+02) (141, -1.50000000000000000000e+03) (39, -1.50000000000000000000e+03) (202, -1.50000000000000000000e+03) (1, 1.43043070417144622297e+03) (121, -1.50000000000000000000e+03) (215, 1.50000000000000000000e+03) (157, 1.50000000000000000000e+03) (34, -1.50000000000000000000e+03) (190, 7.41884799474217970783e+00) (174, -1.50000000000000000000e+03) (192, -1.50000000000000000000e+03) (214, -1.50000000000000000000e+03) (133, -1.50000000000000000000e+03) (38, -1.17728637645614344365e+03) (161, 1.11615918083292076091e+00) (216, -1.73784219280517827910e-02) (168, 5.56620395759092957633e+02) (153, 3.54814892704566620107e-01) (40, 1.46039999599456768919e+03) (48, 7.26512879821067031116e+02) (173, 1.50000000000000000000e+03) (181, 5.82782342414335130520e-01) (192, -1.50000000000000000000e+03) (12, 8.09924710608060371975e-01) (84, -1.50000000000000000000e+03) (25, -1.50000000000000000000e+03) (97, 6.56926457300309518672e+00) (107, 1.50000000000000000000e+03) (117, -1.50000000000000000000e+03) (38, -3.82906641758011915044e+02) (41, -2.40900066859191355206e+01) (113, -7.22872479355624442121e+00) (68, 1.50000000000000000000e+03) (22, 5.44004162269236189786e+02) (118, 3.93324184574354376309e+01) (164, 1.50000000000000000000e+03) (143, 1.50000000000000000000e+03) (57, 1.50000000000000000000e+03) (34, -1.50000000000000000000e+03) (89, 8.48268890516372238153e+01) (162, 3.76929917289323368479e+00) (147, -5.06538996868624025183e+00) (28, 1.50000000000000000000e+03) (79, 1.14105832222385674868e+03) (82, -1.40608472711971148783e+03) (133, -1.50000000000000000000e+03) (169, 3.77942253202503877674e+02) (182, -9.62696894243206258146e-01) (98, 2.61333609107485465017e+01) (137, 6.96023653817425952184e+02) (140, 1.50000000000000000000e+03) (18, -4.42015506279987135940e+01) (44, -1.50000000000000000000e+03) (198, 2.34329123559702434676e+00) (135, -7.25531375858134651935e+02) (213, -1.50000000000000000000e+03) (197, 1.23925955546284717457e+03) (67, 7.14719670146827070312e+02) (109, -1.09432385889764304920e+03) (72, -3.12935689259299909537e+00) (152, -2.26896875462050395811e+00) (105, -1.50000000000000000000e+03) (1, 1.43399999594688415527e+03) (214, -1.50000000000000000000e+03) (19, -1.09318080212137078888e+03) (114, 4.86378006646325855566e-01) (14, 5.65237152901553185913e-01) (54, 1.24093696166780364365e+03) (126, -1.10224407228655309154e+03) (23, 1.50000000000000000000e+03) (8, -1.90293338988301030668e+01) (158, 6.52602421394118115128e-02) (95, 2.24801051814071684021e+01) (3, -1.61449250091807492424e+01) (104, 1.50000000000000000000e+03) (116, 8.66579779381618351408e+01) (159, 7.20693979854715166766e+02) (70, 7.45168339441783871280e+01) (37, 6.74872981469318119707e+02) (24, -4.66811014428401165333e+01) (56, 1.19465173722293047831e+03) (148, -1.50000000000000000000e+03) (69, -1.15198293910580537158e+03) (165, -2.47365310393281978563e+00) (11, 1.26502070133846109456e+03) (215, 1.50000000000000000000e+03) (123, 1.29240784950119268615e+03) (200, -1.06071803426741507792e+03) (129, -1.18212880687884626241e+03) (199, 1.50000000000000000000e+03) (46, 3.42658144952289689389e-01) (144, 3.10284859105709472260e+02) (172, -1.50000000000000000000e+03) (106, -1.46460176598646262391e+03) (125, -1.50000000000000000000e+03) (209, -5.95058959761332406657e+00) (7, 7.10350133640814229707e-01) (85, 1.00471288401200138196e+03) (77, 1.23706193512829986503e+03) (195, 6.78417278489464621316e+01) (103, 1.50000000000000000000e+03) (138, 1.50000000000000000000e+03) (62, -8.23248930420517808670e+02) (31, 1.74322838636091042019e+01) (102, -7.42089303019566415287e+00) (174, -1.22345520638122934542e+03) (128, -8.53269770090914314586e-01) (131, 1.50000000000000000000e+03) (119, -6.80450604496860389503e+00) (190, 1.40650489270472576209e+01) (0, -7.21917000672827953167e+02) (52, -1.40063994682582392670e+03) (74, 2.49204028845355329835e+00) (30, 1.23335084218654947108e+03) (194, 8.42914367043518524270e+01) (99, 8.35540796155592374816e+02) (185, 6.70543504877105874584e+02) (51, 4.28310998171377832477e+01) (203, 1.38264584617802754885e+00) (61, 1.50000000000000000000e+03) (136, 1.50000000000000000000e+03) (73, 2.40840349291467560988e+02) (87, 1.48499999940395355225e+03) (139, 5.23570525867142810839e-01) (36, 5.14534138864030432536e-01) (27, -1.50000000000000000000e+03) (206, 7.78044921653820097163e+02) (5, -1.50000000000000000000e+03) (10, 3.48798713154930339897e+02) (60, -1.50000000000000000000e+03) (196, -2.25048576157197999237e+01) (50, -9.38026968015187435412e+02) (42, -1.50000000000000000000e+03) (180, 1.54264799260324814156e+00) (170, -4.21411303389193525604e-01) (193, 6.06377557509198481966e+02) (163, -2.78479376004525835953e+00) (45, 4.92097788722924756044e-01) (177, 1.47038187777030526782e+00) (20, 6.84477515131966811168e+02) (43, -1.31275283946224519127e+01) (202, -1.50000000000000000000e+03) (53, 1.50000000000000000000e+03) (58, -7.91797317959490487560e-01) (101, -1.50000000000000000000e+03) (161, 1.05020339689463160227e+00) (130, 1.63500162388397569657e+01) (149, -4.84797506021277802013e-01) (4, 1.23971944167247238511e+03) (83, -1.82745554199469033563e+01) (210, 3.45221739821106950785e+02) (176, 4.70298986957391917940e+01) (122, 3.89778510389221679588e+01) (64, 6.78008102642053245290e+00) (47, 2.40249910106324904291e+01) (127, 1.71831108927185418622e+01) (157, 1.50000000000000000000e+03) (75, 1.22943820456206526615e+03) (65, 2.73718851734161546574e+02) (6, 3.35276995496676249786e+02) (110, 1.50000000000000000000e+03) (186, 2.54675453538247298368e+00) (66, 8.71411761179191671545e+02) (91, 1.50000000000000000000e+03) (191, 2.06257736225875419223e+02) (29, 6.37413698721104537981e+02) (115, 2.03818792332839620940e+02) (132, -1.50000000000000000000e+03) (145, 5.22199561721483178189e+02) (76, -1.15329124325881275581e+03) (134, -1.50000000000000000000e+03) (13, -1.50000000000000000000e+03) (15, 1.23721915551863662586e+03) (120, -8.27523225480912856256e+02) (86, 5.79686898505092873535e+00) (205, 5.95913002754556719864e-01) (124, -1.50000000000000000000e+03) (156, 1.50000000000000000000e+03) (216, 9.46294155700145300791e-02) (193, 3.43595208007314795395e+02) (180, 7.06629828899498733108e+01) (16, -1.50000000000000000000e+03) (128, 3.45749402892546575661e-01) (161, 1.36093463671230665568e+01) (200, -6.32524901602383124555e+02) (111, -6.80646095009731880054e+02) (7, 2.24198682887347855441e+00) (56, 1.28112265493299355512e+03) (168, 1.02431321404461186830e+03) (115, 3.76078469664001204364e+02) (134, -1.50000000000000000000e+03) (158, 2.10004890375020986104e-01) (188, 3.94745234819960044703e+00) (78, 1.50000000000000000000e+03) (173, 1.50000000000000000000e+03) (169, 7.34424094337485030337e+02) (66, 9.05295169164917865601e+02) (11, 1.50000000000000000000e+03) (69, -1.09364702062753963219e+03) (95, 7.68574259227528955307e+01) (28, 1.24358334380219821469e+03) (80, 1.00287685193845140930e+03) (130, 7.35894549253694094659e+02) (32, 1.50000000000000000000e+03) (129, -3.09180101424284430323e+02) (176, 3.05006626815497616789e+00) (149, 9.45653889677477987874e-02) (135, -6.72299591586510700836e+02) (88, 1.23567295614765862410e+03) (174, -5.47721606856856851664e+02) (3, -2.21144614046999379298e+01) (25, -1.10772360742887440210e+03) (94, -1.50000000000000000000e+03) (58, -1.66587650843087436980e-01) (36, -1.71894191774576343690e+00) (76, -1.50000000000000000000e+03) (194, 5.39545529829970064384e+02) (46, -1.02239213573634579735e-01) (107, 1.50000000000000000000e+03) (84, -1.50000000000000000000e+03) (166, -4.60223642319424897096e+01) (33, -1.50000000000000000000e+03) (137, 7.09619585133397777099e+02) (206, 9.25982684486054381523e+02) (160, 7.35495341853117452047e+02) (113, 5.37850658300428889902e+01) (123, 1.29163850705809636565e+03) (1, 1.28244633436428307505e+03) (141, -1.50000000000000000000e+03) (140, 1.50000000000000000000e+03) (60, -1.50000000000000000000e+03) (203, -8.54549119775332544080e-01) (147, -5.89737891877256531492e-02) (73, 5.39624572622290315849e+02) (124, -1.50000000000000000000e+03) (53, 1.50000000000000000000e+03) (64, 8.85949363146351487330e+01) (117, -1.50000000000000000000e+03) (6, 2.33497876848164992225e+02) (118, 9.90140885116755953277e+02) (29, 5.65717452998025237321e+02) (191, 6.72110344522803416112e+02) (26, -1.50000000000000000000e+03) (39, -1.50000000000000000000e+03) (119, 1.53815277147218480991e+01) (47, 4.33843460030196723665e+01) (152, 7.57477523345691679424e+02) (54, 1.50000000000000000000e+03) (179, -6.11147364284404037704e+00) (146, -1.50000000000000000000e+03) (15, 1.22236719557812921266e+03) (19, -1.09510323804367226330e+03) (8, 2.48104654461530618401e-04) (20, 8.02812412131763039724e+02) (67, 5.48905837575157192987e+02) (126, -1.02587366003078886934e+03) (31, 7.58860993755665163008e+01) (207, 3.12549331529081086956e+00) (183, 7.29002861836468582624e+02) (190, 4.52271094397802528420e+02) (92, -2.66795852868949111780e+02) (93, 1.50000000000000000000e+03) (81, 1.50000000000000000000e+03) (63, 3.19682268644933884616e+01) (214, -1.50000000000000000000e+03) (114, -8.41470867009169037898e-02) (109, -3.32205997451475013804e+02) (138, 1.50000000000000000000e+03) (79, 1.24266880286268860800e+03) (90, 2.91759791508491616696e+02) (42, -1.50000000000000000000e+03) (127, 1.43225349616106683470e+02) (23, 1.50000000000000000000e+03) (204, -1.41882932297507272779e+03) (97, 3.30729537652360434663e+01) (62, -1.17525855343978165024e+02) (57, 1.50000000000000000000e+03) (5, -1.46551056775824190481e+03) (148, -1.50000000000000000000e+03) (120, -9.10042247933754538280e+02) (185, 1.27999623977626129090e+03) (106, -1.50000000000000000000e+03) (27, -1.19760793429151681266e+03) (197, 1.50000000000000000000e+03) (116, 5.39739378503019679556e+02) (105, -1.50000000000000000000e+03) (181, 3.69806500560841633352e-01) (195, 1.03504050649542776341e+02) (17, -1.18199572376510150207e+03) (102, -1.78904087118990062777e+01) (101, -1.50000000000000000000e+03) (192, -1.50000000000000000000e+03) (103, 1.50000000000000000000e+03) (87, 1.50000000000000000000e+03) (177, 1.60972737464461435053e+00) (61, 1.50000000000000000000e+03) (30, 1.50000000000000000000e+03) (139, 2.50883285899003882768e-01) (186, 3.27175334415599827764e+00) (18, 5.27933726440980208849e+01) (145, 1.23740151545364005869e+03) (163, -1.09315761228856032972e+02) (22, 5.73901207182636881043e+02) (55, 4.21660475280602298209e-01) (142, -1.50000000000000000000e+03) (143, 1.50000000000000000000e+03) (82, -1.09673571713622368407e+03) (199, 1.50000000000000000000e+03) (132, -1.50000000000000000000e+03) (14, 6.09125379451029935751e+00) (49, 9.89013644638454252345e+02) (171, 1.50000000000000000000e+03) (12, 1.94753564315413143504e+01) (34, -1.20126700754477587907e+03) (104, 1.50000000000000000000e+03) (0, -5.53880487747847780611e+01) (125, -1.50000000000000000000e+03) (122, 3.76586554993086735976e+02) (154, 1.50000000000000000000e+03) (70, 1.63181656983561282459e+02) (208, -8.21145324496442640339e+02) (201, -3.03846441944583830264e+02) (40, 1.50000000000000000000e+03) (121, -1.50000000000000000000e+03) (24, -1.27323547888497003555e+02) (52, -2.65480406490685140852e+02) (10, 2.42057969927348466399e+02) (205, 2.75752697018050874078e+00) (45, 5.03479562666880764432e-01) (38, -3.41064225872860561140e+02) (35, -6.78384604711874583671e+00) (65, 8.50046840522391278228e+01) (89, 1.52627794112110350966e+01) (175, 2.71714744359494764225e+00) (164, 1.24904113497929324694e+03) (85, 1.00113219778528264214e+03) (74, 5.12292467300374170236e+01) (2, 1.50000000000000000000e+03) (162, 4.81323723593025817991e+02) (86, 1.65464724699080193204e+02) (100, 2.61514997199797889493e+01) (216, 4.74856872819131359265e-01) (205, 9.54745790698463270285e-02) (14, -3.06155966755570352333e+00) (43, -1.93226570290711863187e+00) (94, -1.50000000000000000000e+03) (37, 3.78761844538235550317e+01) (136, 1.50000000000000000000e+03) (112, 1.50000000000000000000e+03) (135, -1.41866670584575490466e+03) (177, -1.28014251798208409383e+01) (105, -1.50000000000000000000e+03) (172, -1.50000000000000000000e+03) (61, 1.50000000000000000000e+03) (198, -1.76485722476476469822e+00) (142, -1.50000000000000000000e+03) (44, -1.50000000000000000000e+03) (209, -1.65523446720439920687e-01) (113, -6.75683985830930256000e-01) (85, 1.19126140314536723963e+03) (6, -1.67213886947483530321e+02) (126, -1.09619790382626410974e+03) (157, 1.50000000000000000000e+03) (70, 4.12218546249778761137e+00) (111, -1.18134607700964943433e+03) (133, -1.50000000000000000000e+03) (166, -1.04440925652527454304e+02) (137, 9.78987460351073423226e+02) (0, -1.50000000000000000000e+03) (164, 1.48199999856948852539e+03) (76, -1.50000000000000000000e+03) (152, 1.46732957466139737335e+01) (134, -1.50000000000000000000e+03) (173, 1.50000000000000000000e+03) (214, -1.50000000000000000000e+03) (29, 2.61447177699194185152e+02) (15, 5.49907757366740611360e+02) (7, 4.29226023137541157215e-01) (21, -1.50000000000000000000e+03) (181, 3.71653627024364108244e-01) (182, -2.47991661886252989788e+00) (50, -1.40068823655696883179e+03) (168, 8.67348408943271465432e+02) (163, -4.62069780694332621351e+01) (189, -5.47021448842906693244e+02) (212, 1.50000000000000000000e+03) (81, 1.03109855111629008206e+03) (158, 4.74361671364363801651e-01) (84, -1.50000000000000000000e+03) (51, 2.54848877337727541814e+00) (23, 1.50000000000000000000e+03) (34, -1.50000000000000000000e+03) (169, 4.92498178554695016373e+02) (82, -1.50000000000000000000e+03) (54, 1.39079999079704271026e+03) (36, -5.44615823068138524832e+02) (138, 1.50000000000000000000e+03) (187, 1.01783837596925351932e+02) (200, -1.28563507019780763585e+03) (192, -1.50000000000000000000e+03) (109, -8.18566439338062082243e+02) (58, -2.00385337784549228957e+01) (83, -4.91811186602882173702e+02) (16, -1.50000000000000000000e+03) (55, 8.86111973129150160000e-02) (108, -1.50000000000000000000e+03) (74, -1.06950750348772658072e+02) (159, 7.06594678955448330271e+02) (193, 9.53382831102221416586e+02) (4, 1.15706359322051912386e+03) (11, 4.08416234652888704204e+02) (117, -1.50000000000000000000e+03) (62, -4.67957009588408396894e+01) (211, 1.50000000000000000000e+03) (171, 1.43043070417144622297e+03) (145, 1.54148296842458421452e+02) (146, -1.50000000000000000000e+03) (121, -1.50000000000000000000e+03) (130, 2.48772164774963266964e+00) (178, -5.67310154660497056867e-01) (115, -4.49848104353369482311e+00) (123, 1.00374593687327944735e+03) (47, 2.93653789349415141885e+01) (183, 4.11118613897725424522e+02) (106, -1.50000000000000000000e+03) (170, -2.46523996234678355322e-01) (201, -1.82727609267780799485e+01) (65, 5.70936435771829042807e+00) (165, -1.54164675789224247637e+02) (80, 1.15498207711239069795e+03) (5, -1.50000000000000000000e+03) (31, -1.07105093335714030900e+02) (184, 1.44539999539852124144e+03) (154, 1.50000000000000000000e+03) (67, 6.21403741808694348947e+02) (1, 1.35975683631445804167e+03) (8, -8.73277810949123889372e+00) (191, 3.47784676357176806505e+02) (206, 2.96125956788238340778e+02) (101, -1.50000000000000000000e+03) (93, 1.50000000000000000000e+03) (125, -1.50000000000000000000e+03) (127, -1.00621898721895519202e+02) (140, 1.50000000000000000000e+03) (73, 6.54328743596636286384e+00) (90, -1.07562322985885600701e+02) (155, 1.50000000000000000000e+03) (179, -6.20303250694814067856e-01) (66, 1.04079999079704271026e+03) (194, -9.99673687781641433503e+01) (12, 8.86932012608331654668e-01) (99, 3.96025789816904875806e+02) (45, -5.48729227910479289143e-01) (114, 7.19988446688182404110e-01) (160, 6.53450742511062912854e+02) (53, 1.50000000000000000000e+03) (87, 1.23264706241263365882e+03) (56, 2.73495832701302617807e+02) (120, -1.02245109682590612010e+03) (26, -1.50000000000000000000e+03) (96, -1.12958302182648026246e+03) (110, 1.31378368997401958040e+03) (156, 1.50000000000000000000e+03) (196, -5.99429410193894341319e+02) (174, -1.09457548566390482847e+03) (124, -1.50000000000000000000e+03) (40, 1.43043070417144622297e+03) (39, -1.50000000000000000000e+03) (72, -8.74565133215971357572e+00) (79, 1.25351244426462744741e+03) (77, 1.24997847883359531806e+03) (215, 1.50000000000000000000e+03) (9, -5.15231995713050938690e+00) (91, 1.16061852606012962497e+03) (24, -9.08954292668989751292e+02) (27, -1.50000000000000000000e+03) (57, 1.50000000000000000000e+03) (33, -1.50000000000000000000e+03) (153, -1.81170737778686472552e+01) (100, -2.06410024291999638635e+00) (144, 6.53389867621969756328e+02) (210, 3.10431866040456668543e+02) (116, -1.02115464782663593724e+02) (122, 2.15632439870421848127e+02) (95, 1.90793700535996268997e+00) (17, -1.50000000000000000000e+03) (129, -1.50000000000000000000e+03) (203, -7.59170848869617609367e-01) (175, 2.21404511727338437765e+00) (102, -1.40026417388780373585e+03) (52, -8.22944694900383865388e+02) (69, -1.50000000000000000000e+03) (185, 6.19755939585489954879e+02) (98, 1.01444743447154039018e+02) (195, -8.20717411851724421012e+01) (2, 1.50000000000000000000e+03) (59, 5.27158438636870300797e+02) (38, -9.70964342668586709806e+02) (68, 1.50000000000000000000e+03) (139, 3.65577736416976939449e-01) (42, -1.50000000000000000000e+03) (161, 1.00956363483932354264e+00) (197, 1.50000000000000000000e+03) (141, -1.50000000000000000000e+03) (216, 2.79246393020942673679e-01) (13, -1.50000000000000000000e+03) (150, 1.50000000000000000000e+03) (56, 9.92207456486737100931e+02) (110, 9.81596988304918568247e+02) (176, 4.63858676336953266173e+01) (31, 8.58908615199875669077e+01) (122, 7.29639709098043795166e+02) (103, 1.50000000000000000000e+03) (23, 1.50000000000000000000e+03) (93, 1.50000000000000000000e+03) (198, 6.60069517905439995253e-01) (20, 1.50000000000000000000e+03) (138, 1.50000000000000000000e+03) (29, 9.77827547259750872399e+02) (89, 9.63868880604923447208e+02) (26, -1.50000000000000000000e+03) (55, 2.94884347025822335375e-01) (206, 1.28168990546724694468e+03) (139, 8.81774808433981177602e-02) (79, 1.50000000000000000000e+03) (37, 1.34029580728740711493e+03) (131, 1.50000000000000000000e+03) (92, -9.08791419397698405191e+02) (179, -4.95555504710526761869e+00) (148, -1.50000000000000000000e+03) (142, -1.50000000000000000000e+03) (51, 7.32185269216509368562e+02) (12, 2.89001550435165256658e+02) (149, -2.52431260924801792456e+00) (155, 1.50000000000000000000e+03) (38, -1.42920341592602653691e+02) (98, 2.41220269356812394790e+02) (91, 1.23804057302209639602e+03) (24, -2.51436746482938602298e+01) (119, 1.05184928184909143312e+00) (59, 2.40177670151968953860e+02) (36, -2.78887226486757855426e+00) (156, 1.50000000000000000000e+03) (162, 2.40606738648029875094e+02) (11, 1.50000000000000000000e+03) (8, 2.59764399896489694974e-01) (208, -1.50000000000000000000e+03) (28, 1.50000000000000000000e+03) (66, 1.24306067385997289421e+03) (117, -1.50000000000000000000e+03) (165, -8.74361386197728052139e+00) (76, -1.50000000000000000000e+03) (101, -1.50000000000000000000e+03) (32, 1.50000000000000000000e+03) (207, 3.13793928868068583427e+00) (175, 1.98162212681681566551e+01) (74, 7.33098308090950240512e+02) (201, -8.87785392886596014250e+01) (63, 4.83290963660723889461e+02) (96, -6.81044635861233473406e+02) (127, 1.07712908014886039609e+02) (114, 2.33508192115770840669e-01) (5, -1.50000000000000000000e+03) (188, 4.21006764544651357340e+00) (143, 1.50000000000000000000e+03) (72, -7.83433015799384346867e-02) (81, 1.50000000000000000000e+03) (130, 4.83186200257189000240e+02) (141, -1.50000000000000000000e+03) (16, -1.50000000000000000000e+03) (145, 1.17059813509191280900e+03) (121, -1.50000000000000000000e+03) (190, 2.26730978586824903687e+02) (40, 1.50000000000000000000e+03) (22, 9.25890206902319164328e+02) (21, -1.50000000000000000000e+03) (180, 2.42339005487266661021e+02) (30, 1.23740058242117925147e+03) (15, 1.50000000000000000000e+03) (82, -1.50000000000000000000e+03) (167, 1.50000000000000000000e+03) (46, -4.30756756967942522341e-01) (64, 1.44048348634180769068e+02) (10, 7.33008229153264551314e+02) (19, -9.13250793192318383262e+02) (52, -6.72466616925493326562e+02) (164, 1.50000000000000000000e+03) (7, 8.37806742460684148455e+01) (178, 8.53872042094406036306e-01) (6, 9.68332562737070361436e+02) (3, -2.27570213462541488525e+01) (35, -3.07861043403932210794e+00) (125, -1.50000000000000000000e+03) (170, 1.90784508962250104469e-01) (168, 9.35387032301629346875e+02) (54, 1.50000000000000000000e+03) (144, 8.79822491818728053659e+02) (87, 1.50000000000000000000e+03) (70, 1.29721781769318376121e+01) (194, 4.35650011542108757112e+01) (83, -3.10518665222444978369e+00) (78, 1.50000000000000000000e+03) (210, 5.95912319976202525140e+02) (69, -1.50000000000000000000e+03) (111, -6.85685695531605915676e+02) (154, 1.50000000000000000000e+03) (202, -1.50000000000000000000e+03) (211, 1.50000000000000000000e+03) (169, 7.35216781676405616963e+02) (58, -1.33715075339240492269e+01) (152, 3.39837852513669304244e+02) (212, 1.50000000000000000000e+03) (41, -1.25951061894158598875e+02) (4, 4.81451141460938970340e+02) (163, -7.36943909381231918587e+01) (18, 5.15025621671308499572e+02) (200, -5.54772401632162086571e+01) (73, 9.45654442060055089314e+02) (197, 1.50000000000000000000e+03) (205, 1.67440500903242006636e+00) (146, -1.50000000000000000000e+03) (39, -1.50000000000000000000e+03) (172, -1.50000000000000000000e+03) (128, -4.24320358973823488768e-02) (183, 4.83232959115744336032e+02) (9, -2.31681332716297028185e+00) (134, -1.50000000000000000000e+03) (184, 1.50000000000000000000e+03) (133, -1.50000000000000000000e+03) (160, 1.50000000000000000000e+03) (90, 1.50000000000000000000e+03) (213, -1.50000000000000000000e+03) (166, -6.24965542025089746403e+01) (177, 2.27924562691390200087e+01) (159, 1.28178454903772967555e+03) (77, 1.28821350744802066401e+03) (193, 7.33062692688811807784e+02) (199, 1.50000000000000000000e+03) (85, 1.30288190439414597677e+03) (50, -5.42023948031397026170e+02) (43, -2.13754306687985362601e+00) (47, 1.96479270603908666715e+01) (195, 4.88074010695817094074e+02) (27, -1.50000000000000000000e+03) (75, 1.50000000000000000000e+03) (120, -3.71657626533472466690e+02) (204, -1.41888214360216102250e+03) (136, 1.50000000000000000000e+03) (124, -1.50000000000000000000e+03) (67, 1.01594123820749985043e+03) (174, -3.88288517125977932665e+02) (181, 1.47815426668211036265e+00) (182, 1.77384424867665757564e-01) (49, 7.59950687806599717078e+02) (45, 2.21171326630291220638e+00) (109, -6.72253227910845794213e+02) (171, 1.50000000000000000000e+03) (132, -1.50000000000000000000e+03) (33, -1.50000000000000000000e+03) (116, 7.32644442462372012415e+02) (147, 1.57257910163985048513e-01) (60, -1.50000000000000000000e+03) (57, 1.50000000000000000000e+03) (107, 1.50000000000000000000e+03) (115, 7.35917212608567751886e+02) (137, 6.88986204951446097766e+02) (17, -7.22432950399930291496e+02) (216, -1.77607556202171695814e-01) (5, -1.50000000000000000000e+03) (63, 5.22415189601768474859e+01) (162, 8.89145680736875192451e+02) (32, 1.50000000000000000000e+03) (45, 5.08167296262591694500e+00) (108, -1.50000000000000000000e+03) (14, 5.17793769640270653554e+01) (66, 1.39079999079704271026e+03) (91, 1.48499999940395355225e+03) (28, 1.50000000000000000000e+03) (90, 1.39079999079704271026e+03) (105, -1.50000000000000000000e+03) (173, 1.50000000000000000000e+03) (201, -9.46515538337654476209e+01) (159, 1.50000000000000000000e+03) (97, 4.81134836337270499484e+00) (135, -1.36056644553686396648e+03) (122, 5.30346481585876745157e+02) (114, 1.52329631972324408551e+00) (35, -1.37094741881833392938e+01) (7, 1.14395741234922478924e+01) (102, -6.72286277084498919976e+02) (109, -6.72275573379263846618e+02) (88, 1.50000000000000000000e+03) (164, 1.50000000000000000000e+03) (71, 1.48499999940395355225e+03) (111, -1.50000000000000000000e+03) (125, -1.50000000000000000000e+03) (9, -2.06237717001355680413e-01) (47, 3.82024969824188303846e+02) (52, -6.72390021060319327262e+02) (196, -6.07586619623845347604e+00) (129, -1.50000000000000000000e+03) (187, 2.43136617444539211874e+02) (191, 1.43399999594688415527e+03) (55, 6.05530685243342081669e-01) (140, 1.50000000000000000000e+03) (64, 5.69591199106307954025e+02) (104, 1.50000000000000000000e+03) (177, 8.41098025590972397936e+00) (171, 1.50000000000000000000e+03) (118, 7.10765772337041425999e+02) (18, 3.68885387193240489978e+02) (180, 2.91754525679838195629e+02) (211, 1.50000000000000000000e+03) (161, 7.44414093028041068401e-01) (11, 1.46999999880790710449e+03) (168, 1.39079999079704271026e+03) (33, -1.50000000000000000000e+03) (192, -1.50000000000000000000e+03) (83, -1.34070732178530818146e+02) (37, 1.43399999594688415527e+03) (62, -1.09240488987380376784e+03) (107, 1.50000000000000000000e+03) (206, 1.21985635167332566198e+03) (174, -1.06161300941403965226e+03) (147, 9.74996846913095127629e-02) (172, -1.50000000000000000000e+03) (96, -1.30112900035657321496e+03) (76, -1.50000000000000000000e+03) (214, -1.50000000000000000000e+03) (79, 1.46999999880790710449e+03) (21, -1.50000000000000000000e+03) (6, 1.45073124922778129076e+03) (3, -2.25608970430839477217e+01) (163, -3.73254653095674129304e+01) (106, -1.50000000000000000000e+03) (154, 1.50000000000000000000e+03) (46, -4.12163471406727353497e+02) (50, -1.09488504875786475168e+03) (81, 1.39079999079704271026e+03) (190, 1.45073124922778129076e+03) (59, 9.50409241257480971399e+02) (12, 1.80688611956120354307e+02) (149, 1.01816983124011786743e-01) (138, 1.50000000000000000000e+03) (123, 1.50000000000000000000e+03) (72, -2.77115441843911236575e-01) (99, 1.43399999594688415527e+03) (117, -1.50000000000000000000e+03) (160, 1.43399999594688415527e+03) (24, -6.28806358553880954787e+02) (16, -1.50000000000000000000e+03) (121, -1.50000000000000000000e+03) (82, -1.50000000000000000000e+03) (34, -1.50000000000000000000e+03) (209, -6.03283595658534177453e-02) (80, 1.50000000000000000000e+03) (157, 1.50000000000000000000e+03) (20, 1.39079999079704271026e+03) (136, 1.50000000000000000000e+03) (100, 3.71037125709140003238e+00) (42, -1.50000000000000000000e+03) (115, 7.87641758696008764673e+02) (137, 1.50000000000000000000e+03) (139, 2.06315485515203678180e-01) (101, -1.50000000000000000000e+03) (51, 9.93038101056658888410e+02) (36, -9.93011284068553266025e+01) (30, 1.50000000000000000000e+03) (84, -1.50000000000000000000e+03) (200, -1.50000000000000000000e+03) (73, 7.87990516391444771216e+02) (151, -1.50000000000000000000e+03) (112, 1.50000000000000000000e+03) (89, 1.85552671133247287116e+02) (130, 3.78630738328753238875e+02) (166, -1.32877711894594085607e+03) (210, 4.42777761363799641003e+02) (186, 1.11764782672097702232e+01) (165, -3.23546620331674219528e+01) (110, 1.46999999880790710449e+03) (13, -1.50000000000000000000e+03) (113, 5.97502377776148705379e+01) (116, 1.36163859964959829085e+03) (143, 1.50000000000000000000e+03) (0, -1.41683342100244317407e+03) (142, -1.50000000000000000000e+03) (133, -1.50000000000000000000e+03) (54, 1.50000000000000000000e+03) (92, -1.28489692501391004953e+03) (178, 2.45516459421632315951e+00) (22, 7.87846906590424396200e+02) (150, 1.50000000000000000000e+03) (124, -1.50000000000000000000e+03) (195, 8.33403615762682932200e+01) (17, -1.41749771229272982964e+03) (41, -3.00984739008989549802e+02) (48, 1.50000000000000000000e+03) (213, -1.50000000000000000000e+03) (68, 1.50000000000000000000e+03) (179, -6.82116857082111849309e+00) (2, 1.50000000000000000000e+03) (10, 1.05327691347100062558e+03) (204, -1.41884800092497812329e+03) (183, 1.08837508084612090897e+03) (44, -1.50000000000000000000e+03) (202, -1.50000000000000000000e+03) (25, -1.50000000000000000000e+03) (65, 9.02463178565153157251e+02) (184, 1.50000000000000000000e+03) (8, 3.58836055345619908685e-02) (56, 1.46699999797344207764e+03) (78, 1.50000000000000000000e+03) (197, 1.50000000000000000000e+03) (15, 1.43399999594688415527e+03) (103, 1.50000000000000000000e+03) (49, 1.37849879594347339662e+03) (58, -8.02298865056736332235e+01) (67, 1.13967075353776340307e+03) (152, 4.51545690614304817245e+02) (167, 1.48499999940395355225e+03) (75, 1.50000000000000000000e+03) (77, 1.46999999880790710449e+03) (26, -1.50000000000000000000e+03) (93, 1.50000000000000000000e+03) (95, 1.82738092272470026955e+02) (43, -6.40238448289746173714e+01) (40, 1.50000000000000000000e+03) (23, 1.50000000000000000000e+03) (53, 1.50000000000000000000e+03) (70, 3.63125154203728016000e+02) (216, 7.33516251089339710312e-01) (200, -1.35721253285879902251e+03) (130, 1.74758428892421058265e+00) (101, -1.47494564978807534317e+03) (193, 5.39410629731885649107e+00) (178, 9.96645937041487961494e-01) (108, -1.50000000000000000000e+03) (49, 2.51407039030371137756e+00) (96, -1.09529519536179941497e+03) (116, 1.80668087294811519072e+00) (213, -1.50000000000000000000e+03) (115, 5.86948089159648134228e+01) (203, 7.22817367077115746632e-01) (97, 1.37475410136976838871e+00) (141, -1.50000000000000000000e+03) (207, -1.64025852197694832491e+00) (57, 1.45823999522209146562e+03) (175, 2.03893193594571187077e+00) (190, -1.39706094267180063184e+01) (58, -2.77523191923433332207e+00) (2, 2.85475696539645355188e+02) (71, 6.02226548138304451641e+01) (76, -1.47365526802227418557e+03) (4, 2.55198439884661070209e+02) (165, -1.20633493758159900722e+02) (69, -1.50000000000000000000e+03) (51, 1.45750482328785437858e+02) (111, -1.47413975020803900406e+03) (94, -1.50000000000000000000e+03) (144, -5.11509748832695265719e+00) (100, 9.71179155386279635565e-01) (140, 4.07865446637462468971e+02) (127, 1.32911100410938809446e+00) (155, 1.31280983087540425913e+03) (84, -1.50000000000000000000e+03) (81, 2.30064893248126054459e+01) (188, 1.59222522425729517970e+00) (9, -1.88704111219247749887e+01) (123, 3.83275806433225056935e+01) (20, 1.46693501151911618763e+02) (93, 1.50000000000000000000e+03) (125, -1.50000000000000000000e+03) (16, -1.47503626488923396209e+03) (12, 1.45493784183477828265e+02) (129, -1.35842266873799690075e+03) (32, 1.09882021288146665938e+03) (170, 3.54570224838121228483e-01) (17, -1.21141078773339177133e+03) (43, -1.08429308913958379890e+03) (54, 1.12126140433746013514e+03) (27, -1.50000000000000000000e+03) (14, 3.32287394671921054723e+00) (187, 3.16881326712804511914e+00) (25, -1.50000000000000000000e+03) (134, -1.50000000000000000000e+03) (106, -1.47496986544161404709e+03) (201, -2.07023873645525355869e+01) (206, 1.47072585337201815037e+02) (199, 1.32044482987715582567e+03) (72, -1.28096059487337932126e+00) (172, -1.50000000000000000000e+03) (208, -1.50000000000000000000e+03) (176, 2.22771942879769246915e+00) (135, -1.47392560411545264287e+03) (120, -1.19995348785955528115e+02) (0, -1.09606264693482057737e+03) (109, -1.09778977323462731874e+03) (182, 6.89694556061033248184e-01) (91, -4.19011356377468757728e+00) (107, 1.50000000000000000000e+03) (177, -2.08708192843407625006e+00) (128, -1.80327677645605461976e+01) (63, 4.72087759744118606875e+00) (147, 2.67909317453094264483e-01) (103, 1.50000000000000000000e+03) (31, -2.17629609528877665525e-02) (98, 5.90449093277748033870e+01) (198, 4.35482161532425404715e+00) (90, 3.59391735068393103347e+01) (146, -1.50000000000000000000e+03) (139, 6.51324321050679611034e-01) (10, 6.18672916955247274018e+01) (92, -1.21520687529913152503e+03) (185, -3.36932107296115113115e+00) (205, 1.60758094475604718099e+00) (168, 6.31250456830155002308e+01) (117, -1.50000000000000000000e+03) (50, -1.19974384081501582955e+02) (166, -9.60019198061054794380e+02) (150, 6.44676241239294768093e+02) (21, -1.50000000000000000000e+03) (121, -1.50000000000000000000e+03) (66, 1.46875663005969215646e+02) (209, -4.52126956607016605716e+00) (46, -6.72147524717002475825e+00) (179, -2.01527764980978751908e+00) (60, -1.21120534252358106642e+03) (118, 1.44228432459370337071e+00) (133, -1.50000000000000000000e+03) (19, -9.30022553359818402896e+02) (37, 6.07343775515350898786e+01) (138, 1.50000000000000000000e+03) (61, 1.50000000000000000000e+03) (110, 8.08550846470931446675e+02) (35, -6.26970056628650773689e+00) (7, 1.86714619254917280067e+00) (159, 3.50391121101962426110e+01) (197, 8.89456069244086847903e+02) (62, -1.08819448576963372943e+03) (126, -1.07459106622166996203e+03) (174, -1.35559973787659009758e+03) (73, 5.87294334826190151944e+01) (164, 1.01758138548591409744e+03) (68, 1.27126140433746013514e+03) (28, 8.18679908510324821691e+02) (114, 3.45328004767123053487e-01) (26, -1.50000000000000000000e+03) (75, 6.05407447638444864424e+01) (124, -1.50000000000000000000e+03) (23, 1.50000000000000000000e+03) (3, -1.06247266490058251520e+02) (70, 1.17881662046889368334e+00) (52, -2.55608828340577616700e+02) (156, 5.08674505655127973114e+02) (53, 1.49351999897003179285e+03) (210, -1.49748775089161689777e+00) (142, -1.47503892981290186981e+03) (24, -2.51738986084213536287e+02) (160, 1.46977502181190118336e+02) (18, 2.57729095651896749075e+01) (5, -1.47545005744038053308e+03) (85, -4.01450994060694199561e+00) (163, -1.09215682827913710184e+02) (95, 4.56783467904045270558e+00) (211, 1.50000000000000000000e+03) (122, -4.80571672945604611016e+00) (30, 5.11987996248416607159e+02) (196, -6.58149045107928198917e+00) (78, 1.50000000000000000000e+03) (131, 1.50000000000000000000e+03) (67, 5.91913061919038909764e+01) (47, -3.60051211665496566638e+01) (38, -7.95113166044366266760e+02) (82, -1.21111009788495925932e+03) (154, 1.27126140433746013514e+03) (151, -1.50000000000000000000e+03) (13, -1.47422470100157352135e+03) (88, 5.81042350716161308810e+02) (87, 8.34085543065283445685e+02) (162, 4.45032679766169358970e+00) (148, -1.50000000000000000000e+03) (45, 5.60735554972579430810e-01) (194, 1.16044552702494341290e+00) (33, -1.50000000000000000000e+03) (41, -4.77928423093718038217e+02) (157, 1.50000000000000000000e+03) (44, -1.50000000000000000000e+03) (113, -2.40260349107058202023e+00) (171, 4.18203710095112171530e+02) (173, 1.35105117619991119682e+03) (8, 5.24661487260434045155e-01) (36, -9.25626750578428669769e+00) (77, 6.69866251905143144540e+02) (216, -1.28935293973584996774e-01) (40, 6.61952811141785332438e+02) (71, 4.36056229748657528944e+01) (139, -1.72785679679465298264e+00) (173, 1.32952508436550306214e+03) (183, 6.13657089522560283967e+00) (166, -3.51327178348600170921e+01) (202, -1.48047356215335457819e+03) (15, -9.91579526382973597265e+00) (120, -3.13042182919727395074e+02) (24, -7.03365792423152402790e+00) (75, -9.67673543660517054832e+01) (156, 1.34013567435172262776e+03) (33, -3.63507397189976757090e+02) (126, -4.92064705807026996354e+01) (144, -1.52502001634224086501e+02) (169, 6.08670809365951459569e+00) (146, -6.39307997188046670090e+02) (57, 1.50000000000000000000e+03) (65, 4.37143278955325342849e+00) (163, -1.26744123210984334094e+01) (35, -5.10898699864100858115e-01) (112, 1.50000000000000000000e+03) (143, 9.11882492309416647913e+02) (90, -8.46621206161782282607e+01) (88, 2.60835242861138453918e+02) (167, 1.67725729280748900862e+01) (159, 2.43661415722540539264e+02) (208, -6.82184373488875394287e+02) (153, -8.52095657986495780278e-02) (16, -8.36067705974093087207e+02) (63, -7.18899298121701768594e+00) (198, 3.31259902937403261092e+00) (46, 2.00521945835105519507e-01) (212, 1.50000000000000000000e+03) (97, -5.47785181818058752867e+00) (165, 9.23505828450619681291e-01) (78, 1.50000000000000000000e+03) (130, -4.50821006017671965793e+00) (199, 1.32618967620926332529e+03) (68, 1.50000000000000000000e+03) (105, -8.38397504292864141462e+02) (60, -1.16093053031710951473e+03) (39, -1.50000000000000000000e+03) (180, -1.31953182041379069034e+01) (206, -1.52356794974354727401e+02) (67, -8.88772885808034232014e+01) (2, 9.89864450351919003879e+02) (209, 5.12227571282094729099e-01) (117, -1.50000000000000000000e+03) (3, -9.73272151349385494790e-01) (84, -9.52306142881550385937e+02) (83, -5.60022729566521348943e+00) (127, -1.43710607440993989314e+01) (59, -3.75305211464898746954e+01) (74, -1.20734044203788766225e+01) (193, -9.89935226963751802032e+01) (136, 1.32364007147869369874e+03) (19, -3.30204606420817412982e+02) (158, 5.60744844411344978141e-01) (113, -4.26116263991371546638e+00) (151, -1.24177391475610102134e+03) (119, 7.89196650860800930083e-01) (20, -1.49260828444221573363e+02) (53, 1.50000000000000000000e+03) (191, -9.83058288730751996809e+01) (6, -8.53748294871699897612e+00) (157, 1.50000000000000000000e+03) (109, -6.06319554022553575123e+02) (170, -1.07082696818060463251e+00) (149, -6.35349832912722778389e+00) (213, -1.50000000000000000000e+03) (162, 2.32286651602361393643e-02) (160, -1.52510978782905965545e+02) (38, -7.16863883982841230136e+01) (194, -1.35043476501718995308e-01) (44, -9.39244530150903756294e+02) (104, 1.50000000000000000000e+03) (86, -7.49946292890976167200e+01) (21, -1.50000000000000000000e+03) (55, 4.91955035189406975071e-01) (51, 4.05752865241208056091e+01) (11, 4.36612726389558929441e+01) (54, 3.65575512572911293319e+02) (80, 4.35956886091163937635e+01) (175, 2.22428424145446479443e+00) (7, -7.14742419154734598408e+00) (32, 3.74603228153293628111e+02) (41, -2.20890706135000636223e+00) (141, -1.24030458179498100435e+03) (205, 1.15537225606481025464e-01) (150, 2.09193101201997251337e+02) (69, -4.00377309740755435996e+02) (210, -4.11233696820723366727e+01) (61, 1.50000000000000000000e+03) (4, 7.85776740436503700948e+02) (43, -4.22435442749473644142e+00) (125, -1.23895943227647740059e+03) (111, -6.92958280104207204886e+01) (211, 1.50000000000000000000e+03) (79, 1.40796094921585194015e+02) (37, 1.79148625666482566032e+01) (85, -9.11929360590208943904e+01) (106, -9.12502091623569640433e+02) (108, -1.50000000000000000000e+03) (82, -6.78459082000805665302e+02) (23, 1.50000000000000000000e+03) (192, -5.77477360310623907935e+02) (29, -1.20094712219508341633e+01) (56, 2.25222059164408250354e+01) (203, 2.30856466122375714178e+00) (140, 1.32008840587419035728e+03) (36, -1.85293692448986426768e+01) (190, -1.75448871779614323785e+00) (186, 2.17642474002078412099e+00) (176, 4.67066165689089451973e+00) (47, 6.86984705960349817389e+00) (171, 2.05379363146319803946e+02) (155, 1.32476111262637050459e+03) (0, -3.77504078602139330201e+01) (27, -5.28802328015035186581e+02) (73, -4.10209173348063558251e+01) (168, -1.49376750478008347045e+02) (164, 1.08121336476307874364e+03) (207, 1.02552530120053742024e+00) (110, 7.51426775531925272844e+02) (123, 1.31392394828266304785e+02) (99, 4.36672739054475869125e+01) (52, -2.93566778741505686412e+02) (196, -1.25999315349678697729e+00) (8, -3.23648125028809952042e+00) (179, -5.37055327078738713453e+01) (201, -8.42301493629060928470e+02) (129, -2.17827492786755954057e+02) (177, -4.93014353530151794303e+00) (25, -9.51753724960608792571e+02) (64, -1.52580613378396179769e+02) (197, 9.38816182274111838524e+02) (145, 6.09486085884093142795e+01) (13, -5.26462777762331256781e+02) (122, 4.62658711375536135790e+00) (58, 7.56172823534273730317e-01) (100, -1.80146669925090208153e-01) (1, 3.69386704996856167327e+02) (133, -1.23888563225655752831e+03) (72, 1.27441062390964510165e+00) (9, -6.32813560220874982143e-01) (131, 1.50000000000000000000e+03) (124, -9.52326280921735360607e+02) (18, -5.88977311234375111582e+00) (184, 1.04548106890733902219e+03) (92, -3.76794332941715097718e+01) (214, -8.35760436800832280824e+02) (48, 2.17469570949285810002e+02) (87, 6.44598353935738714426e+02) (154, 1.32600665538360794926e+03) (200, -9.03932391861362134478e+01) (189, -6.12290825448272016729e+02) (81, 6.92249513808824303851e+01) (26, -1.48004134338389894765e+03) (45, 1.67042079859759406979e+00) (91, 7.16923239492135621731e+02) (137, -8.71516083560297261101e+01) (216, 4.69282824680314347709e-01) (84, -1.50000000000000000000e+03) (96, -1.12006118674987942541e+03) (72, -9.29966531678836005881e+00) (137, 1.39079999079704271026e+03) (120, -8.23464832340388852572e+02) (196, -1.01917578372396704367e+02) (35, -7.59970503387382700922e-01) (94, -1.50000000000000000000e+03) (138, 1.50000000000000000000e+03) (113, -1.82731938848191717284e+01) (101, -1.50000000000000000000e+03) (111, -7.28337125611647593360e+02) (62, -7.54549185824264895928e+02) (53, 1.50000000000000000000e+03) (125, -1.50000000000000000000e+03) (97, -1.82568171244055008628e+01) (99, 1.31086140834289244594e+03) (169, 8.89943192181173117206e+02) (18, -1.07147665336880834275e+02) (24, -3.03106211211077663847e+02) (45, -1.39307601070367788054e+01) (80, 1.47148799485015842947e+03) (188, 4.43345632349804175121e-01) (39, -1.50000000000000000000e+03) (103, 1.50000000000000000000e+03) (58, -3.85459547484131803685e+00) (121, -1.50000000000000000000e+03) (159, 9.53845392377220946400e+02) (202, -1.50000000000000000000e+03) (4, 1.50000000000000000000e+03) (152, -4.43176274132740815048e+01) (42, -1.50000000000000000000e+03) (163, -1.09774300208462136652e+02) (211, 1.50000000000000000000e+03) (127, 6.38913378894196171132e+01) (206, 1.39642415152859712180e+03) (51, 5.80653066264824133214e+02) (135, -1.50000000000000000000e+03) (171, 1.50000000000000000000e+03) (194, 7.28393624783402742651e+02) (133, -1.50000000000000000000e+03) (95, -1.29956498939723075203e+00) (38, -1.50000000000000000000e+03) (30, 1.50000000000000000000e+03) (193, 6.21350799705416079632e+02) (165, -6.49556093596891681585e+00) (102, -1.10298396466683016115e+02) (140, 1.50000000000000000000e+03) (63, 2.57401142241734026683e+00) (98, 6.10181936466358706639e+02) (214, -1.50000000000000000000e+03) (85, 1.29079999079704271026e+03) (123, 1.48499999940395355225e+03) (157, 1.50000000000000000000e+03) (116, 5.48470278905286818372e+02) (82, -1.50000000000000000000e+03) (210, 9.15533740350064022095e+02) (115, 2.06705869854153547749e+02) (212, 1.50000000000000000000e+03) (148, -1.50000000000000000000e+03) (93, 1.50000000000000000000e+03) (200, -1.29311958919373455501e+03) (89, 2.10198039744510253968e+02) (22, 4.01558384612653696877e+02) (70, 6.22168613025337791100e+00) (144, 9.70273399860992071808e+02) (195, 1.05848523211700644708e+01) (75, 9.88631224316875204750e+02) (183, 7.14153333818489727491e+02) (90, 7.21366337434525462413e+02) (88, 1.50000000000000000000e+03) (104, 1.50000000000000000000e+03) (155, 1.50000000000000000000e+03) (151, -1.50000000000000000000e+03) (153, -8.02116983817981354932e-01) (114, 7.80977045982015338765e-01) (146, -1.50000000000000000000e+03) (208, -1.50000000000000000000e+03) (1, 1.45458814934600718516e+03) (49, 1.39573807319825186823e+03) (186, 1.07259527219237877915e+01) (73, 4.15613718667086345704e+02) (110, 1.46999999880790710449e+03) (119, 5.36376089938514866162e+01) (129, -1.50000000000000000000e+03) (174, -1.02184866175305035085e+03) (199, 1.50000000000000000000e+03) (6, 7.68291937213121059358e+02) (76, -1.50000000000000000000e+03) (21, -1.50000000000000000000e+03) (7, -1.08281368802764490056e+02) (198, 1.54150552585816180695e+00) (77, 1.50000000000000000000e+03) (11, 1.50000000000000000000e+03) (81, 1.43043070417144622297e+03) (167, 1.34362031572344812957e+03) (149, -9.22251370465020259282e-01) (209, 7.30452100027612349908e-02) (132, -1.50000000000000000000e+03) (131, 1.50000000000000000000e+03) (41, -5.30744484467069469247e+02) (31, 4.47333201021180798307e+02) (15, 1.41363919012682049470e+03) (29, 1.38471358124542098267e+03) (67, 7.60640323550187190449e+02) (8, 3.47970637906986346444e-01) (12, 1.02566253163126708259e+00) (164, 1.50000000000000000000e+03) (128, -4.08923985357910607652e-02) (57, 1.50000000000000000000e+03) (56, 1.24912549723997585716e+03) (166, -2.66347710323665580745e+02) (66, 1.09538262082562027899e+03) (36, -2.64409476050634168587e+02) (50, -1.09103123922333611517e+03) (185, 8.71935876119752720115e+02) (13, -1.50000000000000000000e+03) (204, -1.50000000000000000000e+03) (92, -1.50000000000000000000e+03) (170, -7.38256412618184754137e-01) (136, 1.50000000000000000000e+03) (65, 3.01071975431325746797e+01) (55, 7.44894914070051261668e-01) (27, -1.50000000000000000000e+03) (172, -1.50000000000000000000e+03) (44, -1.50000000000000000000e+03) (71, 1.09354780432846041549e+03) (52, -1.41062570969236662677e+03) (154, 1.50000000000000000000e+03) (109, -5.41431062480835066708e+02) (20, 1.17326140171485599240e+03) (175, 7.27327443741458790072e+00) (79, 1.39079999079704271026e+03) (156, 1.50000000000000000000e+03) (168, 1.36875683702971377897e+03) (189, -1.40148947373233863800e+03) (69, -1.50000000000000000000e+03) (40, 1.46999999880790710449e+03) (91, 1.45199999737739562988e+03) (34, -1.50000000000000000000e+03) (108, -1.50000000000000000000e+03) (207, 2.93089153563649773560e+00) (150, 1.48499999940395355225e+03) (83, -4.91884659497610357448e+02) (112, 1.50000000000000000000e+03) (213, -1.50000000000000000000e+03) (203, 7.14628583386788140963e-01) (179, -2.44395945899868616280e+00) (47, 7.03959199175055942987e+01) (145, 4.99025678210581361327e+02) (46, -2.19812765372743541548e+01) (181, 8.23253385984419772115e-01) (9, -3.47630461254098410695e-01) (26, -1.50000000000000000000e+03) (25, -1.50000000000000000000e+03) (184, 1.50000000000000000000e+03) (201, -1.83985833031683334582e+01) (124, -1.50000000000000000000e+03) (118, 4.48443832695350579343e+02) (126, -1.09544444340956488304e+03) (59, 7.61289733914562020800e+02) (205, -6.75123834944120204682e-02) (216, 2.05280333307822221434e-01) (72, 2.05602681009420029667e-01) (120, -6.70482679854487287230e+02) (89, 1.99983241198234722447e+01) (123, 1.50000000000000000000e+03) (102, -4.41074652300220407142e+02) (43, -6.70610863668324874709e+00) (205, 3.59235833995256559348e+00) (165, 2.72423838662133155353e-01) (200, -1.40348660281642219161e+03) (168, 1.50000000000000000000e+03) (151, -1.50000000000000000000e+03) (36, -1.12265161466721306027e+01) (146, -1.50000000000000000000e+03) (206, 1.50000000000000000000e+03) (145, 1.50000000000000000000e+03) (74, 4.83596034711929519290e+02) (37, 1.50000000000000000000e+03) (99, 1.50000000000000000000e+03) (85, 1.50000000000000000000e+03) (180, 4.26972079153367189974e+01) (73, 1.50000000000000000000e+03) (59, 1.50000000000000000000e+03) (82, -1.05819241083794850056e+03) (135, -9.73319592928272413701e+02) (141, -1.50000000000000000000e+03) (27, -1.50000000000000000000e+03) (142, -1.50000000000000000000e+03) (77, 1.50000000000000000000e+03) (208, -1.50000000000000000000e+03) (1, 1.50000000000000000000e+03) (213, -1.50000000000000000000e+03) (202, -1.50000000000000000000e+03) (166, -6.83108941029957350111e+02) (47, 1.30128175663190700106e+03) (177, 4.22870234251487246979e+01) (19, -9.67900888346778742743e+02) (182, 2.65215170841246239419e-01) (101, -1.50000000000000000000e+03) (62, -4.04964890180535448394e+01) (41, -4.57347886024788863324e+02) (57, 1.50000000000000000000e+03) (81, 1.50000000000000000000e+03) (83, -6.49129893309049799122e-01) (111, -1.21857780654756948024e+03) (194, 7.22397083656980612432e+02) (114, 5.15556010566044609078e-01) (0, -1.02998780416906674873e+03) (134, -1.50000000000000000000e+03) (54, 1.50000000000000000000e+03) (170, -8.70123642218611353938e-02) (16, -1.50000000000000000000e+03) (201, -5.59478007401356080663e+02) (108, -1.50000000000000000000e+03) (140, 1.50000000000000000000e+03) (138, 1.50000000000000000000e+03) (6, 1.21422635819755396369e+03) (22, 1.28823409347464303210e+03) (158, -6.93382937082688277641e-02) (56, 1.50000000000000000000e+03) (29, 1.50000000000000000000e+03) (105, -1.50000000000000000000e+03) (132, -1.50000000000000000000e+03) (204, -1.50000000000000000000e+03) (178, 1.80738580275452775936e+01) (113, 4.87505699131156632120e+02) (162, 1.78097434946690569291e+01) (163, -5.09443850291541835418e+01) (212, 1.50000000000000000000e+03) (100, 1.26731027865840800928e+02) (131, 1.50000000000000000000e+03) (87, 1.50000000000000000000e+03) (69, -1.50000000000000000000e+03) (119, 1.76760194342618497387e+01) (8, 1.77144866958343694119e-01) (63, 4.92488583962149789386e+02) (7, 3.43591189615429382087e+00) (179, -1.07816288023497186543e+01) (106, -1.50000000000000000000e+03) (31, 1.00597649800658859931e+03) (86, 7.33321004464301381631e+02) (148, -1.50000000000000000000e+03) (4, 1.50000000000000000000e+03) (154, 1.50000000000000000000e+03) (40, 1.50000000000000000000e+03) (115, 1.27914970153121475960e+03) (190, 1.27450985150949009039e+03) (187, 2.41041299052389035751e+02) (183, 7.28935267409509151548e+02) (90, 9.96128742030846751732e+02) (203, 3.41558710249352439486e-03) (103, 1.50000000000000000000e+03) (42, -1.50000000000000000000e+03) (143, 1.50000000000000000000e+03) (68, 1.50000000000000000000e+03) (32, 1.50000000000000000000e+03) (185, 7.25265283660897011941e+02) (167, 1.50000000000000000000e+03) (97, 1.01145431190793289034e+02) (88, 1.50000000000000000000e+03) (53, 1.50000000000000000000e+03) (214, -1.50000000000000000000e+03) (136, 1.50000000000000000000e+03) (197, 1.50000000000000000000e+03) (98, 1.27915499922408207567e+03) (45, 1.72383285806276642660e+00) (35, 3.83954347464288581193e-01) (171, 1.50000000000000000000e+03) (91, 1.50000000000000000000e+03) (9, -5.58243824267896981972e-01) (65, 7.75563253045763985938e+02) (24, -8.11502644008833300404e+01) (11, 1.50000000000000000000e+03) (51, 9.98701596218618533385e+02) (107, 1.50000000000000000000e+03) (5, -1.50000000000000000000e+03) (25, -1.50000000000000000000e+03) (75, 1.48499999940395355225e+03) (196, -1.36880531946574677704e+02) (121, -1.50000000000000000000e+03) (94, -1.50000000000000000000e+03) (79, 1.50000000000000000000e+03) (116, 7.35770491592027383376e+02) (93, 1.50000000000000000000e+03) (49, 1.28790973182339212144e+03) (184, 1.50000000000000000000e+03) (209, -2.20595012311841337516e-01) (199, 1.50000000000000000000e+03) (195, 4.91579258150996679433e+02) (128, 3.31171523796563005426e-01) (28, 1.50000000000000000000e+03) (14, 8.24000551544752823929e+00) (44, -1.50000000000000000000e+03) (172, -1.50000000000000000000e+03) (66, 1.50000000000000000000e+03) (139, 2.62709621708971163834e-01) (38, -1.03022567128179662177e+03) (110, 1.50000000000000000000e+03) (80, 1.50000000000000000000e+03) (109, -9.79374019574647263653e+02) (153, 5.26834757079377546951e-01) (122, 4.80674544484652528809e+02) (124, -1.50000000000000000000e+03) (160, 1.50000000000000000000e+03) (26, -1.50000000000000000000e+03) (186, 9.34521862742108027078e+01) (15, 1.50000000000000000000e+03) (52, -2.03347948361710990639e+02) (48, 1.50000000000000000000e+03) (10, 1.30039163189411965504e+03) (104, 1.50000000000000000000e+03) (198, 4.54142293081233905383e+00) (156, 1.50000000000000000000e+03) (137, 1.50000000000000000000e+03) (71, 1.27927934424592831419e+03) (207, 4.14780214758600163094e-01) (33, -1.50000000000000000000e+03) (164, 1.50000000000000000000e+03) (30, 1.50000000000000000000e+03) (152, 4.25721556956424294071e+01) (127, 9.97842675632400755603e+02) (174, -6.64524774483373477096e+01) (150, 1.50000000000000000000e+03) (216, -1.41675084633520576016e-01) (37, 2.36583410310728083914e+02) (120, -1.15019319755600704980e+02) (113, -8.01588181359943918736e-01) (163, -4.43206346122241079399e+00) (41, -2.14947767859984040228e+01) (33, -1.50000000000000000000e+03) (141, -1.50000000000000000000e+03) (73, -8.30277825885386278060e+01) (23, 1.50000000000000000000e+03) (159, 4.10079160890424248009e+02) (49, 2.10575471961767135554e+02) (114, 1.79046260491005637672e-01) (59, -3.22390437459673648846e+01) (192, -1.24066039362965011605e+03) (85, 2.07526509854682615241e+02) (63, 1.16318051502177932655e+00) (83, -2.20794278783295823132e+01) (170, -1.44200162175911050788e+00) (53, 1.50000000000000000000e+03) (152, -3.04712858528505847744e+01) (143, 1.04946208686087220485e+03) (79, 4.32940062891903551190e+02) (40, 9.68916922560919374519e+02) (61, 1.50000000000000000000e+03) (97, 5.72492792438819120271e-01) (55, 2.21373824788537953978e-01) (45, -1.50595743797380665630e-01) (77, 2.08212904814752988614e+02) (17, -1.68557824408307908470e+02) (215, 1.50000000000000000000e+03) (161, -4.69935400214523468776e+01) (76, -1.28618666390280122869e+03) (212, 1.50000000000000000000e+03) (91, 7.63328000211328401292e+01) (191, 7.77966410941664587853e+00) (193, -5.77609833855215697440e+01) (108, -1.50000000000000000000e+03) (139, -2.58507804556411154018e-02) (3, -5.89340230520958385796e+01) (172, -1.50000000000000000000e+03) (187, 1.17899614895722635310e+01) (196, -1.14801978662431949374e+02) (144, -1.26298034792796983083e+02) (203, 3.12011187595729766464e-01) (102, -1.15307051750129275547e+02) (178, 2.61067074252421926772e-01) (213, -1.50000000000000000000e+03) (44, -1.50000000000000000000e+03) (47, 3.88795937443488437424e+00) (70, 2.59665968627567966820e-01) (60, -1.50000000000000000000e+03) (38, -3.98780369190810574764e+02) (89, -1.91154926604032437965e-02) (160, -1.26208686547384871801e+02) (204, -8.57634148984834610019e+02) (109, -1.14812495291054958102e+02) (195, 1.68869062910229708052e+01) (123, 6.64758245302196883131e+02) (30, 1.50000000000000000000e+03) (104, 1.50000000000000000000e+03) (7, -1.73857232279367615035e+01) (80, 2.73971195359711998663e+02) (132, -1.50000000000000000000e+03) (169, 1.04506502414543831492e+01) (122, 2.83701703636914395190e+01) (1, 7.16281534429463363267e+02) (20, 1.03837258372083283575e+02) (11, 8.66414607778204072019e+02) (93, 1.50000000000000000000e+03) (185, 5.46045670883208345003e+02) (202, -1.50000000000000000000e+03) (181, -1.31776227957487601650e+00) (180, -3.08655856288163406020e+01) (94, -1.48340350718632953431e+03) (50, -1.15486527193349886034e+02) (156, 1.37288575803452044966e+03) (184, 1.50000000000000000000e+03) (15, 3.92323492700121619237e+02) (135, -8.55783475565244316385e+02) (176, 1.29524965871406827489e+01) (87, 8.94426731992555005490e+02) (42, -1.50000000000000000000e+03) (137, -1.06666031782561901764e+02) (201, -1.15872255747614403276e+02) (68, 1.50000000000000000000e+03) (164, 1.02338663882452863163e+03) (142, -1.44749504032211734739e+03) (10, 1.72924224162491881884e+01) (129, -8.24307603919952271099e+02) (19, -5.66966794917480797267e+02) (99, 2.69882760758792528577e+02) (112, 1.50000000000000000000e+03) (51, 3.87248562853023145180e+02) (124, -1.50000000000000000000e+03) (133, -1.50000000000000000000e+03) (14, 4.37765950961464700431e-01) (154, 1.50000000000000000000e+03) (153, -2.63008310370493159080e-01) (46, -3.45708159197747821878e+00) (107, 1.50000000000000000000e+03) (207, 1.33251908640395821948e+00) (96, -1.58390286780907246111e+02) (209, -7.07375035239461658065e-01) (147, -2.12125883967559214494e-01) (198, 1.23411455710385986606e+00) (116, -2.41994688410737914808e+01) (84, -1.48331219521746652390e+03) (136, 1.50000000000000000000e+03) (210, -3.66170026452089381053e+00) (151, -1.50000000000000000000e+03) (119, -8.11758743438514285273e-01) (168, 1.58799039085366075597e+02) (100, -5.32925936045843684497e+00) (29, 8.47298820962336094453e+01) (92, -6.89475357438024502699e+02) (67, 1.03900092143192864569e+02) (28, 1.50000000000000000000e+03) (27, -6.48905347772294135211e+02) (86, 1.22686341107685858987e+00) (149, -9.09933585405032996363e-01) (206, 5.03066113401933876048e+02) (182, -4.12803998823433396237e-02) (174, -9.03050737018900235853e+02) (189, -9.35790089179844244427e+02) (214, -1.44752026031392051664e+03) (35, -9.15186767000755629908e-01) (128, -1.76477171686104461479e+00) (127, -3.43550471088308171375e+01) (155, 1.50000000000000000000e+03) (72, -1.01040918619763253616e+00) (81, 2.73010118361774118512e+02) (39, -1.50000000000000000000e+03) (200, -8.24629477977368651409e+02) (158, -9.16561902358007385416e-01) (13, -1.32994100038301667155e+03) (54, 1.30269902681251505783e+03) (194, -9.38717969464193302542e+00) (48, 5.53942452448495487261e+02) (117, -1.50000000000000000000e+03) (21, -1.50000000000000000000e+03) (175, 1.46732441888444209432e+00) (88, 8.57704137471574085794e+02) (98, -7.75289998454694462282e+00) (9, -2.45696264781577938807e-01) (32, 9.31992673110416035342e+02) (177, -6.32635787873607524645e-01) (18, -1.81020750761366544523e+00) (71, -6.85711521203368477018e+01) (24, -1.33324525288700073133e+01) (186, 1.39918495949760868236e+00) (166, -2.04760799325512650171e+01) (5, -1.50000000000000000000e+03) (57, 1.50000000000000000000e+03) (56, 5.50421451184524585187e+02) (118, -5.94094110310142298204e+01) (6, -8.19369780696140850296e+01) (90, 7.16419554285082398337e+01) (25, -1.48208970054357496338e+03) (101, -1.50000000000000000000e+03) (105, -1.50000000000000000000e+03) (211, 1.50000000000000000000e+03) (171, 5.21959772840348932732e+02) (216, 4.75684849690830524604e-01) (105, -1.50000000000000000000e+03) (182, 4.07430341368573589733e-01) (158, -6.38836832252266506593e-01) (44, -1.50000000000000000000e+03) (74, -1.11257572809087605492e+02) (68, 1.39079999079704271026e+03) (87, 7.93229741973405225508e+02) (32, 1.11467841991385830624e+03) (25, -1.50000000000000000000e+03) (13, -1.50000000000000000000e+03) (164, 6.62848661637836585214e+02) (186, 3.08914084082421558364e+00) (33, -1.50000000000000000000e+03) (180, -1.30527681306613789758e+01) (5, -1.50000000000000000000e+03) (137, 5.19695641750570075601e+02) (176, -2.46795053174674650087e-01) (2, 8.38177091422866055836e+02) (62, -1.05018299137300323309e+03) (51, 2.54706425003550918973e+02) (122, 4.93993978522900420103e+02) (99, 5.39483183851614967352e+02) (197, 1.12010782577015493189e+03) (138, 1.50000000000000000000e+03) (4, 1.39533531899345064176e+02) (93, 1.50000000000000000000e+03) (208, -1.36792416189191862941e+03) (133, -1.50000000000000000000e+03) (107, 1.50000000000000000000e+03) (207, 1.04979008203776169594e+00) (196, -1.08416958718614253598e+02) (22, 2.81630533421184793497e+02) (69, -1.36804263971241266518e+03) (112, 1.50000000000000000000e+03) (21, -1.50000000000000000000e+03) (169, -4.50464030636571379773e+01) (28, 9.99145269989330699900e+02) (201, -2.89697643537732396624e+00) (183, -1.79425192887714501921e+01) (127, -1.28921084850623817175e+01) (49, -1.08240676411526663969e+02) (205, 5.93145029000009427200e-01) (1, 7.12992735088286849532e+02) (35, -6.27498798655667400226e+00) (66, 8.16766334397268906287e+02) (86, 1.61421912634722941604e+00) (119, 8.86713551917650111278e-01) (132, -1.50000000000000000000e+03) (116, 4.92326500125332245261e+02) (156, 9.31559355584762670333e+02) (150, 8.18221436003472831544e+02) (40, 7.92974422546908726872e+02) (139, -3.19866852574724003233e+00) (211, 1.50000000000000000000e+03) (121, -1.50000000000000000000e+03) (6, 5.84367448699413216673e+00) (65, 2.29573269537147211850e+02) (174, -1.10818411352863768116e+03) (64, -3.24554288525255003606e+01) (94, -1.50000000000000000000e+03) (50, -5.26469187087035948025e+02) (58, -3.19615961531084691316e+00) (8, -1.00180250645837709556e+00) (42, -1.50000000000000000000e+03) (181, 1.21357693876810857070e+00) (146, -1.50000000000000000000e+03) (141, -1.50000000000000000000e+03) (203, 4.70535841639392771185e-01) (0, -9.19852322834005121877e+02) (210, -1.11284982885685479914e+02) (144, 5.18549611759213462392e+02) (199, 1.50000000000000000000e+03) (79, 5.21196680015469951286e+02) (90, 2.82554828432973806684e+02) (11, 4.94518955078275325832e+02) (95, -6.80615735039145963725e+00) (73, 2.29534547677692103207e+02) (202, -1.50000000000000000000e+03) (38, -1.33346579700669599333e+03) (177, -1.35881136507640025712e+01) (198, 2.52794173782081827540e+02) (190, 2.54052743314343558723e+02) (57, 1.50000000000000000000e+03) (204, -1.50000000000000000000e+03) (10, 2.28937001118666671573e+02) (140, 1.29079999079704271026e+03) (52, -1.10703139771765540900e+03) (179, -7.36319381996415245339e+00) (19, -1.50000000000000000000e+03) (71, -1.77656771840243976612e+02) (120, -8.14030976379685853317e+02) (185, 8.91585230430976480420e+02) (110, 1.24079999079704271026e+03) (111, -8.69032155781082451540e+02) (213, -1.50000000000000000000e+03) (85, 5.04231361446082814837e+02) (165, -4.08696533711869869343e-01) (81, 4.48438198011510394281e+02) (76, -1.50000000000000000000e+03) (23, 1.50000000000000000000e+03) (152, -3.73918813138681116470e+01) (131, 1.50000000000000000000e+03) (92, -1.36763774802273678688e+03) (48, 4.94973523009118366645e+02) (104, 1.50000000000000000000e+03) (97, 1.19561818835362321245e+00) (29, -1.76731683272552118069e+01) (191, -1.74969002719999792816e+02) (27, -1.50000000000000000000e+03) (34, -1.50000000000000000000e+03) (14, 1.02889406643323311208e+00) (100, 4.50532144765819153598e-01) (143, 1.00980843440880778417e+03) (91, 4.89159159260244905454e+02) (70, -4.67841302936650436095e+01) (37, 2.30369193202859491976e+02) (200, -1.36772488227969574837e+03) (192, -1.45026963395478833263e+03) (147, -1.17464402725292660357e+00) (63, -1.55119235971165245758e+01) (39, -1.50000000000000000000e+03) (161, 2.42115786444185099313e+00) (9, -7.12281811959604049811e-01) (106, -1.50000000000000000000e+03) (67, 5.12297460242920692508e+02) (149, -3.57613258275756518145e-01) (135, -8.62236994756893409431e+02) (59, -8.86779382223566869925e+01) (129, -1.31076939163310453296e+03) (178, 5.00334696904971898412e-01) (72, -2.84505810038754969327e+00) (166, -5.74852960330669588984e+02) (96, -1.05049024141655672793e+03) (78, 1.50000000000000000000e+03) (80, 8.16834031512511387518e+02) (98, -1.75050956287346167528e+02) (18, -3.53228924099750827281e+01) (155, 1.29079999079704271026e+03) (209, -2.13832700701228395346e+00) (123, 1.11868790795475206323e+03) (55, 6.47305140088778485641e-01) (47, -1.72740168225186572215e+01) (41, -2.61823770528571174054e+02) (184, 1.12080749932778326183e+03) (136, 1.46039999599456768919e+03) (7, 6.83390924042730674159e+00) (173, 1.50000000000000000000e+03) (16, -1.50000000000000000000e+03) (134, -1.50000000000000000000e+03) (24, -1.05019246471917699637e+03) (31, -3.35336953432260713726e+01) (109, -2.78818006046366463124e+02) (154, 1.34079999079704271026e+03) (114, 2.67905714377403236792e-01) (45, 6.48578199890371465131e-01) (187, -1.82028024113870650069e+01) (195, -5.52901161981628419539e+00) (157, 1.50000000000000000000e+03) (194, -1.63818741474523221768e+01) (61, 1.50000000000000000000e+03) (124, -1.50000000000000000000e+03) (82, -1.12291247741961706197e+03) (216, -1.52254408048687912142e-02) (82, -1.50000000000000000000e+03) (113, 1.37177774400718703873e+01) (181, 8.95544905957623482706e-01) (156, 1.50000000000000000000e+03) (180, 5.79265690964190227419e+00) (110, 1.50000000000000000000e+03) (16, -1.50000000000000000000e+03) (101, -1.50000000000000000000e+03) (22, 1.36779684124018649527e+03) (120, -1.40022317127767723832e+03) (213, -1.50000000000000000000e+03) (104, 1.50000000000000000000e+03) (89, 4.64000972444863975852e+02) (147, 4.41979665315285000227e-02) (55, 3.74830318727025657566e-01) (24, -1.05136387905920673802e+03) (175, 3.85348351486755724693e+00) (28, 1.50000000000000000000e+03) (203, 2.12423426881015398049e-01) (18, 2.30428409044943336426e+01) (118, 7.25651620907520623405e+02) (171, 1.48880255688537567949e+03) (157, 1.50000000000000000000e+03) (37, 