FANN_FLO_2.1
num_layers=5
learning_rate=0.700000
connection_rate=0.800000
network_type=0
learning_momentum=0.000000
training_algorithm=2
train_error_function=1
train_stop_function=0
cascade_output_change_fraction=0.010000
quickprop_decay=-0.000100
quickprop_mu=1.750000
rprop_increase_factor=1.200000
rprop_decrease_factor=0.500000
rprop_delta_min=0.000000
rprop_delta_max=50.000000
rprop_delta_zero=0.100000
cascade_output_stagnation_epochs=12
cascade_candidate_change_fraction=0.010000
cascade_candidate_stagnation_epochs=12
cascade_max_out_epochs=150
cascade_max_cand_epochs=150
cascade_num_candidate_groups=2
bit_fail_limit=3.49999999999999977796e-01
cascade_candidate_limit=1.00000000000000000000e+03
cascade_weight_multiplier=4.00000000000000022204e-01
cascade_activation_functions_count=10
cascade_activation_functions=3 5 7 8 10 11 14 15 16 17
cascade_activation_steepnesses_count=4
cascade_activation_steepnesses=2.50000000000000000000e-01 5.00000000000000000000e-01 7.50000000000000000000e-01 1.00000000000000000000e+00
layer_sizes=217 317 21 11 2
scale_included=0
neurons (num_inputs, activation_function, activation_steepness)=(0, 0, 0.00000000000000000000e+00) (0, 0, 0.00000000000000000000e+00) (0, 0, 0.00000000000000000000e+00) (0, 0, 0.00000000000000000000e+00) (0, 0, 0.00000000000000000000e+00) (0, 0, 0.00000000000000000000e+00) (0, 0, 0.00000000000000000000e+00) (0, 0, 0.00000000000000000000e+00) (0, 0, 0.00000000000000000000e+00) (0, 0, 0.00000000000000000000e+00) (0, 0, 0.00000000000000000000e+00) (0, 0, 0.00000000000000000000e+00) (0, 0, 0.00000000000000000000e+00) (0, 0, 0.00000000000000000000e+00) (0, 0, 0.00000000000000000000e+00) (0, 0, 0.00000000000000000000e+00) (0, 0, 0.00000000000000000000e+00) (0, 0, 0.00000000000000000000e+00) (0, 0, 0.00000000000000000000e+00) (0, 0, 0.00000000000000000000e+00) (0, 0, 0.00000000000000000000e+00) (0, 0, 0.00000000000000000000e+00) (0, 0, 0.00000000000000000000e+00) (0, 0, 0.00000000000000000000e+00) (0, 0, 0.00000000000000000000e+00) (0, 0, 0.00000000000000000000e+00) (0, 0, 0.00000000000000000000e+00) (0, 0, 0.00000000000000000000e+00) (0, 0, 0.00000000000000000000e+00) (0, 0, 0.00000000000000000000e+00) (0, 0, 0.00000000000000000000e+00) (0, 0, 0.00000000000000000000e+00) (0, 0, 0.00000000000000000000e+00) (0, 0, 0.00000000000000000000e+00) (0, 0, 0.00000000000000000000e+00) (0, 0, 0.00000000000000000000e+00) (0, 0, 0.00000000000000000000e+00) (0, 0, 0.00000000000000000000e+00) (0, 0, 0.00000000000000000000e+00) (0, 0, 0.00000000000000000000e+00) (0, 0, 0.00000000000000000000e+00) (0, 0, 0.00000000000000000000e+00) (0, 0, 0.00000000000000000000e+00) (0, 0, 0.00000000000000000000e+00) (0, 0, 0.00000000000000000000e+00) (0, 0, 0.00000000000000000000e+00) (0, 0, 0.00000000000000000000e+00) (0, 0, 0.00000000000000000000e+00) (0, 0, 0.00000000000000000000e+00) (0, 0, 0.00000000000000000000e+00) (0, 0, 0.00000000000000000000e+00) (0, 0, 0.00000000000000000000e+00) (0, 0, 0.00000000000000000000e+00) (0, 0, 0.00000000000000000000e+00) (0, 0, 0.00000000000000000000e+00) (0, 0, 0.00000000000000000000e+00) (0, 0, 0.00000000000000000000e+00) (0, 0, 0.00000000000000000000e+00) (0, 0, 0.00000000000000000000e+00) (0, 0, 0.00000000000000000000e+00) (0, 0, 0.00000000000000000000e+00) (0, 0, 0.00000000000000000000e+00) (0, 0, 0.00000000000000000000e+00) (0, 0, 0.00000000000000000000e+00) (0, 0, 0.00000000000000000000e+00) (0, 0, 0.00000000000000000000e+00) (0, 0, 0.00000000000000000000e+00) (0, 0, 0.00000000000000000000e+00) (0, 0, 0.00000000000000000000e+00) (0, 0, 0.00000000000000000000e+00) (0, 0, 0.00000000000000000000e+00) (0, 0, 0.00000000000000000000e+00) (0, 0, 0.00000000000000000000e+00) (0, 0, 0.00000000000000000000e+00) (0, 0, 0.00000000000000000000e+00) (0, 0, 0.00000000000000000000e+00) (0, 0, 0.00000000000000000000e+00) (0, 0, 0.00000000000000000000e+00) (0, 0, 0.00000000000000000000e+00) (0, 0, 0.00000000000000000000e+00) (0, 0, 0.00000000000000000000e+00) (0, 0, 0.00000000000000000000e+00) (0, 0, 0.00000000000000000000e+00) (0, 0, 0.00000000000000000000e+00) (0, 0, 0.00000000000000000000e+00) (0, 0, 0.00000000000000000000e+00) (0, 0, 0.00000000000000000000e+00) (0, 0, 0.00000000000000000000e+00) (0, 0, 0.00000000000000000000e+00) (0, 0, 0.00000000000000000000e+00) (0, 0, 0.00000000000000000000e+00) (0, 0, 0.00000000000000000000e+00) (0, 0, 0.00000000000000000000e+00) (0, 0, 0.00000000000000000000e+00) (0, 0, 0.00000000000000000000e+00) (0, 0, 0.00000000000000000000e+00) (0, 0, 0.00000000000000000000e+00) (0, 0, 0.00000000000000000000e+00) (0, 0, 0.00000000000000000000e+00) (0, 0, 0.00000000000000000000e+00) (0, 0, 0.00000000000000000000e+00) (0, 0, 0.00000000000000000000e+00) (0, 0, 0.00000000000000000000e+00) (0, 0, 0.00000000000000000000e+00) (0, 0, 0.00000000000000000000e+00) (0, 0, 0.00000000000000000000e+00) (0, 0, 0.00000000000000000000e+00) (0, 0, 0.00000000000000000000e+00) (0, 0, 0.00000000000000000000e+00) (0, 0, 0.00000000000000000000e+00) (0, 0, 0.00000000000000000000e+00) (0, 0, 0.00000000000000000000e+00) (0, 0, 0.00000000000000000000e+00) (0, 0, 0.00000000000000000000e+00) (0, 0, 0.00000000000000000000e+00) (0, 0, 0.00000000000000000000e+00) (0, 0, 0.00000000000000000000e+00) (0, 0, 0.00000000000000000000e+00) (0, 0, 0.00000000000000000000e+00) (0, 0, 0.00000000000000000000e+00) (0, 0, 0.00000000000000000000e+00) (0, 0, 0.00000000000000000000e+00) (0, 0, 0.00000000000000000000e+00) (0, 0, 0.00000000000000000000e+00) (0, 0, 0.00000000000000000000e+00) (0, 0, 0.00000000000000000000e+00) (0, 0, 0.00000000000000000000e+00) (0, 0, 0.00000000000000000000e+00) (0, 0, 0.00000000000000000000e+00) (0, 0, 0.00000000000000000000e+00) (0, 0, 0.00000000000000000000e+00) (0, 0, 0.00000000000000000000e+00) (0, 0, 0.00000000000000000000e+00) (0, 0, 0.00000000000000000000e+00) (0, 0, 0.00000000000000000000e+00) (0, 0, 0.00000000000000000000e+00) (0, 0, 0.00000000000000000000e+00) (0, 0, 0.00000000000000000000e+00) (0, 0, 0.00000000000000000000e+00) (0, 0, 0.00000000000000000000e+00) (0, 0, 0.00000000000000000000e+00) (0, 0, 0.00000000000000000000e+00) (0, 0, 0.00000000000000000000e+00) (0, 0, 0.00000000000000000000e+00) (0, 0, 0.00000000000000000000e+00) (0, 0, 0.00000000000000000000e+00) (0, 0, 0.00000000000000000000e+00) (0, 0, 0.00000000000000000000e+00) (0, 0, 0.00000000000000000000e+00) (0, 0, 0.00000000000000000000e+00) (0, 0, 0.00000000000000000000e+00) (0, 0, 0.00000000000000000000e+00) (0, 0, 0.00000000000000000000e+00) (0, 0, 0.00000000000000000000e+00) (0, 0, 0.00000000000000000000e+00) (0, 0, 0.00000000000000000000e+00) (0, 0, 0.00000000000000000000e+00) (0, 0, 0.00000000000000000000e+00) (0, 0, 0.00000000000000000000e+00) (0, 0, 0.00000000000000000000e+00) (0, 0, 0.00000000000000000000e+00) (0, 0, 0.00000000000000000000e+00) (0, 0, 0.00000000000000000000e+00) (0, 0, 0.00000000000000000000e+00) (0, 0, 0.00000000000000000000e+00) (0, 0, 0.00000000000000000000e+00) (0, 0, 0.00000000000000000000e+00) (0, 0, 0.00000000000000000000e+00) (0, 0, 0.00000000000000000000e+00) (0, 0, 0.00000000000000000000e+00) (0, 0, 0.00000000000000000000e+00) (0, 0, 0.00000000000000000000e+00) (0, 0, 0.00000000000000000000e+00) (0, 0, 0.00000000000000000000e+00) (0, 0, 0.00000000000000000000e+00) (0, 0, 0.00000000000000000000e+00) (0, 0, 0.00000000000000000000e+00) (0, 0, 0.00000000000000000000e+00) (0, 0, 0.00000000000000000000e+00) (0, 0, 0.00000000000000000000e+00) (0, 0, 0.00000000000000000000e+00) (0, 0, 0.00000000000000000000e+00) (0, 0, 0.00000000000000000000e+00) (0, 0, 0.00000000000000000000e+00) (0, 0, 0.00000000000000000000e+00) (0, 0, 0.00000000000000000000e+00) (0, 0, 0.00000000000000000000e+00) (0, 0, 0.00000000000000000000e+00) (0, 0, 0.00000000000000000000e+00) (0, 0, 0.00000000000000000000e+00) (0, 0, 0.00000000000000000000e+00) (0, 0, 0.00000000000000000000e+00) (0, 0, 0.00000000000000000000e+00) (0, 0, 0.00000000000000000000e+00) (0, 0, 0.00000000000000000000e+00) (0, 0, 0.00000000000000000000e+00) (0, 0, 0.00000000000000000000e+00) (0, 0, 0.00000000000000000000e+00) (0, 0, 0.00000000000000000000e+00) (0, 0, 0.00000000000000000000e+00) (0, 0, 0.00000000000000000000e+00) (0, 0, 0.00000000000000000000e+00) (0, 0, 0.00000000000000000000e+00) (0, 0, 0.00000000000000000000e+00) (0, 0, 0.00000000000000000000e+00) (0, 0, 0.00000000000000000000e+00) (0, 0, 0.00000000000000000000e+00) (0, 0, 0.00000000000000000000e+00) (0, 0, 0.00000000000000000000e+00) (0, 0, 0.00000000000000000000e+00) (0, 0, 0.00000000000000000000e+00) (0, 0, 0.00000000000000000000e+00) (0, 0, 0.00000000000000000000e+00) (0, 0, 0.00000000000000000000e+00) (0, 0, 0.00000000000000000000e+00) (0, 0, 0.00000000000000000000e+00) (0, 0, 0.00000000000000000000e+00) (173, 4, 5.00000000000000000000e-01) (174, 4, 5.00000000000000000000e-01) (174, 4, 5.00000000000000000000e-01) (174, 4, 5.00000000000000000000e-01) (174, 4, 5.00000000000000000000e-01) (173, 4, 5.00000000000000000000e-01) (174, 4, 5.00000000000000000000e-01) (174, 4, 5.00000000000000000000e-01) (174, 4, 5.00000000000000000000e-01) (174, 4, 5.00000000000000000000e-01) (173, 4, 5.00000000000000000000e-01) (174, 4, 5.00000000000000000000e-01) (174, 4, 5.00000000000000000000e-01) (174, 4, 5.00000000000000000000e-01) (174, 4, 5.00000000000000000000e-01) (173, 4, 5.00000000000000000000e-01) (174, 4, 5.00000000000000000000e-01) (174, 4, 5.00000000000000000000e-01) (174, 4, 5.00000000000000000000e-01) (174, 4, 5.00000000000000000000e-01) (173, 4, 5.00000000000000000000e-01) (174, 4, 5.00000000000000000000e-01) (174, 4, 5.00000000000000000000e-01) (174, 4, 5.00000000000000000000e-01) (174, 4, 5.00000000000000000000e-01) (173, 4, 5.00000000000000000000e-01) (174, 4, 5.00000000000000000000e-01) (174, 4, 5.00000000000000000000e-01) (174, 4, 5.00000000000000000000e-01) (174, 4, 5.00000000000000000000e-01) (173, 4, 5.00000000000000000000e-01) (174, 4, 5.00000000000000000000e-01) (174, 4, 5.00000000000000000000e-01) (174, 4, 5.00000000000000000000e-01) (174, 4, 5.00000000000000000000e-01) (173, 4, 5.00000000000000000000e-01) (174, 4, 5.00000000000000000000e-01) (174, 4, 5.00000000000000000000e-01) (174, 4, 5.00000000000000000000e-01) (174, 4, 5.00000000000000000000e-01) (173, 4, 5.00000000000000000000e-01) (174, 4, 5.00000000000000000000e-01) (174, 4, 5.00000000000000000000e-01) (174, 4, 5.00000000000000000000e-01) (174, 4, 5.00000000000000000000e-01) (173, 4, 5.00000000000000000000e-01) (174, 4, 5.00000000000000000000e-01) (174, 4, 5.00000000000000000000e-01) (174, 4, 5.00000000000000000000e-01) (174, 4, 5.00000000000000000000e-01) (173, 4, 5.00000000000000000000e-01) (174, 4, 5.00000000000000000000e-01) (174, 4, 5.00000000000000000000e-01) (174, 4, 5.00000000000000000000e-01) (174, 4, 5.00000000000000000000e-01) (173, 4, 5.00000000000000000000e-01) (174, 4, 5.00000000000000000000e-01) (174, 4, 5.00000000000000000000e-01) (174, 4, 5.00000000000000000000e-01) (174, 4, 5.00000000000000000000e-01) (173, 4, 5.00000000000000000000e-01) (174, 4, 5.00000000000000000000e-01) (174, 4, 5.00000000000000000000e-01) (174, 4, 5.00000000000000000000e-01) (174, 4, 5.00000000000000000000e-01) (173, 4, 5.00000000000000000000e-01) (174, 4, 5.00000000000000000000e-01) (174, 4, 5.00000000000000000000e-01) (174, 4, 5.00000000000000000000e-01) (174, 4, 5.00000000000000000000e-01) (173, 4, 5.00000000000000000000e-01) (174, 4, 5.00000000000000000000e-01) (174, 4, 5.00000000000000000000e-01) (174, 4, 5.00000000000000000000e-01) (174, 4, 5.00000000000000000000e-01) (173, 4, 5.00000000000000000000e-01) (174, 4, 5.00000000000000000000e-01) (174, 4, 5.00000000000000000000e-01) (174, 4, 5.00000000000000000000e-01) (174, 4, 5.00000000000000000000e-01) (173, 4, 5.00000000000000000000e-01) (174, 4, 5.00000000000000000000e-01) (174, 4, 5.00000000000000000000e-01) (174, 4, 5.00000000000000000000e-01) (174, 4, 5.00000000000000000000e-01) (173, 4, 5.00000000000000000000e-01) (174, 4, 5.00000000000000000000e-01) (174, 4, 5.00000000000000000000e-01) (174, 4, 5.00000000000000000000e-01) (174, 4, 5.00000000000000000000e-01) (173, 4, 5.00000000000000000000e-01) (174, 4, 5.00000000000000000000e-01) (174, 4, 5.00000000000000000000e-01) (174, 4, 5.00000000000000000000e-01) (174, 4, 5.00000000000000000000e-01) (173, 4, 5.00000000000000000000e-01) (174, 4, 5.00000000000000000000e-01) (174, 4, 5.00000000000000000000e-01) (174, 4, 5.00000000000000000000e-01) (174, 4, 5.00000000000000000000e-01) (173, 4, 5.00000000000000000000e-01) (174, 4, 5.00000000000000000000e-01) (174, 4, 5.00000000000000000000e-01) (174, 4, 5.00000000000000000000e-01) (174, 4, 5.00000000000000000000e-01) (173, 4, 5.00000000000000000000e-01) (174, 4, 5.00000000000000000000e-01) (174, 4, 5.00000000000000000000e-01) (174, 4, 5.00000000000000000000e-01) (174, 4, 5.00000000000000000000e-01) (173, 4, 5.00000000000000000000e-01) (174, 4, 5.00000000000000000000e-01) (174, 4, 5.00000000000000000000e-01) (174, 4, 5.00000000000000000000e-01) (174, 4, 5.00000000000000000000e-01) (173, 4, 5.00000000000000000000e-01) (174, 4, 5.00000000000000000000e-01) (174, 4, 5.00000000000000000000e-01) (174, 4, 5.00000000000000000000e-01) (174, 4, 5.00000000000000000000e-01) (173, 4, 5.00000000000000000000e-01) (174, 4, 5.00000000000000000000e-01) (174, 4, 5.00000000000000000000e-01) (174, 4, 5.00000000000000000000e-01) (174, 4, 5.00000000000000000000e-01) (173, 4, 5.00000000000000000000e-01) (174, 4, 5.00000000000000000000e-01) (174, 4, 5.00000000000000000000e-01) (174, 4, 5.00000000000000000000e-01) (174, 4, 5.00000000000000000000e-01) (173, 4, 5.00000000000000000000e-01) (174, 4, 5.00000000000000000000e-01) (174, 4, 5.00000000000000000000e-01) (174, 4, 5.00000000000000000000e-01) (174, 4, 5.00000000000000000000e-01) (173, 4, 5.00000000000000000000e-01) (174, 4, 5.00000000000000000000e-01) (174, 4, 5.00000000000000000000e-01) (174, 4, 5.00000000000000000000e-01) (174, 4, 5.00000000000000000000e-01) (173, 4, 5.00000000000000000000e-01) (174, 4, 5.00000000000000000000e-01) (174, 4, 5.00000000000000000000e-01) (174, 4, 5.00000000000000000000e-01) (174, 4, 5.00000000000000000000e-01) (173, 4, 5.00000000000000000000e-01) (174, 4, 5.00000000000000000000e-01) (174, 4, 5.00000000000000000000e-01) (174, 4, 5.00000000000000000000e-01) (174, 4, 5.00000000000000000000e-01) (173, 4, 5.00000000000000000000e-01) (174, 4, 5.00000000000000000000e-01) (174, 4, 5.00000000000000000000e-01) (174, 4, 5.00000000000000000000e-01) (174, 4, 5.00000000000000000000e-01) (173, 4, 5.00000000000000000000e-01) (174, 4, 5.00000000000000000000e-01) (174, 4, 5.00000000000000000000e-01) (174, 4, 5.00000000000000000000e-01) (174, 4, 5.00000000000000000000e-01) (173, 4, 5.00000000000000000000e-01) (174, 4, 5.00000000000000000000e-01) (174, 4, 5.00000000000000000000e-01) (174, 4, 5.00000000000000000000e-01) (174, 4, 5.00000000000000000000e-01) (173, 4, 5.00000000000000000000e-01) (174, 4, 5.00000000000000000000e-01) (174, 4, 5.00000000000000000000e-01) (174, 4, 5.00000000000000000000e-01) (174, 4, 5.00000000000000000000e-01) (173, 4, 5.00000000000000000000e-01) (174, 4, 5.00000000000000000000e-01) (174, 4, 5.00000000000000000000e-01) (174, 4, 5.00000000000000000000e-01) (174, 4, 5.00000000000000000000e-01) (173, 4, 5.00000000000000000000e-01) (174, 4, 5.00000000000000000000e-01) (174, 4, 5.00000000000000000000e-01) (174, 4, 5.00000000000000000000e-01) (174, 4, 5.00000000000000000000e-01) (173, 4, 5.00000000000000000000e-01) (174, 4, 5.00000000000000000000e-01) (174, 4, 5.00000000000000000000e-01) (174, 4, 5.00000000000000000000e-01) (174, 4, 5.00000000000000000000e-01) (173, 4, 5.00000000000000000000e-01) (174, 4, 5.00000000000000000000e-01) (174, 4, 5.00000000000000000000e-01) (174, 4, 5.00000000000000000000e-01) (174, 4, 5.00000000000000000000e-01) (173, 4, 5.00000000000000000000e-01) (174, 4, 5.00000000000000000000e-01) (174, 4, 5.00000000000000000000e-01) (174, 4, 5.00000000000000000000e-01) (174, 4, 5.00000000000000000000e-01) (173, 4, 5.00000000000000000000e-01) (174, 4, 5.00000000000000000000e-01) (174, 4, 5.00000000000000000000e-01) (174, 4, 5.00000000000000000000e-01) (174, 4, 5.00000000000000000000e-01) (173, 4, 5.00000000000000000000e-01) (174, 4, 5.00000000000000000000e-01) (174, 4, 5.00000000000000000000e-01) (174, 4, 5.00000000000000000000e-01) (174, 4, 5.00000000000000000000e-01) (173, 4, 5.00000000000000000000e-01) (174, 4, 5.00000000000000000000e-01) (174, 4, 5.00000000000000000000e-01) (174, 4, 5.00000000000000000000e-01) (174, 4, 5.00000000000000000000e-01) (173, 4, 5.00000000000000000000e-01) (174, 4, 5.00000000000000000000e-01) (174, 4, 5.00000000000000000000e-01) (174, 4, 5.00000000000000000000e-01) (174, 4, 5.00000000000000000000e-01) (173, 4, 5.00000000000000000000e-01) (174, 4, 5.00000000000000000000e-01) (174, 4, 5.00000000000000000000e-01) (174, 4, 5.00000000000000000000e-01) (174, 4, 5.00000000000000000000e-01) (173, 4, 5.00000000000000000000e-01) (174, 4, 5.00000000000000000000e-01) (174, 4, 5.00000000000000000000e-01) (174, 4, 5.00000000000000000000e-01) (174, 4, 5.00000000000000000000e-01) (173, 4, 5.00000000000000000000e-01) (174, 4, 5.00000000000000000000e-01) (174, 4, 5.00000000000000000000e-01) (174, 4, 5.00000000000000000000e-01) (174, 4, 5.00000000000000000000e-01) (173, 4, 5.00000000000000000000e-01) (174, 4, 5.00000000000000000000e-01) (174, 4, 5.00000000000000000000e-01) (174, 4, 5.00000000000000000000e-01) (174, 4, 5.00000000000000000000e-01) (173, 4, 5.00000000000000000000e-01) (174, 4, 5.00000000000000000000e-01) (174, 4, 5.00000000000000000000e-01) (174, 4, 5.00000000000000000000e-01) (174, 4, 5.00000000000000000000e-01) (173, 4, 5.00000000000000000000e-01) (174, 4, 5.00000000000000000000e-01) (174, 4, 5.00000000000000000000e-01) (174, 4, 5.00000000000000000000e-01) (174, 4, 5.00000000000000000000e-01) (173, 4, 5.00000000000000000000e-01) (174, 4, 5.00000000000000000000e-01) (174, 4, 5.00000000000000000000e-01) (174, 4, 5.00000000000000000000e-01) (174, 4, 5.00000000000000000000e-01) (173, 4, 5.00000000000000000000e-01) (174, 4, 5.00000000000000000000e-01) (174, 4, 5.00000000000000000000e-01) (174, 4, 5.00000000000000000000e-01) (174, 4, 5.00000000000000000000e-01) (173, 4, 5.00000000000000000000e-01) (174, 4, 5.00000000000000000000e-01) (174, 4, 5.00000000000000000000e-01) (174, 4, 5.00000000000000000000e-01) (174, 4, 5.00000000000000000000e-01) (173, 4, 5.00000000000000000000e-01) (174, 4, 5.00000000000000000000e-01) (174, 4, 5.00000000000000000000e-01) (174, 4, 5.00000000000000000000e-01) (174, 4, 5.00000000000000000000e-01) (173, 4, 5.00000000000000000000e-01) (174, 4, 5.00000000000000000000e-01) (174, 4, 5.00000000000000000000e-01) (174, 4, 5.00000000000000000000e-01) (174, 4, 5.00000000000000000000e-01) (173, 4, 5.00000000000000000000e-01) (174, 4, 5.00000000000000000000e-01) (174, 4, 5.00000000000000000000e-01) (174, 4, 5.00000000000000000000e-01) (174, 4, 5.00000000000000000000e-01) (173, 4, 5.00000000000000000000e-01) (174, 4, 5.00000000000000000000e-01) (174, 4, 5.00000000000000000000e-01) (174, 4, 5.00000000000000000000e-01) (174, 4, 5.00000000000000000000e-01) (173, 4, 5.00000000000000000000e-01) (174, 4, 5.00000000000000000000e-01) (174, 4, 5.00000000000000000000e-01) (174, 4, 5.00000000000000000000e-01) (174, 4, 5.00000000000000000000e-01) (173, 4, 5.00000000000000000000e-01) (174, 4, 5.00000000000000000000e-01) (174, 4, 5.00000000000000000000e-01) (174, 4, 5.00000000000000000000e-01) (174, 4, 5.00000000000000000000e-01) (173, 4, 5.00000000000000000000e-01) (174, 4, 5.00000000000000000000e-01) (174, 4, 5.00000000000000000000e-01) (174, 4, 5.00000000000000000000e-01) (174, 4, 5.00000000000000000000e-01) (173, 4, 5.00000000000000000000e-01) (174, 4, 5.00000000000000000000e-01) (174, 4, 5.00000000000000000000e-01) (174, 4, 5.00000000000000000000e-01) (174, 4, 5.00000000000000000000e-01) (173, 4, 5.00000000000000000000e-01) (174, 4, 5.00000000000000000000e-01) (174, 4, 5.00000000000000000000e-01) (174, 4, 5.00000000000000000000e-01) (174, 4, 5.00000000000000000000e-01) (173, 4, 5.00000000000000000000e-01) (174, 4, 5.00000000000000000000e-01) (174, 4, 5.00000000000000000000e-01) (174, 4, 5.00000000000000000000e-01) (174, 4, 5.00000000000000000000e-01) (173, 4, 5.00000000000000000000e-01) (174, 4, 5.00000000000000000000e-01) (174, 4, 5.00000000000000000000e-01) (174, 4, 5.00000000000000000000e-01) (174, 4, 5.00000000000000000000e-01) (174, 4, 5.00000000000000000000e-01) (0, 0, 0.00000000000000000000e+00) (253, 4, 5.00000000000000000000e-01) (254, 4, 5.00000000000000000000e-01) (254, 4, 5.00000000000000000000e-01) (254, 4, 5.00000000000000000000e-01) (254, 4, 5.00000000000000000000e-01) (253, 4, 5.00000000000000000000e-01) (254, 4, 5.00000000000000000000e-01) (254, 4, 5.00000000000000000000e-01) (254, 4, 5.00000000000000000000e-01) (254, 4, 5.00000000000000000000e-01) (253, 4, 5.00000000000000000000e-01) (254, 4, 5.00000000000000000000e-01) (254, 4, 5.00000000000000000000e-01) (254, 4, 5.00000000000000000000e-01) (254, 4, 5.00000000000000000000e-01) (253, 4, 5.00000000000000000000e-01) (254, 4, 5.00000000000000000000e-01) (254, 4, 5.00000000000000000000e-01) (254, 4, 5.00000000000000000000e-01) (254, 4, 5.00000000000000000000e-01) (0, 0, 0.00000000000000000000e+00) (17, 4, 5.00000000000000000000e-01) (17, 4, 5.00000000000000000000e-01) (17, 4, 5.00000000000000000000e-01) (17, 4, 5.00000000000000000000e-01) (17, 4, 5.00000000000000000000e-01) (17, 4, 5.00000000000000000000e-01) (17, 4, 5.00000000000000000000e-01) (17, 4, 5.00000000000000000000e-01) (17, 4, 5.00000000000000000000e-01) (17, 4, 5.00000000000000000000e-01) (0, 0, 0.00000000000000000000e+00) (11, 5, 5.00000000000000000000e-01) (0, 5, 0.00000000000000000000e+00)
connections (connected_to_neuron, weight)=(216, -6.30579160430837504236e+00) (184, 1.50000000000000000000e+03) (132, -1.50000000000000000000e+03) (17, -1.50000000000000000000e+03) (95, 1.50000000000000000000e+03) (86, 1.50000000000000000000e+03) (113, 1.26410356962687728810e+03) (139, 2.35997959507624727848e+02) (63, 1.50000000000000000000e+03) (189, -1.50000000000000000000e+03) (37, 1.50000000000000000000e+03) (126, -1.50000000000000000000e+03) (52, -1.50000000000000000000e+03) (61, 1.50000000000000000000e+03) (134, -1.50000000000000000000e+03) (82, -1.50000000000000000000e+03) (206, 1.50000000000000000000e+03) (136, 1.50000000000000000000e+03) (62, -1.50000000000000000000e+03) (145, 1.50000000000000000000e+03) (19, -1.50000000000000000000e+03) (24, -1.50000000000000000000e+03) (96, -1.50000000000000000000e+03) (133, -1.50000000000000000000e+03) (201, 1.45240704771236863735e+01) (15, 1.50000000000000000000e+03) (81, 1.50000000000000000000e+03) (45, 2.24222417480148834557e+02) (33, -1.50000000000000000000e+03) (207, 1.50000000000000000000e+03) (20, 1.50000000000000000000e+03) (169, 1.50000000000000000000e+03) (42, -1.50000000000000000000e+03) (107, 1.50000000000000000000e+03) (39, -1.50000000000000000000e+03) (53, 1.50000000000000000000e+03) (112, 1.50000000000000000000e+03) (73, 1.50000000000000000000e+03) (43, -1.50000000000000000000e+03) (123, 1.50000000000000000000e+03) (149, -1.07854190322283420755e+03) (155, 1.50000000000000000000e+03) (71, 1.50000000000000000000e+03) (185, 1.50000000000000000000e+03) (195, 1.50000000000000000000e+03) (162, 1.50000000000000000000e+03) (209, -8.89258609550792129994e+02) (190, 1.50000000000000000000e+03) (143, 1.50000000000000000000e+03) (27, -1.50000000000000000000e+03) (9, -1.50000000000000000000e+03) (117, -1.50000000000000000000e+03) (32, 1.50000000000000000000e+03) (57, 1.50000000000000000000e+03) (78, 1.50000000000000000000e+03) (22, 1.50000000000000000000e+03) (69, -1.50000000000000000000e+03) (182, 7.18446148403020174555e+02) (59, 1.50000000000000000000e+03) (104, 1.50000000000000000000e+03) (166, -1.50000000000000000000e+03) (40, 1.50000000000000000000e+03) (165, 1.01055117897060085852e+02) (174, -2.60053646574202161901e+01) (48, 1.50000000000000000000e+03) (200, -1.50000000000000000000e+03) (146, -1.50000000000000000000e+03) (44, -1.50000000000000000000e+03) (147, 2.60929504177490345640e+00) (67, 1.50000000000000000000e+03) (138, 1.50000000000000000000e+03) (160, 1.50000000000000000000e+03) (2, 1.50000000000000000000e+03) (177, 7.74922608902730303271e+02) (181, 1.19537656351181112768e+03) (64, 1.50000000000000000000e+03) (26, -1.50000000000000000000e+03) (70, 1.50000000000000000000e+03) (74, 1.50000000000000000000e+03) (214, -1.50000000000000000000e+03) (75, 1.50000000000000000000e+03) (35, 1.22568068949175221860e+03) (89, 1.50000000000000000000e+03) (156, 1.50000000000000000000e+03) (10, 1.50000000000000000000e+03) (137, 1.50000000000000000000e+03) (121, -1.50000000000000000000e+03) (13, -1.50000000000000000000e+03) (29, 1.50000000000000000000e+03) (68, 1.50000000000000000000e+03) (21, -1.50000000000000000000e+03) (211, 1.50000000000000000000e+03) (76, -1.50000000000000000000e+03) (178, 1.50000000000000000000e+03) (85, 1.50000000000000000000e+03) (8, 4.16100233351337607246e+01) (168, 1.50000000000000000000e+03) (148, -1.50000000000000000000e+03) (92, -1.50000000000000000000e+03) (194, 1.50000000000000000000e+03) (135, -1.50000000000000000000e+03) (208, -1.50000000000000000000e+03) (80, 1.50000000000000000000e+03) (150, 1.50000000000000000000e+03) (186, 1.50000000000000000000e+03) (188, 1.43440862613113154111e+03) (105, -1.50000000000000000000e+03) (213, -1.50000000000000000000e+03) (41, -1.50000000000000000000e+03) (115, 1.50000000000000000000e+03) (4, 1.50000000000000000000e+03) (120, -7.93991794483705916718e+02) (161, 1.19564179028495391321e+03) (141, -1.50000000000000000000e+03) (54, 1.50000000000000000000e+03) (88, 1.50000000000000000000e+03) (159, 1.50000000000000000000e+03) (210, 1.50000000000000000000e+03) (198, 1.50000000000000000000e+03) (125, -1.50000000000000000000e+03) (109, -2.98082679828032780733e+02) (106, -1.50000000000000000000e+03) (131, 1.50000000000000000000e+03) (47, 1.50000000000000000000e+03) (25, -1.50000000000000000000e+03) (97, 6.14608343606949233617e+02) (91, 1.50000000000000000000e+03) (173, 1.50000000000000000000e+03) (108, -1.50000000000000000000e+03) (153, 9.29860573216240027250e+02) (18, 1.50000000000000000000e+03) (111, -1.50000000000000000000e+03) (167, 1.50000000000000000000e+03) (66, 1.50000000000000000000e+03) (114, 1.19513683111683394600e+03) (28, 1.50000000000000000000e+03) (79, 1.50000000000000000000e+03) (116, 1.50000000000000000000e+03) (98, 1.50000000000000000000e+03) (34, -1.50000000000000000000e+03) (212, 1.50000000000000000000e+03) (151, -1.50000000000000000000e+03) (84, -1.50000000000000000000e+03) (142, -1.50000000000000000000e+03) (140, 1.50000000000000000000e+03) (6, 1.50000000000000000000e+03) (101, -1.50000000000000000000e+03) (191, 1.50000000000000000000e+03) (171, 1.50000000000000000000e+03) (93, 1.50000000000000000000e+03) (175, 1.50000000000000000000e+03) (5, -1.50000000000000000000e+03) (1, 1.50000000000000000000e+03) (100, 2.06537289792388435217e+02) (3, -1.50000000000000000000e+03) (196, 1.55651657966097296537e+01) (55, 3.99895278364689431783e+02) (51, 1.50000000000000000000e+03) (72, -9.78475583672068438545e+00) (152, 1.50000000000000000000e+03) (77, 1.50000000000000000000e+03) (203, 1.19459526820596056496e+03) (87, 1.50000000000000000000e+03) (130, 1.50000000000000000000e+03) (119, 9.54729164831504931499e+02) (176, 1.50000000000000000000e+03) (163, -6.76887840734613973837e+02) (11, 1.50000000000000000000e+03) (172, -1.50000000000000000000e+03) (192, -1.50000000000000000000e+03) (127, 1.50000000000000000000e+03) (50, -1.32486156959643449227e+03) (60, -1.50000000000000000000e+03) (216, -3.53286433370870938120e+01) (126, -1.50000000000000000000e+03) (152, 1.50000000000000000000e+03) (99, 1.50000000000000000000e+03) (201, 1.83845247511601428414e+01) (155, 1.50000000000000000000e+03) (13, -1.50000000000000000000e+03) (192, -1.50000000000000000000e+03) (51, 1.50000000000000000000e+03) (12, 1.50000000000000000000e+03) (107, 1.50000000000000000000e+03) (183, 1.50000000000000000000e+03) (87, 1.50000000000000000000e+03) (16, -1.50000000000000000000e+03) (113, 1.50000000000000000000e+03) (166, -1.40756239516463233485e+03) (53, 1.50000000000000000000e+03) (146, -1.50000000000000000000e+03) (40, 1.50000000000000000000e+03) (97, 1.27570948806755404803e+03) (214, -1.50000000000000000000e+03) (42, -1.50000000000000000000e+03) (60, -1.50000000000000000000e+03) (83, -2.97790798270398493486e+00) (31, 1.50000000000000000000e+03) (66, 1.50000000000000000000e+03) (2, 1.50000000000000000000e+03) (71, 1.50000000000000000000e+03) (4, 1.50000000000000000000e+03) (157, 1.50000000000000000000e+03) (167, 1.50000000000000000000e+03) (55, 1.08110153935532160574e+01) (141, -1.50000000000000000000e+03) (102, -4.81337478852723108957e+02) (125, -1.50000000000000000000e+03) (160, 1.50000000000000000000e+03) (199, 1.50000000000000000000e+03) (49, 1.50000000000000000000e+03) (142, -1.50000000000000000000e+03) (197, 1.50000000000000000000e+03) (91, 1.50000000000000000000e+03) (47, 1.50000000000000000000e+03) (117, -1.50000000000000000000e+03) (211, 1.50000000000000000000e+03) (28, 1.50000000000000000000e+03) (209, -1.21231893238695988657e+03) (48, 1.50000000000000000000e+03) (131, 1.50000000000000000000e+03) (80, 1.50000000000000000000e+03) (161, 1.50000000000000000000e+03) (170, 1.75811840714957376974e+01) (62, -1.50000000000000000000e+03) (148, -1.50000000000000000000e+03) (159, 1.50000000000000000000e+03) (174, 1.42817886189929748042e+01) (213, -1.50000000000000000000e+03) (109, -3.51255340207855283552e+02) (118, 1.50000000000000000000e+03) (21, -1.50000000000000000000e+03) (56, 1.50000000000000000000e+03) (6, 1.50000000000000000000e+03) (134, -1.50000000000000000000e+03) (22, 1.50000000000000000000e+03) (46, 1.44491509861548115623e+03) (25, -1.50000000000000000000e+03) (73, 1.50000000000000000000e+03) (169, 1.50000000000000000000e+03) (95, 1.50000000000000000000e+03) (151, -1.50000000000000000000e+03) (143, 1.50000000000000000000e+03) (101, -1.50000000000000000000e+03) (64, 1.50000000000000000000e+03) (140, 1.50000000000000000000e+03) (200, -1.50000000000000000000e+03) (180, 1.50000000000000000000e+03) (68, 1.50000000000000000000e+03) (115, 1.50000000000000000000e+03) (185, 1.50000000000000000000e+03) (36, 4.59870434336112587914e+00) (0, -1.50000000000000000000e+03) (188, 2.36684636143529530727e+02) (17, -1.50000000000000000000e+03) (7, 1.50000000000000000000e+03) (215, 1.50000000000000000000e+03) (39, -1.50000000000000000000e+03) (210, 1.50000000000000000000e+03) (14, 1.43486494403176106971e+03) (123, 1.50000000000000000000e+03) (105, -1.50000000000000000000e+03) (89, 1.50000000000000000000e+03) (67, 1.50000000000000000000e+03) (150, 1.50000000000000000000e+03) (182, 4.75953907644386788434e+02) (81, 1.50000000000000000000e+03) (204, -1.50000000000000000000e+03) (173, 1.50000000000000000000e+03) (20, 1.50000000000000000000e+03) (43, -1.50000000000000000000e+03) (176, 1.50000000000000000000e+03) (86, 1.50000000000000000000e+03) (130, 1.50000000000000000000e+03) (149, -1.31814979350402632008e+03) (162, 1.50000000000000000000e+03) (50, -1.50000000000000000000e+03) (122, 1.50000000000000000000e+03) (163, -9.49076959442023962765e+02) (41, -1.50000000000000000000e+03) (74, 1.50000000000000000000e+03) (35, 7.43197964488980211684e+00) (58, -4.08157879327563151151e+01) (137, 1.50000000000000000000e+03) (177, 8.04041648580564469739e+02) (103, 1.50000000000000000000e+03) (45, 3.95862119654144128944e+00) (72, -6.71051342314679004630e+01) (98, 1.50000000000000000000e+03) (23, 1.50000000000000000000e+03) (202, -1.50000000000000000000e+03) (69, -1.50000000000000000000e+03) (38, -1.50000000000000000000e+03) (195, 1.50000000000000000000e+03) (119, 1.43294617785886885031e+03) (168, 1.50000000000000000000e+03) (116, 1.50000000000000000000e+03) (57, 1.50000000000000000000e+03) (90, 1.50000000000000000000e+03) (5, -1.50000000000000000000e+03) (9, -1.43366427525637914187e+03) (110, 1.50000000000000000000e+03) (206, 1.50000000000000000000e+03) (194, 1.50000000000000000000e+03) (8, 7.27319867690886523448e-01) (30, 1.50000000000000000000e+03) (63, 1.50000000000000000000e+03) (212, 1.50000000000000000000e+03) (24, -1.50000000000000000000e+03) (153, 7.98131004645127973163e+02) (11, 1.50000000000000000000e+03) (54, 1.50000000000000000000e+03) (112, 1.50000000000000000000e+03) (114, 1.50000000000000000000e+03) (29, 1.50000000000000000000e+03) (27, -1.50000000000000000000e+03) (175, 1.50000000000000000000e+03) (207, 1.50000000000000000000e+03) (128, 7.16523549973280069025e+02) (135, -1.50000000000000000000e+03) (92, -1.50000000000000000000e+03) (156, 1.50000000000000000000e+03) (108, -1.50000000000000000000e+03) (79, 1.50000000000000000000e+03) (124, -1.50000000000000000000e+03) (26, -1.50000000000000000000e+03) (65, 1.50000000000000000000e+03) (3, -1.50000000000000000000e+03) (127, 1.50000000000000000000e+03) (193, 1.50000000000000000000e+03) (139, 1.34454330008157370457e+02) (203, 8.89280695134106622390e+02) (88, 1.50000000000000000000e+03) (165, 7.14566735677793872128e+02) (76, -1.50000000000000000000e+03) (70, 1.50000000000000000000e+03) (191, 1.50000000000000000000e+03) (171, 1.50000000000000000000e+03) (147, 1.38397184981914489477e+00) (189, -1.50000000000000000000e+03) (181, 1.19530722830115564648e+03) (145, 1.50000000000000000000e+03) (78, 1.50000000000000000000e+03) (205, 1.43445015857986118135e+03) (186, 1.50000000000000000000e+03) (196, 9.82763935809309097102e-01) (111, -1.50000000000000000000e+03) (216, -2.51708030216315314931e+01) (83, 5.24068091448159287249e-02) (13, -1.50000000000000000000e+03) (53, 1.50000000000000000000e+03) (27, -1.50000000000000000000e+03) (52, -1.50000000000000000000e+03) (124, -1.50000000000000000000e+03) (197, 1.50000000000000000000e+03) (161, 1.43643757383043362097e+03) (20, 1.50000000000000000000e+03) (146, -1.50000000000000000000e+03) (34, -1.50000000000000000000e+03) (24, -1.50000000000000000000e+03) (30, 1.50000000000000000000e+03) (176, 1.50000000000000000000e+03) (203, 1.50000000000000000000e+03) (92, -1.50000000000000000000e+03) (133, -1.50000000000000000000e+03) (94, -1.50000000000000000000e+03) (163, -3.27996750756949282390e+01) (28, 1.50000000000000000000e+03) (205, 1.43451420384763650873e+03) (32, 1.50000000000000000000e+03) (21, -1.50000000000000000000e+03) (142, -1.50000000000000000000e+03) (61, 1.50000000000000000000e+03) (141, -1.50000000000000000000e+03) (115, 1.50000000000000000000e+03) (166, -1.31882443632812601209e+03) (157, 1.50000000000000000000e+03) (210, 1.50000000000000000000e+03) (38, -1.50000000000000000000e+03) (16, -1.50000000000000000000e+03) (156, 1.50000000000000000000e+03) (122, 1.50000000000000000000e+03) (118, 1.50000000000000000000e+03) (14, 1.50000000000000000000e+03) (194, 1.50000000000000000000e+03) (23, 1.50000000000000000000e+03) (101, -1.50000000000000000000e+03) (140, 1.50000000000000000000e+03) (167, 1.50000000000000000000e+03) (139, 2.14323232561305019317e+01) (198, 1.19616344133831034924e+03) (114, 2.36918264632435239037e+02) (0, -1.50000000000000000000e+03) (80, 1.50000000000000000000e+03) (48, 1.50000000000000000000e+03) (132, -1.50000000000000000000e+03) (193, 1.50000000000000000000e+03) (8, 6.85483369249400631418e+00) (85, 1.50000000000000000000e+03) (39, -1.50000000000000000000e+03) (145, 1.50000000000000000000e+03) (64, 1.50000000000000000000e+03) (113, 1.50000000000000000000e+03) (50, -1.50000000000000000000e+03) (43, -1.19504270487831081482e+03) (121, -1.50000000000000000000e+03) (47, 1.43741114591656491939e+03) (126, -1.50000000000000000000e+03) (200, -1.50000000000000000000e+03) (170, 2.79705007187424126158e+00) (150, 1.50000000000000000000e+03) (100, 1.70405835343019930406e+02) (4, 1.50000000000000000000e+03) (168, 1.50000000000000000000e+03) (67, 1.50000000000000000000e+03) (158, 9.60584406169963813227e+02) (127, 1.50000000000000000000e+03) (169, 1.50000000000000000000e+03) (138, 1.50000000000000000000e+03) (22, 1.50000000000000000000e+03) (201, 4.40580027594263583524e+02) (160, 1.50000000000000000000e+03) (112, 1.50000000000000000000e+03) (87, 1.50000000000000000000e+03) (128, 2.37177131001636951169e+02) (58, -1.28546319226579697670e+02) (180, 1.50000000000000000000e+03) (108, -1.50000000000000000000e+03) (103, 1.50000000000000000000e+03) (12, 1.12874433333521028544e+03) (171, 1.50000000000000000000e+03) (130, 1.50000000000000000000e+03) (154, 1.50000000000000000000e+03) (153, 7.30457695625127939820e+02) (106, -1.50000000000000000000e+03) (96, -1.50000000000000000000e+03) (213, -1.50000000000000000000e+03) (68, 1.50000000000000000000e+03) (49, 1.50000000000000000000e+03) (174, 2.02450237619404248335e+02) (110, 1.50000000000000000000e+03) (73, 1.50000000000000000000e+03) (185, 1.50000000000000000000e+03) (204, -1.50000000000000000000e+03) (155, 1.50000000000000000000e+03) (6, 1.50000000000000000000e+03) (143, 1.50000000000000000000e+03) (2, 1.50000000000000000000e+03) (149, -8.45455568932991127440e+02) (90, 1.50000000000000000000e+03) (164, 1.50000000000000000000e+03) (7, 1.36880010441118838571e+03) (74, 1.50000000000000000000e+03) (188, 1.43402571478550726169e+03) (123, 1.50000000000000000000e+03) (26, -1.50000000000000000000e+03) (191, 1.50000000000000000000e+03) (182, 4.78170077466949976497e+02) (212, 1.50000000000000000000e+03) (55, 7.48132829127426735027e+00) (137, 1.50000000000000000000e+03) (18, 1.40724259686372784017e+03) (109, -5.56627056727370700173e+02) (135, -1.50000000000000000000e+03) (42, -1.50000000000000000000e+03) (91, 1.50000000000000000000e+03) (11, 1.50000000000000000000e+03) (199, 1.50000000000000000000e+03) (25, -1.50000000000000000000e+03) (40, 1.50000000000000000000e+03) (45, 1.42132324130864851064e-01) (57, 1.50000000000000000000e+03) (134, -1.50000000000000000000e+03) (190, 1.50000000000000000000e+03) (178, 7.14217559959303002870e+02) (46, 9.94254302783786272357e+01) (72, -3.20007661597734227144e+02) (56, 1.50000000000000000000e+03) (181, 1.43450052379168005245e+03) (105, -1.50000000000000000000e+03) (95, 1.50000000000000000000e+03) (44, -1.50000000000000000000e+03) (77, 1.50000000000000000000e+03) (37, 1.50000000000000000000e+03) (211, 1.50000000000000000000e+03) (88, 1.50000000000000000000e+03) (209, -3.82038038089583778856e+02) (159, 1.50000000000000000000e+03) (89, 2.37261478889445811546e+02) (19, -1.50000000000000000000e+03) (131, 1.50000000000000000000e+03) (125, -1.50000000000000000000e+03) (177, 1.40518406181449222458e+03) (62, -1.50000000000000000000e+03) (36, 3.65912954905151144303e+00) (82, -1.50000000000000000000e+03) (214, -1.50000000000000000000e+03) (172, -1.50000000000000000000e+03) (71, 1.50000000000000000000e+03) (186, 1.50000000000000000000e+03) (1, 1.50000000000000000000e+03) (136, 1.50000000000000000000e+03) (173, 1.50000000000000000000e+03) (207, 1.50000000000000000000e+03) (33, -1.50000000000000000000e+03) (144, 1.50000000000000000000e+03) (17, -1.50000000000000000000e+03) (152, 1.50000000000000000000e+03) (9, -9.54500099402298815221e+02) (66, 1.50000000000000000000e+03) (15, 1.50000000000000000000e+03) (3, -1.19506067117518796294e+03) (206, 1.50000000000000000000e+03) (84, -1.50000000000000000000e+03) (111, -1.50000000000000000000e+03) (192, -1.50000000000000000000e+03) (51, 1.50000000000000000000e+03) (60, -1.50000000000000000000e+03) (69, -1.50000000000000000000e+03) (54, 1.50000000000000000000e+03) (202, -1.50000000000000000000e+03) (216, -1.63023579288959982736e-02) (11, 1.50000000000000000000e+03) (179, 1.25974779150372810932e+01) (50, -1.50000000000000000000e+03) (123, 1.50000000000000000000e+03) (75, 1.50000000000000000000e+03) (2, 1.50000000000000000000e+03) (177, 2.29937632998020404784e+02) (67, 1.50000000000000000000e+03) (146, -1.50000000000000000000e+03) (70, 1.48499999940395355225e+03) (117, -1.50000000000000000000e+03) (65, 1.43900590498718634080e+03) (199, 1.50000000000000000000e+03) (164, 1.50000000000000000000e+03) (98, 1.50000000000000000000e+03) (155, 1.50000000000000000000e+03) (30, 1.50000000000000000000e+03) (19, -1.50000000000000000000e+03) (127, 1.46411999701499917137e+03) (29, 1.50000000000000000000e+03) (187, 1.50000000000000000000e+03) (173, 1.50000000000000000000e+03) (47, 1.50000000000000000000e+03) (136, 1.50000000000000000000e+03) (110, 1.50000000000000000000e+03) (202, -1.50000000000000000000e+03) (3, -1.48499999940395355225e+03) (82, -1.50000000000000000000e+03) (64, 1.49408152934444092352e+03) (207, 1.19518702275084456232e+03) (122, 1.50000000000000000000e+03) (71, 1.50000000000000000000e+03) (73, 1.50000000000000000000e+03) (169, 1.50000000000000000000e+03) (79, 1.50000000000000000000e+03) (119, 1.50000000000000000000e+03) (40, 1.50000000000000000000e+03) (6, 1.50000000000000000000e+03) (166, -1.47598359334643009788e+03) (153, 4.59037368483777754591e+02) (206, 1.50000000000000000000e+03) (168, 1.50000000000000000000e+03) (83, -1.08388285716807061476e+02) (172, -1.50000000000000000000e+03) (78, 1.50000000000000000000e+03) (200, -1.50000000000000000000e+03) (140, 1.50000000000000000000e+03) (86, 1.50000000000000000000e+03) (46, 1.19536662369185091848e+03) (111, -1.50000000000000000000e+03) (104, 1.50000000000000000000e+03) (96, -1.50000000000000000000e+03) (193, 1.50000000000000000000e+03) (0, -1.50000000000000000000e+03) (190, 1.50000000000000000000e+03) (108, -1.50000000000000000000e+03) (38, -1.50000000000000000000e+03) (59, 1.50000000000000000000e+03) (22, 1.50000000000000000000e+03) (192, -1.50000000000000000000e+03) (143, 1.50000000000000000000e+03) (26, -1.50000000000000000000e+03) (139, 9.88723905348949756444e+01) (213, -1.50000000000000000000e+03) (150, 1.50000000000000000000e+03) (17, -1.50000000000000000000e+03) (167, 1.50000000000000000000e+03) (185, 1.50000000000000000000e+03) (35, 1.88190397831713660537e+01) (174, -4.76165338092324041952e+00) (194, 1.50000000000000000000e+03) (151, -1.50000000000000000000e+03) (161, 1.43556237859039606519e+03) (54, 1.50000000000000000000e+03) (63, 1.50000000000000000000e+03) (197, 1.50000000000000000000e+03) (147, -2.25893171287442878770e-01) (145, 1.50000000000000000000e+03) (158, 6.90329344579370172141e+02) (201, -4.40413188259318477691e+00) (52, -1.48880255688537567949e+03) (149, -9.55020742782470392740e+02) (39, -1.50000000000000000000e+03) (181, 1.43510275547052469847e+03) (105, -1.50000000000000000000e+03) (114, 4.34435829540563602791e+01) (72, -5.25098718073246118365e+02) (183, 1.50000000000000000000e+03) (89, 1.50000000000000000000e+03) (60, -1.50000000000000000000e+03) (43, -1.50000000000000000000e+03) (130, 1.50000000000000000000e+03) (129, -1.50000000000000000000e+03) (36, 3.88670729931255509726e-01) (160, 1.50000000000000000000e+03) (203, 7.14744269346418832356e+02) (212, 1.50000000000000000000e+03) (95, 1.48444799691009507114e+03) (13, -1.50000000000000000000e+03) (100, 8.45049488093980926351e+02) (120, -1.50000000000000000000e+03) (171, 1.50000000000000000000e+03) (74, 1.49675274138329768903e+03) (92, -1.50000000000000000000e+03) (180, 1.49745258157796160958e+03) (16, -1.50000000000000000000e+03) (141, -1.50000000000000000000e+03) (159, 1.50000000000000000000e+03) (163, -6.83056300273055967409e+02) (32, 1.50000000000000000000e+03) (152, 1.49657855944999710118e+03) (28, 1.50000000000000000000e+03) (88, 1.50000000000000000000e+03) (62, -1.50000000000000000000e+03) (77, 1.50000000000000000000e+03) (93, 1.50000000000000000000e+03) (112, 1.50000000000000000000e+03) (68, 1.50000000000000000000e+03) (195, 1.50000000000000000000e+03) (101, -1.50000000000000000000e+03) (5, -1.50000000000000000000e+03) (208, -1.50000000000000000000e+03) (144, 1.50000000000000000000e+03) (102, -7.26748327775842653864e+02) (109, -8.59533182067803636528e+02) (186, 1.19902266909243599002e+03) (132, -1.50000000000000000000e+03) (8, 2.88785056057415232544e+01) (204, -1.50000000000000000000e+03) (107, 1.50000000000000000000e+03) (189, -1.49440127844268772606e+03) (116, 1.50000000000000000000e+03) (176, 1.50000000000000000000e+03) (175, 1.43480750186812929314e+03) (196, 9.15792902460985214219e-01) (118, 1.50000000000000000000e+03) (121, -1.50000000000000000000e+03) (209, -2.88420565041198585732e+02) (7, 1.47059999804496760589e+03) (115, 1.50000000000000000000e+03) (41, -1.47500000000000000000e+03) (137, 1.50000000000000000000e+03) (48, 1.50000000000000000000e+03) (91, 1.50000000000000000000e+03) (33, -1.50000000000000000000e+03) (90, 1.50000000000000000000e+03) (81, 1.50000000000000000000e+03) (84, -1.50000000000000000000e+03) (157, 1.50000000000000000000e+03) (53, 1.50000000000000000000e+03) (45, 3.46271348212934038102e+00) (31, 1.50000000000000000000e+03) (134, -1.50000000000000000000e+03) (198, 1.50000000000000000000e+03) (184, 1.50000000000000000000e+03) (142, -1.50000000000000000000e+03) (44, -1.50000000000000000000e+03) (205, 1.19502684371568875576e+03) (170, 2.12233620563961133954e+00) (24, -1.50000000000000000000e+03) (191, 1.50000000000000000000e+03) (4, 1.50000000000000000000e+03) (57, 1.50000000000000000000e+03) (76, -1.50000000000000000000e+03) (14, 1.43463921902189918001e+03) (135, -1.48499999940395355225e+03) (37, 1.50000000000000000000e+03) (133, -1.50000000000000000000e+03) (56, 1.50000000000000000000e+03) (126, -1.49099999928474426270e+03) (211, 1.50000000000000000000e+03) (178, 1.43436897359925660567e+03) (131, 1.50000000000000000000e+03) (216, -9.23068542878936471041e-02) (59, 1.50000000000000000000e+03) (57, 1.50000000000000000000e+03) (78, 1.50000000000000000000e+03) (110, 1.50000000000000000000e+03) (180, 1.49611199922752371094e+03) (94, -1.50000000000000000000e+03) (161, 1.50000000000000000000e+03) (39, -1.50000000000000000000e+03) (66, 1.50000000000000000000e+03) (131, 1.50000000000000000000e+03) (83, -1.81674020852867279530e+00) (37, 1.50000000000000000000e+03) (125, -1.50000000000000000000e+03) (205, 1.48499999940395355225e+03) (190, 1.50000000000000000000e+03) (4, 1.50000000000000000000e+03) (21, -1.50000000000000000000e+03) (27, -1.50000000000000000000e+03) (182, 7.13889552088020877818e+02) (144, 1.50000000000000000000e+03) (152, 1.49688959933567025473e+03) (80, 1.50000000000000000000e+03) (14, 1.50000000000000000000e+03) (137, 1.50000000000000000000e+03) (191, 1.49688959933567025473e+03) (75, 1.50000000000000000000e+03) (26, -1.50000000000000000000e+03) (70, 1.50000000000000000000e+03) (67, 1.50000000000000000000e+03) (102, -7.95525153785286192942e+02) (97, 1.43039999480247479369e+03) (105, -1.50000000000000000000e+03) (40, 1.50000000000000000000e+03) (48, 1.50000000000000000000e+03) (208, -1.50000000000000000000e+03) (128, 6.51204431643523706796e-01) (114, 1.50000000000000000000e+03) (135, -1.50000000000000000000e+03) (81, 1.50000000000000000000e+03) (45, 1.22142512595829558109e+02) (8, 6.12761179385186982582e-02) (77, 1.50000000000000000000e+03) (51, 1.50000000000000000000e+03) (177, 1.49206186976125763977e+03) (140, 1.50000000000000000000e+03) (25, -1.50000000000000000000e+03) (99, 1.50000000000000000000e+03) (121, -1.50000000000000000000e+03) (116, 1.49876828130411058737e+03) (22, 1.50000000000000000000e+03) (10, 1.50000000000000000000e+03) (24, -1.50000000000000000000e+03) (162, 1.48499999940395355225e+03) (210, 1.50000000000000000000e+03) (204, -1.50000000000000000000e+03) (52, -1.49351999897003156548e+03) (209, -5.63244065104682022138e+02) (157, 1.50000000000000000000e+03) (35, 4.67219994164505862955e+02) (153, 1.29805902783410651580e+01) (76, -1.50000000000000000000e+03) (172, -1.50000000000000000000e+03) (127, 1.49805599961376174178e+03) (192, -1.50000000000000000000e+03) (79, 1.50000000000000000000e+03) (165, 7.18849065510407172042e+02) (33, -1.50000000000000000000e+03) (84, -1.50000000000000000000e+03) (41, -1.50000000000000000000e+03) (181, 1.43448356396517874600e+03) (194, 1.50000000000000000000e+03) (50, -1.50000000000000000000e+03) (112, 1.50000000000000000000e+03) (123, 1.50000000000000000000e+03) (168, 1.50000000000000000000e+03) (154, 1.50000000000000000000e+03) (104, 1.50000000000000000000e+03) (56, 1.50000000000000000000e+03) (91, 1.50000000000000000000e+03) (118, 1.50000000000000000000e+03) (108, -1.50000000000000000000e+03) (42, -1.50000000000000000000e+03) (36, 2.32579615697062003221e+00) (72, -1.76301674507081678200e+01) (113, 1.48106388010927685173e+03) (166, -1.42999999821186065674e+03) (212, 1.50000000000000000000e+03) (145, 1.50000000000000000000e+03) (195, 1.50000000000000000000e+03) (174, -4.60564158523754485941e+02) (68, 1.50000000000000000000e+03) (101, -1.50000000000000000000e+03) (28, 1.50000000000000000000e+03) (23, 1.50000000000000000000e+03) (196, 1.04471184447133733642e+01) (1, 1.50000000000000000000e+03) (31, 1.50000000000000000000e+03) (54, 1.50000000000000000000e+03) (74, 1.49997760530465257034e+03) (103, 1.50000000000000000000e+03) (126, -1.49073890398812363856e+03) (186, 1.43574323651883287312e+03) (203, 1.48499999940395355225e+03) (183, 1.50000000000000000000e+03) (199, 1.50000000000000000000e+03) (160, 1.50000000000000000000e+03) (47, 1.19679931919172395283e+03) (58, -2.41955133489915311884e+02) (178, 4.74243921785099303179e+02) (164, 1.50000000000000000000e+03) (120, -1.49615078915351182332e+03) (202, -1.50000000000000000000e+03) (171, 1.50000000000000000000e+03) (18, 1.49186443538349226401e+03) (62, -1.50000000000000000000e+03) (151, -1.50000000000000000000e+03) (163, -5.31769948518650721780e+02) (201, 6.41611259269578795283e+01) (13, -1.50000000000000000000e+03) (65, 1.50000000000000000000e+03) (0, -1.50000000000000000000e+03) (43, -1.19485702170479521556e+03) (15, 1.50000000000000000000e+03) (3, -1.50000000000000000000e+03) (93, 1.50000000000000000000e+03) (167, 1.50000000000000000000e+03) (148, -1.50000000000000000000e+03) (170, -2.02479770311150053530e+00) (11, 1.50000000000000000000e+03) (200, -1.50000000000000000000e+03) (29, 1.50000000000000000000e+03) (206, 1.50000000000000000000e+03) (100, 8.07303207898003847731e+02) (117, -1.50000000000000000000e+03) (61, 1.50000000000000000000e+03) (134, -1.50000000000000000000e+03) (96, -1.50000000000000000000e+03) (17, -1.50000000000000000000e+03) (6, 1.50000000000000000000e+03) (158, 7.11604562914284429098e+02) (149, -5.37615348061719828365e+02) (185, 1.50000000000000000000e+03) (193, 1.50000000000000000000e+03) (82, -1.50000000000000000000e+03) (155, 1.50000000000000000000e+03) (107, 1.50000000000000000000e+03) (179, 7.15369936395957028985e-01) (73, 1.50000000000000000000e+03) (159, 1.50000000000000000000e+03) (143, 1.50000000000000000000e+03) (141, -1.50000000000000000000e+03) (88, 1.50000000000000000000e+03) (2, 1.50000000000000000000e+03) (38, -1.50000000000000000000e+03) (133, -1.50000000000000000000e+03) (198, 1.49899223003959332345e+03) (213, -1.50000000000000000000e+03) (150, 1.50000000000000000000e+03) (106, -1.50000000000000000000e+03) (130, 1.50000000000000000000e+03) (211, 1.50000000000000000000e+03) (7, 1.49976000203609487471e+03) (156, 1.50000000000000000000e+03) (9, -1.44346117362521772520e+03) (30, 1.50000000000000000000e+03) (92, -1.50000000000000000000e+03) (69, -1.50000000000000000000e+03) (44, -1.50000000000000000000e+03) (214, -1.50000000000000000000e+03) (90, 1.49888025567185195541e+03) (119, 9.55241632923533870780e+02) (176, 1.50000000000000000000e+03) (147, -1.18851481799513916116e+01) (216, -7.78153213767613749496e+01) (183, 1.50000000000000000000e+03) (69, -1.50000000000000000000e+03) (83, -3.04747578554756315405e-01) (154, 1.50000000000000000000e+03) (110, 1.50000000000000000000e+03) (94, -1.50000000000000000000e+03) (81, 1.50000000000000000000e+03) (147, 1.01884479572611841292e+00) (80, 1.50000000000000000000e+03) (157, 1.50000000000000000000e+03) (137, 1.50000000000000000000e+03) (114, 4.74621226043177955489e+02) (30, 1.50000000000000000000e+03) (163, -1.12778685988521409911e+01) (179, 3.77351091362895862957e+00) (189, -1.50000000000000000000e+03) (124, -1.50000000000000000000e+03) (115, 1.50000000000000000000e+03) (11, 1.50000000000000000000e+03) (18, 1.50000000000000000000e+03) (8, 2.20868164867832206255e+00) (62, -1.50000000000000000000e+03) (20, 1.50000000000000000000e+03) (181, 1.43440028261489601391e+03) (155, 1.50000000000000000000e+03) (177, 5.37982045874430468757e+02) (206, 1.50000000000000000000e+03) (150, 1.50000000000000000000e+03) (65, 1.43569171471511981508e+03) (97, 1.08162964309118888195e+03) (27, -1.50000000000000000000e+03) (98, 1.50000000000000000000e+03) (112, 1.50000000000000000000e+03) (68, 1.50000000000000000000e+03) (32, 1.50000000000000000000e+03) (156, 1.50000000000000000000e+03) (41, -1.50000000000000000000e+03) (162, 1.50000000000000000000e+03) (14, 1.43449472723252506512e+03) (79, 1.50000000000000000000e+03) (4, 1.50000000000000000000e+03) (7, 1.50000000000000000000e+03) (105, -1.50000000000000000000e+03) (174, -9.02770236672623695995e+01) (72, -1.23927221706998338391e+01) (57, 1.50000000000000000000e+03) (159, 1.50000000000000000000e+03) (144, 1.50000000000000000000e+03) (60, -1.50000000000000000000e+03) (48, 1.50000000000000000000e+03) (42, -1.50000000000000000000e+03) (88, 1.50000000000000000000e+03) (17, -1.50000000000000000000e+03) (173, 1.50000000000000000000e+03) (202, -1.50000000000000000000e+03) (213, -1.50000000000000000000e+03) (22, 1.50000000000000000000e+03) (199, 1.50000000000000000000e+03) (148, -1.50000000000000000000e+03) (87, 1.50000000000000000000e+03) (95, 1.12677206979040965962e+03) (182, 2.33568863344630583967e+00) (123, 1.50000000000000000000e+03) (56, 1.50000000000000000000e+03) (116, 1.50000000000000000000e+03) (89, 1.50000000000000000000e+03) (91, 1.50000000000000000000e+03) (132, -1.50000000000000000000e+03) (126, -1.50000000000000000000e+03) (84, -1.50000000000000000000e+03) (207, 1.50000000000000000000e+03) (161, 1.50000000000000000000e+03) (185, 1.50000000000000000000e+03) (135, -1.50000000000000000000e+03) (113, 1.50000000000000000000e+03) (73, 1.50000000000000000000e+03) (66, 1.50000000000000000000e+03) (146, -1.50000000000000000000e+03) (85, 1.50000000000000000000e+03) (149, -7.14156440726555729270e+02) (180, 1.50000000000000000000e+03) (47, 1.50000000000000000000e+03) (128, 7.25564707148287197924e+02) (195, 1.50000000000000000000e+03) (39, -1.50000000000000000000e+03) (103, 1.50000000000000000000e+03) (44, -1.50000000000000000000e+03) (40, 1.50000000000000000000e+03) (104, 1.50000000000000000000e+03) (205, 1.43406175391946362652e+03) (138, 1.50000000000000000000e+03) (178, 1.19467573467389206598e+03) (43, -9.55114774637238497235e+02) (13, -1.50000000000000000000e+03) (33, -1.50000000000000000000e+03) (198, 1.50000000000000000000e+03) (191, 1.50000000000000000000e+03) (71, 1.50000000000000000000e+03) (214, -1.50000000000000000000e+03) (36, 2.20953793610854209994e-01) (119, 1.19537313826114768744e+03) (131, 1.50000000000000000000e+03) (169, 1.50000000000000000000e+03) (121, -1.50000000000000000000e+03) (166, -1.50000000000000000000e+03) (67, 1.50000000000000000000e+03) (2, 1.50000000000000000000e+03) (120, -1.50000000000000000000e+03) (52, -1.50000000000000000000e+03) (75, 1.50000000000000000000e+03) (160, 1.50000000000000000000e+03) (78, 1.50000000000000000000e+03) (196, 4.27728486124850562078e+01) (139, 1.50000000000000000000e+03) (46, 4.19275067221046455757e+01) (53, 1.50000000000000000000e+03) (26, -1.50000000000000000000e+03) (10, 1.50000000000000000000e+03) (29, 1.50000000000000000000e+03) (90, 1.50000000000000000000e+03) (74, 1.50000000000000000000e+03) (117, -1.50000000000000000000e+03) (96, -1.50000000000000000000e+03) (151, -1.50000000000000000000e+03) (210, 1.50000000000000000000e+03) (201, 3.75402262760958421950e+02) (129, -1.50000000000000000000e+03) (175, 1.50000000000000000000e+03) (184, 1.50000000000000000000e+03) (106, -1.50000000000000000000e+03) (19, -1.50000000000000000000e+03) (158, 9.00752355371496605585e+02) (200, -1.50000000000000000000e+03) (107, 1.50000000000000000000e+03) (211, 1.50000000000000000000e+03) (192, -1.50000000000000000000e+03) (63, 1.43501495264665527429e+03) (37, 1.50000000000000000000e+03) (164, 1.50000000000000000000e+03) (58, -1.50000000000000000000e+03) (49, 1.50000000000000000000e+03) (28, 1.50000000000000000000e+03) (99, 1.50000000000000000000e+03) (176, 1.50000000000000000000e+03) (82, -1.50000000000000000000e+03) (167, 1.50000000000000000000e+03) (93, 1.50000000000000000000e+03) (64, 1.50000000000000000000e+03) (59, 1.50000000000000000000e+03) (102, -6.88930529649660456926e+02) (25, -1.50000000000000000000e+03) (24, -1.50000000000000000000e+03) (203, 9.55229351545860595252e+02) (172, -1.50000000000000000000e+03) (77, 1.50000000000000000000e+03) (3, -1.43492670974376687809e+03) (204, -1.50000000000000000000e+03) (125, -1.50000000000000000000e+03) (170, 1.41462758206825389706e+00) (127, 1.50000000000000000000e+03) (171, 1.50000000000000000000e+03) (54, 1.50000000000000000000e+03) (101, -1.50000000000000000000e+03) (143, 1.50000000000000000000e+03) (122, 1.50000000000000000000e+03) (35, 6.92020934680658115212e+01) (165, 2.40940963105516033238e+02) (136, 1.50000000000000000000e+03) (187, 1.50000000000000000000e+03) (38, -1.50000000000000000000e+03) (50, -1.50000000000000000000e+03) (193, 1.50000000000000000000e+03) (216, -9.52921848195470033716e+00) (80, 1.50000000000000000000e+03) (150, 1.50000000000000000000e+03) (94, -1.50000000000000000000e+03) (45, 1.56310725184415844069e+01) (212, 1.50000000000000000000e+03) (53, 1.50000000000000000000e+03) (67, 1.50000000000000000000e+03) (148, -1.50000000000000000000e+03) (107, 1.50000000000000000000e+03) (36, 1.44551425904027475156e+01) (196, -2.30660362222551684752e+00) (177, 2.46995852545428419944e+02) (24, -1.19547097144924919121e+03) (119, 7.15618507481819733584e+02) (182, 4.13912675659779765169e+01) (161, 1.19586037802451483003e+03) (61, 1.50000000000000000000e+03) (132, -1.50000000000000000000e+03) (209, -1.93282906637476514788e+02) (102, -5.37767235726059084300e+02) (204, -1.50000000000000000000e+03) (54, 1.50000000000000000000e+03) (215, 1.50000000000000000000e+03) (1, 1.50000000000000000000e+03) (78, 1.50000000000000000000e+03) (37, 1.50000000000000000000e+03) (130, 1.43466966739946019516e+03) (173, 1.50000000000000000000e+03) (50, -1.50000000000000000000e+03) (59, 1.50000000000000000000e+03) (44, -1.50000000000000000000e+03) (191, 1.50000000000000000000e+03) (171, 1.50000000000000000000e+03) (0, -1.50000000000000000000e+03) (26, -1.50000000000000000000e+03) (167, 1.50000000000000000000e+03) (154, 1.50000000000000000000e+03) (52, -1.50000000000000000000e+03) (91, 1.50000000000000000000e+03) (147, -2.17178750651040459729e+01) (16, -1.50000000000000000000e+03) (38, -1.50000000000000000000e+03) (17, -1.50000000000000000000e+03) (166, -8.39503201035987899559e+02) (2, 1.50000000000000000000e+03) (39, -1.50000000000000000000e+03) (189, -1.50000000000000000000e+03) (48, 1.50000000000000000000e+03) (63, 1.50000000000000000000e+03) (180, 1.50000000000000000000e+03) (23, 1.50000000000000000000e+03) (101, -1.50000000000000000000e+03) (133, -1.50000000000000000000e+03) (7, 1.50000000000000000000e+03) (114, 1.43633149495367683812e+03) (143, 1.50000000000000000000e+03) (176, 1.43551343550011915795e+03) (193, 1.50000000000000000000e+03) (127, 1.48019999799728384460e+03) (93, 1.50000000000000000000e+03) (72, -6.29709660278712348713e+01) (27, -1.50000000000000000000e+03) (194, 1.50000000000000000000e+03) (122, 1.50000000000000000000e+03) (15, 1.50000000000000000000e+03) (75, 1.50000000000000000000e+03) (129, -1.50000000000000000000e+03) (141, -1.50000000000000000000e+03) (79, 1.50000000000000000000e+03) (41, -1.50000000000000000000e+03) (83, -3.45394253128835089228e+02) (113, 1.44297598970031663157e+03) (33, -1.50000000000000000000e+03) (77, 1.50000000000000000000e+03) (22, 1.50000000000000000000e+03) (112, 1.50000000000000000000e+03) (20, 1.50000000000000000000e+03) (76, -1.50000000000000000000e+03) (62, -1.50000000000000000000e+03) (89, 1.50000000000000000000e+03) (74, 1.50000000000000000000e+03) (131, 1.50000000000000000000e+03) (124, -1.50000000000000000000e+03) (68, 1.50000000000000000000e+03) (184, 1.50000000000000000000e+03) (214, -1.50000000000000000000e+03) (66, 1.50000000000000000000e+03) (111, -1.50000000000000000000e+03) (208, -1.50000000000000000000e+03) (206, 1.50000000000000000000e+03) (13, -1.50000000000000000000e+03) (42, -1.50000000000000000000e+03) (97, 1.44803612618967190429e+03) (81, 1.50000000000000000000e+03) (73, 1.50000000000000000000e+03) (14, 1.50000000000000000000e+03) (168, 1.50000000000000000000e+03) (152, 1.50000000000000000000e+03) (51, 1.50000000000000000000e+03) (4, 1.50000000000000000000e+03) (8, 1.56331337434115837937e+01) (11, 1.50000000000000000000e+03) (43, -1.50000000000000000000e+03) (29, 1.50000000000000000000e+03) (156, 1.50000000000000000000e+03) (92, -1.50000000000000000000e+03) (142, -1.50000000000000000000e+03) (28, 1.50000000000000000000e+03) (186, 1.43563904792854168591e+03) (19, -1.50000000000000000000e+03) (183, 1.50000000000000000000e+03) (195, 1.19588291746979280106e+03) (64, 1.50000000000000000000e+03) (144, 1.50000000000000000000e+03) (56, 1.50000000000000000000e+03) (126, -1.50000000000000000000e+03) (120, -1.50000000000000000000e+03) (135, -1.50000000000000000000e+03) (86, 1.50000000000000000000e+03) (70, 1.50000000000000000000e+03) (128, 9.74472361527937096071e+02) (175, 1.43452668060646283266e+03) (139, 4.12368320400359706923e+01) (57, 1.50000000000000000000e+03) (35, 2.43609395324074824885e+02) (137, 1.50000000000000000000e+03) (210, 1.50000000000000000000e+03) (205, 1.50000000000000000000e+03) (162, 1.50000000000000000000e+03) (211, 1.50000000000000000000e+03) (125, -1.50000000000000000000e+03) (105, -1.50000000000000000000e+03) (110, 1.50000000000000000000e+03) (117, -1.50000000000000000000e+03) (174, -3.41610305423076283660e+02) (172, -1.50000000000000000000e+03) (188, 7.14221709322165224876e+02) (34, -1.50000000000000000000e+03) (187, 1.50000000000000000000e+03) (108, -1.50000000000000000000e+03) (82, -1.50000000000000000000e+03) (47, 1.50000000000000000000e+03) (12, 1.46999999880790710449e+03) (85, 1.50000000000000000000e+03) (138, 1.50000000000000000000e+03) (185, 1.50000000000000000000e+03) (146, -1.50000000000000000000e+03) (100, 5.73764719617757137371e+01) (40, 1.50000000000000000000e+03) (198, 1.50000000000000000000e+03) (199, 1.50000000000000000000e+03) (160, 1.50000000000000000000e+03) (3, -1.31884994783951060526e+03) (18, 1.48811999832630135643e+03) (99, 1.50000000000000000000e+03) (159, 1.50000000000000000000e+03) (60, -1.50000000000000000000e+03) (118, 1.43489873029513546498e+03) (87, 1.50000000000000000000e+03) (95, 1.50000000000000000000e+03) (71, 1.50000000000000000000e+03) (207, 1.19528905053035305173e+03) (163, -9.48772756810494229285e+02) (49, 1.50000000000000000000e+03) (121, -1.50000000000000000000e+03) (151, -1.50000000000000000000e+03) (169, 1.50000000000000000000e+03) (98, 1.50000000000000000000e+03) (157, 1.50000000000000000000e+03) (31, 1.50000000000000000000e+03) (55, 1.69837234075801397637e+01) (200, -1.50000000000000000000e+03) (25, -1.50000000000000000000e+03) (216, -2.31563651154015985867e+01) (189, -1.50000000000000000000e+03) (144, 1.50000000000000000000e+03) (2, 1.50000000000000000000e+03) (10, 1.50000000000000000000e+03) (113, 1.17559668579535173194e+03) (59, 1.50000000000000000000e+03) (155, 1.50000000000000000000e+03) (204, -1.50000000000000000000e+03) (177, 6.10993189857080324145e+02) (53, 1.50000000000000000000e+03) (152, 1.50000000000000000000e+03) (156, 1.50000000000000000000e+03) (49, 1.50000000000000000000e+03) (73, 1.50000000000000000000e+03) (192, -1.50000000000000000000e+03) (79, 1.50000000000000000000e+03) (22, 1.50000000000000000000e+03) (23, 1.50000000000000000000e+03) (190, 1.50000000000000000000e+03) (123, 1.50000000000000000000e+03) (76, -1.50000000000000000000e+03) (182, 6.99886702438737074772e+02) (66, 1.50000000000000000000e+03) (74, 1.50000000000000000000e+03) (169, 1.50000000000000000000e+03) (47, 1.50000000000000000000e+03) (122, 1.50000000000000000000e+03) (147, -1.55825591463483115184e+00) (213, -1.50000000000000000000e+03) (142, -1.50000000000000000000e+03) (112, 1.50000000000000000000e+03) (108, -1.50000000000000000000e+03) (212, 1.50000000000000000000e+03) (178, 1.50000000000000000000e+03) (150, 1.50000000000000000000e+03) (119, 1.50000000000000000000e+03) (97, 1.38531482917151993206e+03) (41, -1.50000000000000000000e+03) (69, -1.50000000000000000000e+03) (36, 1.46675058890893659225e+01) (206, 1.50000000000000000000e+03) (197, 1.50000000000000000000e+03) (51, 1.50000000000000000000e+03) (20, 1.50000000000000000000e+03) (114, 1.71475348322225720210e+01) (203, 1.19458966828147754313e+03) (100, 8.68881711624149062345e+01) (110, 1.50000000000000000000e+03) (120, -1.50000000000000000000e+03) (124, -1.50000000000000000000e+03) (8, 6.04469188015841929484e-01) (167, 1.50000000000000000000e+03) (67, 1.50000000000000000000e+03) (174, -6.03685477590379377943e+02) (139, 1.50000000000000000000e+03) (83, -9.36479825506071617003e-02) (58, -8.34023961289972930899e+02) (98, 1.50000000000000000000e+03) (196, -3.11235152243435120312e-01) (65, 1.50000000000000000000e+03) (130, 1.50000000000000000000e+03) (214, -1.50000000000000000000e+03) (185, 1.50000000000000000000e+03) (54, 1.50000000000000000000e+03) (81, 1.50000000000000000000e+03) (137, 1.50000000000000000000e+03) (95, 1.50000000000000000000e+03) (141, -1.50000000000000000000e+03) (75, 1.50000000000000000000e+03) (26, -1.50000000000000000000e+03) (12, 1.50000000000000000000e+03) (121, -1.50000000000000000000e+03) (135, -1.50000000000000000000e+03) (153, 1.01069489012424824637e+02) (117, -1.50000000000000000000e+03) (116, 1.50000000000000000000e+03) (62, -1.19559153435673351851e+03) (161, 1.50000000000000000000e+03) (92, -1.50000000000000000000e+03) (84, -1.50000000000000000000e+03) (11, 1.50000000000000000000e+03) (195, 1.50000000000000000000e+03) (128, 1.78715271292945097059e+01) (205, 1.50000000000000000000e+03) (170, -5.66797097676170369418e-01) (31, 1.50000000000000000000e+03) (132, -1.50000000000000000000e+03) (90, 1.50000000000000000000e+03) (16, -1.50000000000000000000e+03) (55, 8.75752446185636358678e+02) (32, 1.50000000000000000000e+03) (99, 1.50000000000000000000e+03) (18, 1.50000000000000000000e+03) (188, 1.19435310905893584277e+03) (127, 1.50000000000000000000e+03) (91, 1.50000000000000000000e+03) (6, 1.50000000000000000000e+03) (198, 1.43398443673440260682e+03) (163, -5.92532229013611754453e+02) (89, 1.50000000000000000000e+03) (61, 1.50000000000000000000e+03) (134, -1.50000000000000000000e+03) (106, -1.50000000000000000000e+03) (57, 1.50000000000000000000e+03) (52, -1.50000000000000000000e+03) (201, 5.21319170962423640958e+02) (149, -8.59730272269894612691e+02) (4, 1.50000000000000000000e+03) (164, 1.50000000000000000000e+03) (175, 2.36832282434374178592e+02) (27, -1.50000000000000000000e+03) (37, 1.50000000000000000000e+03) (173, 1.50000000000000000000e+03) (85, 1.50000000000000000000e+03) (179, 7.01920182267155269074e+02) (109, -9.45895808025139672282e+02) (103, 1.50000000000000000000e+03) (87, 1.50000000000000000000e+03) (133, -1.50000000000000000000e+03) (28, 1.50000000000000000000e+03) (136, 1.50000000000000000000e+03) (107, 1.50000000000000000000e+03) (68, 1.50000000000000000000e+03) (102, -1.50000000000000000000e+03) (40, 1.50000000000000000000e+03) (93, 1.50000000000000000000e+03) (146, -1.50000000000000000000e+03) (143, 1.50000000000000000000e+03) (215, 1.50000000000000000000e+03) (33, -1.50000000000000000000e+03) (86, 1.50000000000000000000e+03) (71, 1.50000000000000000000e+03) (17, -1.50000000000000000000e+03) (30, 1.50000000000000000000e+03) (210, 1.50000000000000000000e+03) (199, 1.50000000000000000000e+03) (159, 1.50000000000000000000e+03) (162, 1.50000000000000000000e+03) (180, 1.43472187044308452641e+03) (126, -1.50000000000000000000e+03) (193, 1.50000000000000000000e+03) (111, -1.50000000000000000000e+03) (44, -1.50000000000000000000e+03) (7, 1.50000000000000000000e+03) (46, 2.37297753657330474653e+02) (0, -1.43576664136846579822e+03) (82, -1.50000000000000000000e+03) (186, 1.50000000000000000000e+03) (5, -1.50000000000000000000e+03) (3, -1.19492250060440255766e+03) (80, 1.50000000000000000000e+03) (64, 1.50000000000000000000e+03) (77, 1.50000000000000000000e+03) (168, 1.50000000000000000000e+03) (157, 1.50000000000000000000e+03) (96, -1.50000000000000000000e+03) (138, 1.50000000000000000000e+03) (172, -1.50000000000000000000e+03) (202, -1.50000000000000000000e+03) (38, -1.50000000000000000000e+03) (104, 1.50000000000000000000e+03) (70, 1.50000000000000000000e+03) (14, 1.50000000000000000000e+03) (160, 1.50000000000000000000e+03) (187, 1.50000000000000000000e+03) (115, 1.43480331252255882646e+03) (208, -1.50000000000000000000e+03) (209, -1.28395937011777209591e+03) (94, -1.50000000000000000000e+03) (60, -1.50000000000000000000e+03) (148, -1.50000000000000000000e+03) (15, 1.50000000000000000000e+03) (101, -1.50000000000000000000e+03) (216, -1.24147973980290359464e+02) (160, 1.50000000000000000000e+03) (8, 1.97091841930067790400e+00) (140, 1.50000000000000000000e+03) (122, 1.50000000000000000000e+03) (22, 1.50000000000000000000e+03) (91, 1.50000000000000000000e+03) (56, 1.50000000000000000000e+03) (35, 1.87222021369851994166e+01) (21, -1.50000000000000000000e+03) (84, -1.50000000000000000000e+03) (134, -1.50000000000000000000e+03) (183, 1.50000000000000000000e+03) (147, 1.06611299811383997138e+00) (188, 1.43451938256185894716e+03) (138, 1.50000000000000000000e+03) (130, 1.50000000000000000000e+03) (155, 1.50000000000000000000e+03) (64, 1.50000000000000000000e+03) (180, 1.50000000000000000000e+03) (106, -1.50000000000000000000e+03) (28, 1.50000000000000000000e+03) (129, -1.50000000000000000000e+03) (94, -1.50000000000000000000e+03) (81, 1.50000000000000000000e+03) (97, 9.44781615406897230969e+02) (54, 1.50000000000000000000e+03) (166, -1.50000000000000000000e+03) (163, -1.03935556476566921447e+03) (63, 1.50000000000000000000e+03) (67, 1.50000000000000000000e+03) (212, 1.50000000000000000000e+03) (107, 1.50000000000000000000e+03) (32, 1.50000000000000000000e+03) (29, 1.50000000000000000000e+03) (43, -1.19438269892400103345e+03) (20, 1.50000000000000000000e+03) (1, 1.50000000000000000000e+03) (121, -1.50000000000000000000e+03) (62, -1.50000000000000000000e+03) (92, -1.50000000000000000000e+03) (33, -1.50000000000000000000e+03) (197, 1.50000000000000000000e+03) (87, 1.50000000000000000000e+03) (157, 1.50000000000000000000e+03) (127, 1.50000000000000000000e+03) (55, 2.08523461871640961363e+02) (75, 1.50000000000000000000e+03) (82, -1.50000000000000000000e+03) (151, -1.50000000000000000000e+03) (10, 1.50000000000000000000e+03) (211, 1.50000000000000000000e+03) (170, 2.36900413740682536101e+00) (23, 1.50000000000000000000e+03) (117, -1.50000000000000000000e+03) (178, 1.43446766462199025227e+03) (141, -1.50000000000000000000e+03) (41, -1.50000000000000000000e+03) (124, -1.50000000000000000000e+03) (187, 1.50000000000000000000e+03) (159, 1.50000000000000000000e+03) (77, 1.50000000000000000000e+03) (89, 1.50000000000000000000e+03) (164, 1.50000000000000000000e+03) (137, 1.50000000000000000000e+03) (196, 9.68637533556200303053e-02) (60, -1.50000000000000000000e+03) (156, 1.50000000000000000000e+03) (11, 1.50000000000000000000e+03) (26, -1.50000000000000000000e+03) (215, 1.50000000000000000000e+03) (210, 1.50000000000000000000e+03) (96, -1.50000000000000000000e+03) (118, 1.50000000000000000000e+03) (115, 1.50000000000000000000e+03) (65, 1.50000000000000000000e+03) (203, 2.51555374695891600823e+02) (73, 1.50000000000000000000e+03) (38, -1.50000000000000000000e+03) (103, 1.50000000000000000000e+03) (126, -1.50000000000000000000e+03) (90, 1.50000000000000000000e+03) (12, 1.50000000000000000000e+03) (30, 1.50000000000000000000e+03) (40, 1.50000000000000000000e+03) (168, 1.50000000000000000000e+03) (194, 1.50000000000000000000e+03) (78, 1.50000000000000000000e+03) (45, 1.91890849259823781381e+01) (173, 1.50000000000000000000e+03) (27, -1.50000000000000000000e+03) (39, -1.50000000000000000000e+03) (24, -1.50000000000000000000e+03) (34, -1.50000000000000000000e+03) (101, -1.50000000000000000000e+03) (83, -4.56706708902585276633e+01) (195, 1.50000000000000000000e+03) (49, 1.50000000000000000000e+03) (162, 1.50000000000000000000e+03) (109, 7.50681461985850546625e+01) (36, 1.46469676096875844884e+00) (182, 1.75052216811348237968e+01) (133, -1.50000000000000000000e+03) (79, 1.50000000000000000000e+03) (179, 3.27458490292321258153e+00) (193, 1.50000000000000000000e+03) (167, 1.50000000000000000000e+03) (142, -1.50000000000000000000e+03) (2, 1.50000000000000000000e+03) (200, -1.50000000000000000000e+03) (169, 1.50000000000000000000e+03) (192, -1.50000000000000000000e+03) (48, 1.50000000000000000000e+03) (44, -1.50000000000000000000e+03) (85, 1.50000000000000000000e+03) (42, -1.50000000000000000000e+03) (3, -1.50000000000000000000e+03) (93, 1.50000000000000000000e+03) (50, -1.50000000000000000000e+03) (104, 1.50000000000000000000e+03) (171, 1.50000000000000000000e+03) (190, 1.50000000000000000000e+03) (172, -1.50000000000000000000e+03) (120, -1.22340184687463033697e+03) (186, 1.50000000000000000000e+03) (61, 1.50000000000000000000e+03) (152, 1.50000000000000000000e+03) (154, 1.50000000000000000000e+03) (191, 1.50000000000000000000e+03) (214, -1.50000000000000000000e+03) (158, 1.36852796399375824876e+03) (108, -1.50000000000000000000e+03) (135, -1.50000000000000000000e+03) (25, -1.50000000000000000000e+03) (128, 1.76206045751770474794e+01) (132, -1.50000000000000000000e+03) (202, -1.50000000000000000000e+03) (149, -4.72718953712445227211e+02) (208, -1.50000000000000000000e+03) (37, 1.50000000000000000000e+03) (201, 5.75058062610514468815e+01) (209, -8.16638656581673899382e+02) (72, -1.19372334928934628806e+03) (19, -1.50000000000000000000e+03) (15, 1.50000000000000000000e+03) (114, 1.20417205354357088254e+03) (99, 1.50000000000000000000e+03) (136, 1.50000000000000000000e+03) (143, 1.50000000000000000000e+03) (9, -9.43929286553644715241e+02) (116, 1.50000000000000000000e+03) (17, -1.50000000000000000000e+03) (199, 1.50000000000000000000e+03) (102, -2.12667515100124347782e+02) (204, -1.50000000000000000000e+03) (46, 9.56670193437297029959e+02) (123, 1.50000000000000000000e+03) (69, -1.50000000000000000000e+03) (153, 1.17821643266248111104e+03) (111, -1.50000000000000000000e+03) (47, 1.50000000000000000000e+03) (31, 1.50000000000000000000e+03) (144, 1.50000000000000000000e+03) (80, 1.50000000000000000000e+03) (51, 1.50000000000000000000e+03) (131, 1.50000000000000000000e+03) (14, 9.54979663139015087836e+02) (174, 3.39201498289035185962e+01) (70, 1.50000000000000000000e+03) (213, -1.50000000000000000000e+03) (86, 1.50000000000000000000e+03) (198, 1.19535758297757593027e+03) (68, 1.50000000000000000000e+03) (59, 1.50000000000000000000e+03) (216, -1.11065104537794319128e+01) (83, -4.80679552501586258018e+01) (149, -8.45237662116310048077e+02) (7, 1.50000000000000000000e+03) (51, 1.50000000000000000000e+03) (190, 1.50000000000000000000e+03) (62, -1.19473245585030349503e+03) (112, 1.50000000000000000000e+03) (90, 1.50000000000000000000e+03) (22, 1.50000000000000000000e+03) (45, 3.70007033371645244202e+00) (10, 1.50000000000000000000e+03) (37, 1.50000000000000000000e+03) (133, -1.50000000000000000000e+03) (53, 1.50000000000000000000e+03) (157, 1.50000000000000000000e+03) (161, 1.43469193350226896655e+03) (94, -1.50000000000000000000e+03) (142, -1.50000000000000000000e+03) (46, 9.83575865861324558637e+01) (121, -1.50000000000000000000e+03) (104, 1.50000000000000000000e+03) (6, 1.50000000000000000000e+03) (68, 1.50000000000000000000e+03) (52, -1.50000000000000000000e+03) (172, -1.50000000000000000000e+03) (29, 1.50000000000000000000e+03) (199, 1.50000000000000000000e+03) (38, -1.50000000000000000000e+03) (195, 1.50000000000000000000e+03) (126, -1.50000000000000000000e+03) (86, 1.50000000000000000000e+03) (88, 1.50000000000000000000e+03) (158, 3.95771533513901658807e+01) (98, 1.50000000000000000000e+03) (208, -1.50000000000000000000e+03) (129, -1.50000000000000000000e+03) (9, -1.19371672133976767327e+03) (17, -1.50000000000000000000e+03) (191, 1.50000000000000000000e+03) (2, 1.50000000000000000000e+03) (113, 1.23677675337761024821e+03) (34, -1.50000000000000000000e+03) (48, 1.50000000000000000000e+03) (200, -1.50000000000000000000e+03) (20, 1.50000000000000000000e+03) (85, 1.50000000000000000000e+03) (73, 1.50000000000000000000e+03) (192, -1.50000000000000000000e+03) (151, -1.50000000000000000000e+03) (95, 1.50000000000000000000e+03) (164, 1.50000000000000000000e+03) (207, 1.19490224121860637752e+03) (109, -7.00357862230363593881e+02) (143, 1.50000000000000000000e+03) (180, 1.50000000000000000000e+03) (59, 1.50000000000000000000e+03) (26, -1.50000000000000000000e+03) (152, 1.40758897968502606091e+03) (189, -1.50000000000000000000e+03) (132, -1.50000000000000000000e+03) (12, 1.50000000000000000000e+03) (168, 1.50000000000000000000e+03) (36, -2.72292082594702655740e+00) (31, 1.50000000000000000000e+03) (141, -1.50000000000000000000e+03) (8, 4.97128349899960539915e+01) (210, 1.50000000000000000000e+03) (206, 1.50000000000000000000e+03) (147, 3.13888812900697544706e+00) (182, 9.83378562386047292421e+01) (99, 1.50000000000000000000e+03) (153, 3.84022600531417651837e+02) (115, 1.50000000000000000000e+03) (209, -1.35384295985029581288e+02) (117, -1.50000000000000000000e+03) (173, 1.50000000000000000000e+03) (136, 1.50000000000000000000e+03) (159, 1.50000000000000000000e+03) (138, 1.50000000000000000000e+03) (148, -1.50000000000000000000e+03) (162, 1.50000000000000000000e+03) (56, 1.50000000000000000000e+03) (69, -1.50000000000000000000e+03) (18, 1.50000000000000000000e+03) (74, 1.50000000000000000000e+03) (140, 1.50000000000000000000e+03) (60, -1.50000000000000000000e+03) (72, -2.82612002733799769771e+01) (116, 1.50000000000000000000e+03) (212, 1.50000000000000000000e+03) (118, 1.50000000000000000000e+03) (139, 8.86717334470568729898e+00) (19, -1.50000000000000000000e+03) (11, 1.50000000000000000000e+03) (23, 1.50000000000000000000e+03) (120, -1.40948396550709503572e+03) (108, -1.50000000000000000000e+03) (110, 1.50000000000000000000e+03) (114, 9.88882679429319324527e+01) (101, -1.50000000000000000000e+03) (16, -1.50000000000000000000e+03) (47, 1.50000000000000000000e+03) (76, -1.50000000000000000000e+03) (50, -1.44246159235962863931e+03) (5, -1.50000000000000000000e+03) (14, 1.19427107934137370648e+03) (75, 1.50000000000000000000e+03) (67, 1.50000000000000000000e+03) (197, 1.50000000000000000000e+03) (145, 1.50000000000000000000e+03) (44, -1.50000000000000000000e+03) (203, 1.50000000000000000000e+03) (78, 1.50000000000000000000e+03) (137, 1.50000000000000000000e+03) (201, -3.09132844318220634250e-01) (185, 1.50000000000000000000e+03) (92, -1.50000000000000000000e+03) (1, 1.50000000000000000000e+03) (184, 1.50000000000000000000e+03) (175, 1.44264720533484410225e+03) (124, -1.50000000000000000000e+03) (42, -1.50000000000000000000e+03) (111, -1.50000000000000000000e+03) (119, 1.19468904202037379036e+03) (156, 1.50000000000000000000e+03) (128, 2.37364532355641244976e+02) (150, 1.50000000000000000000e+03) (3, -9.54880308549645064886e+02) (134, -1.50000000000000000000e+03) (49, 1.43595618104840195883e+03) (135, -1.50000000000000000000e+03) (122, 1.50000000000000000000e+03) (194, 1.50000000000000000000e+03) (97, 1.10838694435422871720e+03) (33, -1.50000000000000000000e+03) (82, -1.50000000000000000000e+03) (169, 1.50000000000000000000e+03) (163, -6.40961940577877982150e+01) (105, -1.50000000000000000000e+03) (103, 1.50000000000000000000e+03) (196, 2.16531216828775363581e+00) (144, 1.50000000000000000000e+03) (214, -1.50000000000000000000e+03) (21, -1.50000000000000000000e+03) (211, 1.50000000000000000000e+03) (187, 1.50000000000000000000e+03) (93, 1.50000000000000000000e+03) (70, 1.50000000000000000000e+03) (55, 4.35684406431100796908e+01) (213, -1.50000000000000000000e+03) (177, 5.36204265149248655575e+01) (183, 1.50000000000000000000e+03) (40, 1.50000000000000000000e+03) (146, -1.50000000000000000000e+03) (15, 1.50000000000000000000e+03) (66, 1.50000000000000000000e+03) (64, 1.50000000000000000000e+03) (61, 1.50000000000000000000e+03) (181, 1.43428883627175582660e+03) (79, 1.50000000000000000000e+03) (107, 1.50000000000000000000e+03) (131, 1.50000000000000000000e+03) (167, 1.50000000000000000000e+03) (0, -1.19532986432506368146e+03) (89, 1.19529619818208766446e+03) (41, -1.50000000000000000000e+03) (171, 1.50000000000000000000e+03) (84, -1.50000000000000000000e+03) (30, 1.50000000000000000000e+03) (71, 1.50000000000000000000e+03) (39, -1.50000000000000000000e+03) (170, 7.85606495493819445564e-01) (80, 1.50000000000000000000e+03) (216, -1.39902965302240687606e+02) (19, -1.50000000000000000000e+03) (14, 1.19499124080863680319e+03) (37, 1.50000000000000000000e+03) (59, 1.50000000000000000000e+03) (171, 1.50000000000000000000e+03) (93, 1.50000000000000000000e+03) (66, 1.50000000000000000000e+03) (58, -4.73809798691501157464e+02) (187, 1.50000000000000000000e+03) (109, -9.17025125087707692728e+02) (181, 1.50000000000000000000e+03) (117, -1.50000000000000000000e+03) (115, 1.50000000000000000000e+03) (143, 1.50000000000000000000e+03) (69, -1.50000000000000000000e+03) (191, 1.50000000000000000000e+03) (136, 1.50000000000000000000e+03) (80, 1.50000000000000000000e+03) (34, -1.50000000000000000000e+03) (25, -1.50000000000000000000e+03) (132, -1.50000000000000000000e+03) (98, 1.43766515495774842748e+03) (146, -1.50000000000000000000e+03) (140, 1.50000000000000000000e+03) (196, 9.89072716104229643364e-01) (72, -2.74147680027072127018e+01) (88, 1.50000000000000000000e+03) (42, -1.50000000000000000000e+03) (119, 1.43461262984379391128e+03) (46, 7.09873434667250080565e+02) (39, -1.50000000000000000000e+03) (30, 1.50000000000000000000e+03) (144, 1.50000000000000000000e+03) (160, 1.50000000000000000000e+03) (116, 1.50000000000000000000e+03) (135, -1.50000000000000000000e+03) (193, 1.50000000000000000000e+03) (154, 1.50000000000000000000e+03) (86, 1.43562242137879752590e+03) (81, 1.50000000000000000000e+03) (177, 8.84310367337558204781e+02) (110, 1.50000000000000000000e+03) (170, 1.00577608516410355044e+00) (130, 1.50000000000000000000e+03) (204, -1.50000000000000000000e+03) (16, -1.50000000000000000000e+03) (209, -9.59755790249226492961e+02) (1, 1.50000000000000000000e+03) (23, 1.50000000000000000000e+03) (111, -1.50000000000000000000e+03) (174, 1.03823093387339383753e+02) (162, 1.50000000000000000000e+03) (27, -1.50000000000000000000e+03) (45, 2.86352106477666934481e+00) (61, 1.50000000000000000000e+03) (121, -1.50000000000000000000e+03) (2, 1.50000000000000000000e+03) (167, 1.50000000000000000000e+03) (202, -1.50000000000000000000e+03) (67, 1.50000000000000000000e+03) (57, 1.50000000000000000000e+03) (101, -1.50000000000000000000e+03) (89, 1.19598143231726953672e+03) (112, 1.50000000000000000000e+03) (203, 1.36845124021852006990e+03) (108, -1.50000000000000000000e+03) (129, -1.50000000000000000000e+03) (62, -1.50000000000000000000e+03) (97, 9.89504454280799222943e+02) (165, 8.13806994261097216281e+00) (199, 1.50000000000000000000e+03) (120, -1.29774552160353277941e+03) (201, 1.00054486794955401763e+01) (126, -1.50000000000000000000e+03) (52, -1.50000000000000000000e+03) (26, -1.50000000000000000000e+03) (43, -1.19504861393480268816e+03) (131, 1.50000000000000000000e+03) (145, 1.50000000000000000000e+03) (33, -1.50000000000000000000e+03) (180, 1.50000000000000000000e+03) (77, 1.50000000000000000000e+03) (213, -1.50000000000000000000e+03) (186, 1.50000000000000000000e+03) (47, 1.43685034857420782828e+03) (13, -1.50000000000000000000e+03) (9, -7.13799856439833092736e+02) (105, -1.50000000000000000000e+03) (102, -1.31736836648968483132e+03) (65, 1.50000000000000000000e+03) (38, -1.50000000000000000000e+03) (5, -1.50000000000000000000e+03) (168, 1.50000000000000000000e+03) (8, 1.47822152407534646024e+00) (85, 1.50000000000000000000e+03) (106, -1.50000000000000000000e+03) (3, -1.50000000000000000000e+03) (10, 1.50000000000000000000e+03) (17, -1.50000000000000000000e+03) (76, -1.50000000000000000000e+03) (36, 1.98787701693624779820e-01) (195, 1.50000000000000000000e+03) (153, 1.38554436191830347980e+02) (18, 1.50000000000000000000e+03) (133, -1.50000000000000000000e+03) (74, 1.50000000000000000000e+03) (50, -1.50000000000000000000e+03) (123, 1.50000000000000000000e+03) (49, 1.50000000000000000000e+03) (60, -1.50000000000000000000e+03) (40, 1.50000000000000000000e+03) (157, 1.50000000000000000000e+03) (173, 1.50000000000000000000e+03) (207, 1.43453447466602165150e+03) (164, 1.50000000000000000000e+03) (139, 4.73852745304505901913e+02) (166, -3.79369282521140121389e+02) (179, 9.91917826078278750401e+01) (4, 1.50000000000000000000e+03) (208, -1.50000000000000000000e+03) (56, 1.50000000000000000000e+03) (150, 1.50000000000000000000e+03) (190, 1.50000000000000000000e+03) (192, -1.50000000000000000000e+03) (184, 1.50000000000000000000e+03) (137, 1.50000000000000000000e+03) (91, 1.50000000000000000000e+03) (122, 1.50000000000000000000e+03) (103, 1.50000000000000000000e+03) (156, 1.50000000000000000000e+03) (73, 1.50000000000000000000e+03) (142, -1.50000000000000000000e+03) (95, 1.50000000000000000000e+03) (64, 1.50000000000000000000e+03) (15, 1.50000000000000000000e+03) (55, 9.71415130544525027290e+02) (29, 1.50000000000000000000e+03) (12, 1.50000000000000000000e+03) (128, 7.29383295538886500253e+02) (159, 1.50000000000000000000e+03) (210, 1.50000000000000000000e+03) (214, -1.50000000000000000000e+03) (6, 1.50000000000000000000e+03) (189, -1.50000000000000000000e+03) (51, 1.50000000000000000000e+03) (54, 1.50000000000000000000e+03) (152, 1.50000000000000000000e+03) (197, 1.50000000000000000000e+03) (92, -1.50000000000000000000e+03) (94, -1.50000000000000000000e+03) (118, 1.50000000000000000000e+03) (41, -1.19565983471069853294e+03) (200, -1.50000000000000000000e+03) (141, -1.50000000000000000000e+03) (183, 1.50000000000000000000e+03) (22, 1.50000000000000000000e+03) (148, -1.50000000000000000000e+03) (99, 1.50000000000000000000e+03) (211, 1.50000000000000000000e+03) (53, 1.50000000000000000000e+03) (169, 1.50000000000000000000e+03) (185, 1.50000000000000000000e+03) (31, 1.50000000000000000000e+03) (127, 1.50000000000000000000e+03) (182, 9.62263669474960579464e+02) (24, -1.19569580164743183559e+03) (161, 9.55742797098124810873e+02) (212, 1.50000000000000000000e+03) (198, 1.50000000000000000000e+03) (158, 7.16140037693550652875e+02) (107, 1.50000000000000000000e+03) (206, 1.50000000000000000000e+03) (216, -1.02682126063424945528e+01) (45, 4.95931188094689971990e+01) (4, 1.50000000000000000000e+03) (81, 1.50000000000000000000e+03) (93, 1.50000000000000000000e+03) (68, 1.50000000000000000000e+03) (177, 1.48532686872294311797e+03) (171, 1.50000000000000000000e+03) (205, 1.50000000000000000000e+03) (67, 1.50000000000000000000e+03) (196, 2.34556221531397284252e+02) (84, -1.50000000000000000000e+03) (137, 1.50000000000000000000e+03) (5, -1.50000000000000000000e+03) (158, 1.25907000823090288577e+03) (179, 4.47134508283659926065e+01) (48, 1.50000000000000000000e+03) (191, 1.50000000000000000000e+03) (60, -1.50000000000000000000e+03) (88, 1.50000000000000000000e+03) (182, 3.74849403204256814703e+00) (69, -1.50000000000000000000e+03) (83, 1.06346007648685847435e+00) (80, 1.50000000000000000000e+03) (121, -1.50000000000000000000e+03) (164, 1.50000000000000000000e+03) (26, -1.50000000000000000000e+03) (113, 1.50000000000000000000e+03) (39, -1.50000000000000000000e+03) (63, 1.19676939861528762776e+03) (206, 1.50000000000000000000e+03) (94, -1.50000000000000000000e+03) (72, -5.49715313445007325299e+01) (207, 1.50000000000000000000e+03) (15, 1.50000000000000000000e+03) (120, -1.46699999797344207764e+03) (76, -1.50000000000000000000e+03) (183, 1.50000000000000000000e+03) (62, -1.50000000000000000000e+03) (173, 1.50000000000000000000e+03) (210, 1.50000000000000000000e+03) (65, 1.50000000000000000000e+03) (172, -1.50000000000000000000e+03) (189, -1.50000000000000000000e+03) (117, -1.50000000000000000000e+03) (134, -1.50000000000000000000e+03) (152, 1.50000000000000000000e+03) (163, -4.60004452845239431014e+00) (38, -1.50000000000000000000e+03) (144, 1.50000000000000000000e+03) (190, 1.50000000000000000000e+03) (125, -1.50000000000000000000e+03) (29, 1.50000000000000000000e+03) (74, 1.50000000000000000000e+03) (150, 1.50000000000000000000e+03) (204, -1.50000000000000000000e+03) (34, -1.50000000000000000000e+03) (199, 1.50000000000000000000e+03) (87, 1.50000000000000000000e+03) (89, 1.50000000000000000000e+03) (162, 1.50000000000000000000e+03) (139, 4.73079751315240571330e+02) (32, 1.50000000000000000000e+03) (140, 1.50000000000000000000e+03) (200, -1.50000000000000000000e+03) (61, 1.50000000000000000000e+03) (58, -2.68651367850795054437e+02) (42, -1.50000000000000000000e+03) (64, 1.50000000000000000000e+03) (202, -1.50000000000000000000e+03) (157, 1.50000000000000000000e+03) (104, 1.50000000000000000000e+03) (53, 1.50000000000000000000e+03) (195, 1.50000000000000000000e+03) (193, 1.50000000000000000000e+03) (101, -1.50000000000000000000e+03) (145, 1.50000000000000000000e+03) (132, -1.50000000000000000000e+03) (43, -1.43477182964658732089e+03) (82, -1.50000000000000000000e+03) (85, 1.50000000000000000000e+03) (114, 4.73292364526846142780e+02) (108, -1.50000000000000000000e+03) (6, 1.50000000000000000000e+03) (141, -1.50000000000000000000e+03) (79, 1.50000000000000000000e+03) (153, 1.92831104086517761687e+01) (102, -7.24080404292972275471e+02) (169, 1.50000000000000000000e+03) (44, -1.50000000000000000000e+03) (20, 1.50000000000000000000e+03) (211, 1.50000000000000000000e+03) (168, 1.50000000000000000000e+03) (40, 1.50000000000000000000e+03) (129, -1.50000000000000000000e+03) (128, 7.23162255062019767138e+02) (105, -1.50000000000000000000e+03) (156, 1.50000000000000000000e+03) (55, 2.91005307582753857787e+02) (27, -1.50000000000000000000e+03) (0, -1.50000000000000000000e+03) (110, 1.50000000000000000000e+03) (212, 1.50000000000000000000e+03) (116, 1.50000000000000000000e+03) (136, 1.50000000000000000000e+03) (185, 1.50000000000000000000e+03) (54, 1.50000000000000000000e+03) (194, 1.50000000000000000000e+03) (138, 1.50000000000000000000e+03) (148, -1.50000000000000000000e+03) (35, 7.06941643115063243386e+02) (36, 1.12059755668390303995e+00) (78, 1.50000000000000000000e+03) (130, 1.50000000000000000000e+03) (112, 1.50000000000000000000e+03) (52, -1.50000000000000000000e+03) (197, 1.50000000000000000000e+03) (170, 4.54449923327833005260e+00) (22, 1.50000000000000000000e+03) (19, -1.50000000000000000000e+03) (96, -1.50000000000000000000e+03) (3, -1.50000000000000000000e+03) (25, -1.50000000000000000000e+03) (99, 1.50000000000000000000e+03) (151, -1.50000000000000000000e+03) (1, 1.50000000000000000000e+03) (176, 1.43646754148976765464e+03) (154, 1.50000000000000000000e+03) (106, -1.50000000000000000000e+03) (122, 1.50000000000000000000e+03) (92, -1.50000000000000000000e+03) (12, 1.46699999797344207764e+03) (166, -1.21026091917019198263e+03) (214, -1.50000000000000000000e+03) (13, -1.50000000000000000000e+03) (143, 1.50000000000000000000e+03) (119, 1.43407786312878397439e+03) (70, 1.50000000000000000000e+03) (66, 1.50000000000000000000e+03) (21, -1.50000000000000000000e+03) (97, 2.47080160936799870797e+02) (107, 1.50000000000000000000e+03) (109, -2.88902500002507338195e+02) (2, 1.50000000000000000000e+03) (75, 1.50000000000000000000e+03) (133, -1.50000000000000000000e+03) (147, -6.13252876360885990081e-01) (41, -1.43498995032832726793e+03) (192, -1.50000000000000000000e+03) (160, 1.50000000000000000000e+03) (174, -5.44729753654975525023e+02) (86, 1.43505696239606686504e+03) (208, -1.50000000000000000000e+03) (203, 1.43338510972489712003e+03) (111, -1.50000000000000000000e+03) (18, 1.50000000000000000000e+03) (73, 1.50000000000000000000e+03) (103, 1.50000000000000000000e+03) (186, 1.43999485120071790334e+03) (9, -4.74282025329738075925e+02) (100, 2.18563970842477345968e+02) (175, 1.50000000000000000000e+03) (47, 1.50000000000000000000e+03) (95, 1.50000000000000000000e+03) (28, 1.50000000000000000000e+03) (30, 1.50000000000000000000e+03) (37, 1.50000000000000000000e+03) (188, 1.50000000000000000000e+03) (8, 1.00540500926187492681e+00) (155, 1.50000000000000000000e+03) (77, 1.50000000000000000000e+03) (23, 1.50000000000000000000e+03) (57, 1.50000000000000000000e+03) (118, 1.50000000000000000000e+03) (216, 3.76465227545847436197e-01) (82, -1.50000000000000000000e+03) (120, -1.46480351522872888381e+03) (172, -1.50000000000000000000e+03) (51, 1.50000000000000000000e+03) (77, 1.50000000000000000000e+03) (56, 1.50000000000000000000e+03) (197, 1.50000000000000000000e+03) (78, 1.50000000000000000000e+03) (7, 1.48499999940395355225e+03) (92, -1.50000000000000000000e+03) (199, 1.50000000000000000000e+03) (180, 1.48499999940395355225e+03) (28, 1.50000000000000000000e+03) (200, -1.50000000000000000000e+03) (108, -1.50000000000000000000e+03) (126, -1.47500000000000000000e+03) (16, -1.50000000000000000000e+03) (91, 1.50000000000000000000e+03) (174, -3.02730430944569036456e+02) (137, 1.50000000000000000000e+03) (85, 1.50000000000000000000e+03) (53, 1.50000000000000000000e+03) (165, 8.56775168767045336438e+00) (49, 1.50000000000000000000e+03) (89, 1.50000000000000000000e+03) (29, 1.50000000000000000000e+03) (38, -1.50000000000000000000e+03) (198, 1.43660466737959427519e+03) (0, -1.50000000000000000000e+03) (203, 1.43643771487487538252e+03) (6, 1.50000000000000000000e+03) (116, 1.50000000000000000000e+03) (138, 1.50000000000000000000e+03) (52, -1.50000000000000000000e+03) (46, 9.94518811367921102828e+01) (171, 1.50000000000000000000e+03) (133, -1.50000000000000000000e+03) (76, -1.50000000000000000000e+03) (105, -1.50000000000000000000e+03) (101, -1.50000000000000000000e+03) (128, 2.95316839614031181327e+01) (24, -1.50000000000000000000e+03) (161, 1.43541051241562263385e+03) (131, 1.50000000000000000000e+03) (154, 1.50000000000000000000e+03) (132, -1.50000000000000000000e+03) (22, 1.50000000000000000000e+03) (41, -9.55234152370807009902e+02) (153, 4.48204799718356468929e+02) (162, 1.50000000000000000000e+03) (64, 1.48941599845504720179e+03) (189, -1.47500000000000000000e+03) (54, 1.50000000000000000000e+03) (96, -1.50000000000000000000e+03) (43, -1.19524234255199576182e+03) (187, 1.50000000000000000000e+03) (27, -1.50000000000000000000e+03) (195, 1.50000000000000000000e+03) (15, 1.50000000000000000000e+03) (99, 1.50000000000000000000e+03) (86, 1.50000000000000000000e+03) (47, 1.50000000000000000000e+03) (40, 1.50000000000000000000e+03) (178, 9.55536396937934682683e+02) (61, 1.50000000000000000000e+03) (93, 1.50000000000000000000e+03) (50, -1.50000000000000000000e+03) (72, -2.49787416534949429092e+01) (44, -1.50000000000000000000e+03) (37, 1.50000000000000000000e+03) (159, 1.50000000000000000000e+03) (23, 1.50000000000000000000e+03) (211, 1.50000000000000000000e+03) (158, 9.34582806835979909010e+02) (188, 9.55429924124622516501e+02) (143, 1.50000000000000000000e+03) (136, 1.50000000000000000000e+03) (65, 1.19601961528829224335e+03) (139, 1.89119208184478424073e+02) (141, -1.50000000000000000000e+03) (155, 1.50000000000000000000e+03) (60, -1.50000000000000000000e+03) (109, -7.69319488623960182849e+02) (185, 1.50000000000000000000e+03) (166, -6.93871934385370536802e+02) (193, 1.50000000000000000000e+03) (146, -1.50000000000000000000e+03) (163, -5.26371135181324234509e+02) (34, -1.50000000000000000000e+03) (94, -1.50000000000000000000e+03) (177, 3.70953142333957430310e+02) (3, -1.50000000000000000000e+03) (183, 1.50000000000000000000e+03) (206, 1.50000000000000000000e+03) (107, 1.50000000000000000000e+03) (135, -1.50000000000000000000e+03) (186, 1.50000000000000000000e+03) (31, 1.50000000000000000000e+03) (73, 1.50000000000000000000e+03) (36, 1.03968277302094506354e+02) (12, 1.38916517591799834008e+03) (175, 1.19625621210821805107e+03) (90, 1.48499999940395355225e+03) (209, -3.95716959015524309962e+02) (58, -1.68283525030123293220e+00) (106, -1.50000000000000000000e+03) (194, 1.50000000000000000000e+03) (83, -3.98856802173390700972e-01) (75, 1.50000000000000000000e+03) (168, 1.50000000000000000000e+03) (67, 1.50000000000000000000e+03) (71, 1.50000000000000000000e+03) (156, 1.50000000000000000000e+03) (148, -1.50000000000000000000e+03) (118, 1.50000000000000000000e+03) (210, 1.50000000000000000000e+03) (164, 1.50000000000000000000e+03) (21, -1.50000000000000000000e+03) (191, 1.50000000000000000000e+03) (150, 1.50000000000000000000e+03) (192, -1.50000000000000000000e+03) (201, 4.78699039420500412234e+02) (42, -1.50000000000000000000e+03) (88, 1.50000000000000000000e+03) (102, -2.52626133724181073603e+02) (115, 1.50000000000000000000e+03) (2, 1.50000000000000000000e+03) (87, 1.50000000000000000000e+03) (123, 1.50000000000000000000e+03) (4, 1.50000000000000000000e+03) (112, 1.50000000000000000000e+03) (190, 1.50000000000000000000e+03) (79, 1.50000000000000000000e+03) (84, -1.50000000000000000000e+03) (70, 1.49688959933567025473e+03) (80, 1.50000000000000000000e+03) (205, 1.43454367697729639985e+03) (125, -1.50000000000000000000e+03) (63, 1.50000000000000000000e+03) (13, -1.50000000000000000000e+03) (129, -1.50000000000000000000e+03) (214, -1.50000000000000000000e+03) (18, 1.26706111655491986312e+03) (103, 1.50000000000000000000e+03) (176, 1.50000000000000000000e+03) (33, -1.50000000000000000000e+03) (142, -1.50000000000000000000e+03) (100, 1.87848205950231289307e+02) (17, -1.50000000000000000000e+03) (111, -1.49533439888763427916e+03) (26, -1.50000000000000000000e+03) (122, 1.50000000000000000000e+03) (35, 9.53628688670156634544e+02) (57, 1.50000000000000000000e+03) (145, 1.50000000000000000000e+03) (127, 1.49657855944999710118e+03) (74, 1.50000000000000000000e+03) (202, -1.50000000000000000000e+03) (14, 1.19526645323594811998e+03) (98, 1.50000000000000000000e+03) (152, 1.49693936572813117891e+03) (55, 8.13009828840707804432e+00) (208, -1.50000000000000000000e+03) (9, -1.19525340123046521512e+03) (20, 1.50000000000000000000e+03) (147, 1.04127721280948449589e+02) (130, 1.50000000000000000000e+03) (114, 2.36771166173000750632e+02) (1, 1.50000000000000000000e+03) (184, 1.50000000000000000000e+03) (213, -1.50000000000000000000e+03) (121, -1.50000000000000000000e+03) (117, -1.50000000000000000000e+03) (216, -3.72430245328038944663e+00) (118, 1.50000000000000000000e+03) (115, 1.50000000000000000000e+03) (173, 1.50000000000000000000e+03) (148, -1.50000000000000000000e+03) (88, 1.50000000000000000000e+03) (7, 1.50000000000000000000e+03) (38, -1.50000000000000000000e+03) (77, 1.50000000000000000000e+03) (73, 1.50000000000000000000e+03) (41, -1.50000000000000000000e+03) (22, 1.50000000000000000000e+03) (5, -1.50000000000000000000e+03) (158, -2.11899688814262399106e+00) (168, 1.50000000000000000000e+03) (72, -1.13585799828851357063e+01) (21, -1.50000000000000000000e+03) (190, 1.50000000000000000000e+03) (122, 1.50000000000000000000e+03) (133, -1.50000000000000000000e+03) (131, 1.50000000000000000000e+03) (193, 1.43581931294822834388e+03) (23, 1.50000000000000000000e+03) (142, -1.50000000000000000000e+03) (36, -2.23487726817693399539e+00) (62, -1.50000000000000000000e+03) (91, 1.50000000000000000000e+03) (177, 6.09755891591101573113e+01) (32, 1.50000000000000000000e+03) (78, 1.50000000000000000000e+03) (51, 1.50000000000000000000e+03) (145, 1.50000000000000000000e+03) (186, 7.14524261793940809184e+02) (138, 1.50000000000000000000e+03) (105, -1.50000000000000000000e+03) (50, -1.43628897358849962984e+03) (48, 1.50000000000000000000e+03) (109, -1.37036421368746891858e+03) (185, 1.50000000000000000000e+03) (53, 1.50000000000000000000e+03) (66, 1.50000000000000000000e+03) (125, -1.50000000000000000000e+03) (176, 1.50000000000000000000e+03) (128, 1.36874052935353818228e+00) (189, -1.50000000000000000000e+03) (40, 1.50000000000000000000e+03) (150, 1.50000000000000000000e+03) (104, 1.50000000000000000000e+03) (171, 1.50000000000000000000e+03) (61, 1.50000000000000000000e+03) (196, 4.13525904445202874271e-01) (178, 2.99531932690484792303e+00) (79, 1.50000000000000000000e+03) (52, 