FANN_FLO_2.1
num_layers=5
learning_rate=0.700000
connection_rate=0.800000
network_type=0
learning_momentum=0.000000
training_algorithm=2
train_error_function=1
train_stop_function=0
cascade_output_change_fraction=0.010000
quickprop_decay=-0.000100
quickprop_mu=1.750000
rprop_increase_factor=1.200000
rprop_decrease_factor=0.500000
rprop_delta_min=0.000000
rprop_delta_max=50.000000
rprop_delta_zero=0.100000
cascade_output_stagnation_epochs=12
cascade_candidate_change_fraction=0.010000
cascade_candidate_stagnation_epochs=12
cascade_max_out_epochs=150
cascade_max_cand_epochs=150
cascade_num_candidate_groups=2
bit_fail_limit=3.49999999999999977796e-01
cascade_candidate_limit=1.00000000000000000000e+03
cascade_weight_multiplier=4.00000000000000022204e-01
cascade_activation_functions_count=10
cascade_activation_functions=3 5 7 8 10 11 14 15 16 17 
cascade_activation_steepnesses_count=4
cascade_activation_steepnesses=2.50000000000000000000e-01 5.00000000000000000000e-01 7.50000000000000000000e-01 1.00000000000000000000e+00 
layer_sizes=217 317 21 11 2 
scale_included=0
neurons (num_inputs, activation_function, activation_steepness)=(0, 0, 0.00000000000000000000e+00) (0, 0, 0.00000000000000000000e+00) (0, 0, 0.00000000000000000000e+00) (0, 0, 0.00000000000000000000e+00) (0, 0, 0.00000000000000000000e+00) (0, 0, 0.00000000000000000000e+00) (0, 0, 0.00000000000000000000e+00) (0, 0, 0.00000000000000000000e+00) (0, 0, 0.00000000000000000000e+00) (0, 0, 0.00000000000000000000e+00) (0, 0, 0.00000000000000000000e+00) (0, 0, 0.00000000000000000000e+00) (0, 0, 0.00000000000000000000e+00) (0, 0, 0.00000000000000000000e+00) (0, 0, 0.00000000000000000000e+00) (0, 0, 0.00000000000000000000e+00) (0, 0, 0.00000000000000000000e+00) (0, 0, 0.00000000000000000000e+00) (0, 0, 0.00000000000000000000e+00) (0, 0, 0.00000000000000000000e+00) (0, 0, 0.00000000000000000000e+00) (0, 0, 0.00000000000000000000e+00) (0, 0, 0.00000000000000000000e+00) (0, 0, 0.00000000000000000000e+00) (0, 0, 0.00000000000000000000e+00) (0, 0, 0.00000000000000000000e+00) (0, 0, 0.00000000000000000000e+00) (0, 0, 0.00000000000000000000e+00) (0, 0, 0.00000000000000000000e+00) (0, 0, 0.00000000000000000000e+00) (0, 0, 0.00000000000000000000e+00) (0, 0, 0.00000000000000000000e+00) (0, 0, 0.00000000000000000000e+00) (0, 0, 0.00000000000000000000e+00) (0, 0, 0.00000000000000000000e+00) (0, 0, 0.00000000000000000000e+00) (0, 0, 0.00000000000000000000e+00) (0, 0, 0.00000000000000000000e+00) (0, 0, 0.00000000000000000000e+00) (0, 0, 0.00000000000000000000e+00) (0, 0, 0.00000000000000000000e+00) (0, 0, 0.00000000000000000000e+00) (0, 0, 0.00000000000000000000e+00) (0, 0, 0.00000000000000000000e+00) (0, 0, 0.00000000000000000000e+00) (0, 0, 0.00000000000000000000e+00) (0, 0, 0.00000000000000000000e+00) (0, 0, 0.00000000000000000000e+00) (0, 0, 0.00000000000000000000e+00) (0, 0, 0.00000000000000000000e+00) (0, 0, 0.00000000000000000000e+00) (0, 0, 0.00000000000000000000e+00) (0, 0, 0.00000000000000000000e+00) (0, 0, 0.00000000000000000000e+00) (0, 0, 0.00000000000000000000e+00) (0, 0, 0.00000000000000000000e+00) (0, 0, 0.00000000000000000000e+00) (0, 0, 0.00000000000000000000e+00) (0, 0, 0.00000000000000000000e+00) (0, 0, 0.00000000000000000000e+00) (0, 0, 0.00000000000000000000e+00) (0, 0, 0.00000000000000000000e+00) (0, 0, 0.00000000000000000000e+00) (0, 0, 0.00000000000000000000e+00) (0, 0, 0.00000000000000000000e+00) (0, 0, 0.00000000000000000000e+00) (0, 0, 0.00000000000000000000e+00) (0, 0, 0.00000000000000000000e+00) (0, 0, 0.00000000000000000000e+00) (0, 0, 0.00000000000000000000e+00) (0, 0, 0.00000000000000000000e+00) (0, 0, 0.00000000000000000000e+00) (0, 0, 0.00000000000000000000e+00) (0, 0, 0.00000000000000000000e+00) (0, 0, 0.00000000000000000000e+00) (0, 0, 0.00000000000000000000e+00) (0, 0, 0.00000000000000000000e+00) (0, 0, 0.00000000000000000000e+00) (0, 0, 0.00000000000000000000e+00) (0, 0, 0.00000000000000000000e+00) (0, 0, 0.00000000000000000000e+00) (0, 0, 0.00000000000000000000e+00) (0, 0, 0.00000000000000000000e+00) (0, 0, 0.00000000000000000000e+00) (0, 0, 0.00000000000000000000e+00) (0, 0, 0.00000000000000000000e+00) (0, 0, 0.00000000000000000000e+00) (0, 0, 0.00000000000000000000e+00) (0, 0, 0.00000000000000000000e+00) (0, 0, 0.00000000000000000000e+00) (0, 0, 0.00000000000000000000e+00) (0, 0, 0.00000000000000000000e+00) (0, 0, 0.00000000000000000000e+00) (0, 0, 0.00000000000000000000e+00) (0, 0, 0.00000000000000000000e+00) (0, 0, 0.00000000000000000000e+00) (0, 0, 0.00000000000000000000e+00) (0, 0, 0.00000000000000000000e+00) (0, 0, 0.00000000000000000000e+00) (0, 0, 0.00000000000000000000e+00) (0, 0, 0.00000000000000000000e+00) (0, 0, 0.00000000000000000000e+00) (0, 0, 0.00000000000000000000e+00) (0, 0, 0.00000000000000000000e+00) (0, 0, 0.00000000000000000000e+00) (0, 0, 0.00000000000000000000e+00) (0, 0, 0.00000000000000000000e+00) (0, 0, 0.00000000000000000000e+00) (0, 0, 0.00000000000000000000e+00) (0, 0, 0.00000000000000000000e+00) (0, 0, 0.00000000000000000000e+00) (0, 0, 0.00000000000000000000e+00) (0, 0, 0.00000000000000000000e+00) (0, 0, 0.00000000000000000000e+00) (0, 0, 0.00000000000000000000e+00) (0, 0, 0.00000000000000000000e+00) (0, 0, 0.00000000000000000000e+00) (0, 0, 0.00000000000000000000e+00) (0, 0, 0.00000000000000000000e+00) (0, 0, 0.00000000000000000000e+00) (0, 0, 0.00000000000000000000e+00) (0, 0, 0.00000000000000000000e+00) (0, 0, 0.00000000000000000000e+00) (0, 0, 0.00000000000000000000e+00) (0, 0, 0.00000000000000000000e+00) (0, 0, 0.00000000000000000000e+00) (0, 0, 0.00000000000000000000e+00) (0, 0, 0.00000000000000000000e+00) (0, 0, 0.00000000000000000000e+00) (0, 0, 0.00000000000000000000e+00) (0, 0, 0.00000000000000000000e+00) (0, 0, 0.00000000000000000000e+00) (0, 0, 0.00000000000000000000e+00) (0, 0, 0.00000000000000000000e+00) (0, 0, 0.00000000000000000000e+00) (0, 0, 0.00000000000000000000e+00) (0, 0, 0.00000000000000000000e+00) (0, 0, 0.00000000000000000000e+00) (0, 0, 0.00000000000000000000e+00) (0, 0, 0.00000000000000000000e+00) (0, 0, 0.00000000000000000000e+00) (0, 0, 0.00000000000000000000e+00) (0, 0, 0.00000000000000000000e+00) (0, 0, 0.00000000000000000000e+00) (0, 0, 0.00000000000000000000e+00) (0, 0, 0.00000000000000000000e+00) (0, 0, 0.00000000000000000000e+00) (0, 0, 0.00000000000000000000e+00) (0, 0, 0.00000000000000000000e+00) (0, 0, 0.00000000000000000000e+00) (0, 0, 0.00000000000000000000e+00) (0, 0, 0.00000000000000000000e+00) (0, 0, 0.00000000000000000000e+00) (0, 0, 0.00000000000000000000e+00) (0, 0, 0.00000000000000000000e+00) (0, 0, 0.00000000000000000000e+00) (0, 0, 0.00000000000000000000e+00) (0, 0, 0.00000000000000000000e+00) (0, 0, 0.00000000000000000000e+00) (0, 0, 0.00000000000000000000e+00) (0, 0, 0.00000000000000000000e+00) (0, 0, 0.00000000000000000000e+00) (0, 0, 0.00000000000000000000e+00) (0, 0, 0.00000000000000000000e+00) (0, 0, 0.00000000000000000000e+00) (0, 0, 0.00000000000000000000e+00) (0, 0, 0.00000000000000000000e+00) (0, 0, 0.00000000000000000000e+00) (0, 0, 0.00000000000000000000e+00) (0, 0, 0.00000000000000000000e+00) (0, 0, 0.00000000000000000000e+00) (0, 0, 0.00000000000000000000e+00) (0, 0, 0.00000000000000000000e+00) (0, 0, 0.00000000000000000000e+00) (0, 0, 0.00000000000000000000e+00) (0, 0, 0.00000000000000000000e+00) (0, 0, 0.00000000000000000000e+00) (0, 0, 0.00000000000000000000e+00) (0, 0, 0.00000000000000000000e+00) (0, 0, 0.00000000000000000000e+00) (0, 0, 0.00000000000000000000e+00) (0, 0, 0.00000000000000000000e+00) (0, 0, 0.00000000000000000000e+00) (0, 0, 0.00000000000000000000e+00) (0, 0, 0.00000000000000000000e+00) (0, 0, 0.00000000000000000000e+00) (0, 0, 0.00000000000000000000e+00) (0, 0, 0.00000000000000000000e+00) (0, 0, 0.00000000000000000000e+00) (0, 0, 0.00000000000000000000e+00) (0, 0, 0.00000000000000000000e+00) (0, 0, 0.00000000000000000000e+00) (0, 0, 0.00000000000000000000e+00) (0, 0, 0.00000000000000000000e+00) (0, 0, 0.00000000000000000000e+00) (0, 0, 0.00000000000000000000e+00) (0, 0, 0.00000000000000000000e+00) (0, 0, 0.00000000000000000000e+00) (0, 0, 0.00000000000000000000e+00) (0, 0, 0.00000000000000000000e+00) (0, 0, 0.00000000000000000000e+00) (0, 0, 0.00000000000000000000e+00) (0, 0, 0.00000000000000000000e+00) (0, 0, 0.00000000000000000000e+00) (0, 0, 0.00000000000000000000e+00) (0, 0, 0.00000000000000000000e+00) (0, 0, 0.00000000000000000000e+00) (0, 0, 0.00000000000000000000e+00) (0, 0, 0.00000000000000000000e+00) (0, 0, 0.00000000000000000000e+00) (0, 0, 0.00000000000000000000e+00) (0, 0, 0.00000000000000000000e+00) (0, 0, 0.00000000000000000000e+00) (0, 0, 0.00000000000000000000e+00) (0, 0, 0.00000000000000000000e+00) (0, 0, 0.00000000000000000000e+00) (0, 0, 0.00000000000000000000e+00) (173, 4, 5.00000000000000000000e-01) (174, 4, 5.00000000000000000000e-01) (174, 4, 5.00000000000000000000e-01) (174, 4, 5.00000000000000000000e-01) (174, 4, 5.00000000000000000000e-01) (173, 4, 5.00000000000000000000e-01) (174, 4, 5.00000000000000000000e-01) (174, 4, 5.00000000000000000000e-01) (174, 4, 5.00000000000000000000e-01) (174, 4, 5.00000000000000000000e-01) (173, 4, 5.00000000000000000000e-01) (174, 4, 5.00000000000000000000e-01) (174, 4, 5.00000000000000000000e-01) (174, 4, 5.00000000000000000000e-01) (174, 4, 5.00000000000000000000e-01) (173, 4, 5.00000000000000000000e-01) (174, 4, 5.00000000000000000000e-01) (174, 4, 5.00000000000000000000e-01) (174, 4, 5.00000000000000000000e-01) (174, 4, 5.00000000000000000000e-01) (173, 4, 5.00000000000000000000e-01) (174, 4, 5.00000000000000000000e-01) (174, 4, 5.00000000000000000000e-01) (174, 4, 5.00000000000000000000e-01) (174, 4, 5.00000000000000000000e-01) (173, 4, 5.00000000000000000000e-01) (174, 4, 5.00000000000000000000e-01) (174, 4, 5.00000000000000000000e-01) (174, 4, 5.00000000000000000000e-01) (174, 4, 5.00000000000000000000e-01) (173, 4, 5.00000000000000000000e-01) (174, 4, 5.00000000000000000000e-01) (174, 4, 5.00000000000000000000e-01) (174, 4, 5.00000000000000000000e-01) (174, 4, 5.00000000000000000000e-01) (173, 4, 5.00000000000000000000e-01) (174, 4, 5.00000000000000000000e-01) (174, 4, 5.00000000000000000000e-01) (174, 4, 5.00000000000000000000e-01) (174, 4, 5.00000000000000000000e-01) (173, 4, 5.00000000000000000000e-01) (174, 4, 5.00000000000000000000e-01) (174, 4, 5.00000000000000000000e-01) (174, 4, 5.00000000000000000000e-01) (174, 4, 5.00000000000000000000e-01) (173, 4, 5.00000000000000000000e-01) (174, 4, 5.00000000000000000000e-01) (174, 4, 5.00000000000000000000e-01) (174, 4, 5.00000000000000000000e-01) (174, 4, 5.00000000000000000000e-01) (173, 4, 5.00000000000000000000e-01) (174, 4, 5.00000000000000000000e-01) (174, 4, 5.00000000000000000000e-01) (174, 4, 5.00000000000000000000e-01) (174, 4, 5.00000000000000000000e-01) (173, 4, 5.00000000000000000000e-01) (174, 4, 5.00000000000000000000e-01) (174, 4, 5.00000000000000000000e-01) (174, 4, 5.00000000000000000000e-01) (174, 4, 5.00000000000000000000e-01) (173, 4, 5.00000000000000000000e-01) (174, 4, 5.00000000000000000000e-01) (174, 4, 5.00000000000000000000e-01) (174, 4, 5.00000000000000000000e-01) (174, 4, 5.00000000000000000000e-01) (173, 4, 5.00000000000000000000e-01) (174, 4, 5.00000000000000000000e-01) (174, 4, 5.00000000000000000000e-01) (174, 4, 5.00000000000000000000e-01) (174, 4, 5.00000000000000000000e-01) (173, 4, 5.00000000000000000000e-01) (174, 4, 5.00000000000000000000e-01) (174, 4, 5.00000000000000000000e-01) (174, 4, 5.00000000000000000000e-01) (174, 4, 5.00000000000000000000e-01) (173, 4, 5.00000000000000000000e-01) (174, 4, 5.00000000000000000000e-01) (174, 4, 5.00000000000000000000e-01) (174, 4, 5.00000000000000000000e-01) (174, 4, 5.00000000000000000000e-01) (173, 4, 5.00000000000000000000e-01) (174, 4, 5.00000000000000000000e-01) (174, 4, 5.00000000000000000000e-01) (174, 4, 5.00000000000000000000e-01) (174, 4, 5.00000000000000000000e-01) (173, 4, 5.00000000000000000000e-01) (174, 4, 5.00000000000000000000e-01) (174, 4, 5.00000000000000000000e-01) (174, 4, 5.00000000000000000000e-01) (174, 4, 5.00000000000000000000e-01) (173, 4, 5.00000000000000000000e-01) (174, 4, 5.00000000000000000000e-01) (174, 4, 5.00000000000000000000e-01) (174, 4, 5.00000000000000000000e-01) (174, 4, 5.00000000000000000000e-01) (173, 4, 5.00000000000000000000e-01) (174, 4, 5.00000000000000000000e-01) (174, 4, 5.00000000000000000000e-01) (174, 4, 5.00000000000000000000e-01) (174, 4, 5.00000000000000000000e-01) (173, 4, 5.00000000000000000000e-01) (174, 4, 5.00000000000000000000e-01) (174, 4, 5.00000000000000000000e-01) (174, 4, 5.00000000000000000000e-01) (174, 4, 5.00000000000000000000e-01) (173, 4, 5.00000000000000000000e-01) (174, 4, 5.00000000000000000000e-01) (174, 4, 5.00000000000000000000e-01) (174, 4, 5.00000000000000000000e-01) (174, 4, 5.00000000000000000000e-01) (173, 4, 5.00000000000000000000e-01) (174, 4, 5.00000000000000000000e-01) (174, 4, 5.00000000000000000000e-01) (174, 4, 5.00000000000000000000e-01) (174, 4, 5.00000000000000000000e-01) (173, 4, 5.00000000000000000000e-01) (174, 4, 5.00000000000000000000e-01) (174, 4, 5.00000000000000000000e-01) (174, 4, 5.00000000000000000000e-01) (174, 4, 5.00000000000000000000e-01) (173, 4, 5.00000000000000000000e-01) (174, 4, 5.00000000000000000000e-01) (174, 4, 5.00000000000000000000e-01) (174, 4, 5.00000000000000000000e-01) (174, 4, 5.00000000000000000000e-01) (173, 4, 5.00000000000000000000e-01) (174, 4, 5.00000000000000000000e-01) (174, 4, 5.00000000000000000000e-01) (174, 4, 5.00000000000000000000e-01) (174, 4, 5.00000000000000000000e-01) (173, 4, 5.00000000000000000000e-01) (174, 4, 5.00000000000000000000e-01) (174, 4, 5.00000000000000000000e-01) (174, 4, 5.00000000000000000000e-01) (174, 4, 5.00000000000000000000e-01) (173, 4, 5.00000000000000000000e-01) (174, 4, 5.00000000000000000000e-01) (174, 4, 5.00000000000000000000e-01) (174, 4, 5.00000000000000000000e-01) (174, 4, 5.00000000000000000000e-01) (173, 4, 5.00000000000000000000e-01) (174, 4, 5.00000000000000000000e-01) (174, 4, 5.00000000000000000000e-01) (174, 4, 5.00000000000000000000e-01) (174, 4, 5.00000000000000000000e-01) (173, 4, 5.00000000000000000000e-01) (174, 4, 5.00000000000000000000e-01) (174, 4, 5.00000000000000000000e-01) (174, 4, 5.00000000000000000000e-01) (174, 4, 5.00000000000000000000e-01) (173, 4, 5.00000000000000000000e-01) (174, 4, 5.00000000000000000000e-01) (174, 4, 5.00000000000000000000e-01) (174, 4, 5.00000000000000000000e-01) (174, 4, 5.00000000000000000000e-01) (173, 4, 5.00000000000000000000e-01) (174, 4, 5.00000000000000000000e-01) (174, 4, 5.00000000000000000000e-01) (174, 4, 5.00000000000000000000e-01) (174, 4, 5.00000000000000000000e-01) (173, 4, 5.00000000000000000000e-01) (174, 4, 5.00000000000000000000e-01) (174, 4, 5.00000000000000000000e-01) (174, 4, 5.00000000000000000000e-01) (174, 4, 5.00000000000000000000e-01) (173, 4, 5.00000000000000000000e-01) (174, 4, 5.00000000000000000000e-01) (174, 4, 5.00000000000000000000e-01) (174, 4, 5.00000000000000000000e-01) (174, 4, 5.00000000000000000000e-01) (173, 4, 5.00000000000000000000e-01) (174, 4, 5.00000000000000000000e-01) (174, 4, 5.00000000000000000000e-01) (174, 4, 5.00000000000000000000e-01) (174, 4, 5.00000000000000000000e-01) (173, 4, 5.00000000000000000000e-01) (174, 4, 5.00000000000000000000e-01) (174, 4, 5.00000000000000000000e-01) (174, 4, 5.00000000000000000000e-01) (174, 4, 5.00000000000000000000e-01) (173, 4, 5.00000000000000000000e-01) (174, 4, 5.00000000000000000000e-01) (174, 4, 5.00000000000000000000e-01) (174, 4, 5.00000000000000000000e-01) (174, 4, 5.00000000000000000000e-01) (173, 4, 5.00000000000000000000e-01) (174, 4, 5.00000000000000000000e-01) (174, 4, 5.00000000000000000000e-01) (174, 4, 5.00000000000000000000e-01) (174, 4, 5.00000000000000000000e-01) (173, 4, 5.00000000000000000000e-01) (174, 4, 5.00000000000000000000e-01) (174, 4, 5.00000000000000000000e-01) (174, 4, 5.00000000000000000000e-01) (174, 4, 5.00000000000000000000e-01) (173, 4, 5.00000000000000000000e-01) (174, 4, 5.00000000000000000000e-01) (174, 4, 5.00000000000000000000e-01) (174, 4, 5.00000000000000000000e-01) (174, 4, 5.00000000000000000000e-01) (173, 4, 5.00000000000000000000e-01) (174, 4, 5.00000000000000000000e-01) (174, 4, 5.00000000000000000000e-01) (174, 4, 5.00000000000000000000e-01) (174, 4, 5.00000000000000000000e-01) (173, 4, 5.00000000000000000000e-01) (174, 4, 5.00000000000000000000e-01) (174, 4, 5.00000000000000000000e-01) (174, 4, 5.00000000000000000000e-01) (174, 4, 5.00000000000000000000e-01) (173, 4, 5.00000000000000000000e-01) (174, 4, 5.00000000000000000000e-01) (174, 4, 5.00000000000000000000e-01) (174, 4, 5.00000000000000000000e-01) (174, 4, 5.00000000000000000000e-01) (173, 4, 5.00000000000000000000e-01) (174, 4, 5.00000000000000000000e-01) (174, 4, 5.00000000000000000000e-01) (174, 4, 5.00000000000000000000e-01) (174, 4, 5.00000000000000000000e-01) (173, 4, 5.00000000000000000000e-01) (174, 4, 5.00000000000000000000e-01) (174, 4, 5.00000000000000000000e-01) (174, 4, 5.00000000000000000000e-01) (174, 4, 5.00000000000000000000e-01) (173, 4, 5.00000000000000000000e-01) (174, 4, 5.00000000000000000000e-01) (174, 4, 5.00000000000000000000e-01) (174, 4, 5.00000000000000000000e-01) (174, 4, 5.00000000000000000000e-01) (173, 4, 5.00000000000000000000e-01) (174, 4, 5.00000000000000000000e-01) (174, 4, 5.00000000000000000000e-01) (174, 4, 5.00000000000000000000e-01) (174, 4, 5.00000000000000000000e-01) (173, 4, 5.00000000000000000000e-01) (174, 4, 5.00000000000000000000e-01) (174, 4, 5.00000000000000000000e-01) (174, 4, 5.00000000000000000000e-01) (174, 4, 5.00000000000000000000e-01) (173, 4, 5.00000000000000000000e-01) (174, 4, 5.00000000000000000000e-01) (174, 4, 5.00000000000000000000e-01) (174, 4, 5.00000000000000000000e-01) (174, 4, 5.00000000000000000000e-01) (173, 4, 5.00000000000000000000e-01) (174, 4, 5.00000000000000000000e-01) (174, 4, 5.00000000000000000000e-01) (174, 4, 5.00000000000000000000e-01) (174, 4, 5.00000000000000000000e-01) (173, 4, 5.00000000000000000000e-01) (174, 4, 5.00000000000000000000e-01) (174, 4, 5.00000000000000000000e-01) (174, 4, 5.00000000000000000000e-01) (174, 4, 5.00000000000000000000e-01) (173, 4, 5.00000000000000000000e-01) (174, 4, 5.00000000000000000000e-01) (174, 4, 5.00000000000000000000e-01) (174, 4, 5.00000000000000000000e-01) (174, 4, 5.00000000000000000000e-01) (173, 4, 5.00000000000000000000e-01) (174, 4, 5.00000000000000000000e-01) (174, 4, 5.00000000000000000000e-01) (174, 4, 5.00000000000000000000e-01) (174, 4, 5.00000000000000000000e-01) (173, 4, 5.00000000000000000000e-01) (174, 4, 5.00000000000000000000e-01) (174, 4, 5.00000000000000000000e-01) (174, 4, 5.00000000000000000000e-01) (174, 4, 5.00000000000000000000e-01) (173, 4, 5.00000000000000000000e-01) (174, 4, 5.00000000000000000000e-01) (174, 4, 5.00000000000000000000e-01) (174, 4, 5.00000000000000000000e-01) (174, 4, 5.00000000000000000000e-01) (173, 4, 5.00000000000000000000e-01) (174, 4, 5.00000000000000000000e-01) (174, 4, 5.00000000000000000000e-01) (174, 4, 5.00000000000000000000e-01) (174, 4, 5.00000000000000000000e-01) (173, 4, 5.00000000000000000000e-01) (174, 4, 5.00000000000000000000e-01) (174, 4, 5.00000000000000000000e-01) (174, 4, 5.00000000000000000000e-01) (174, 4, 5.00000000000000000000e-01) (173, 4, 5.00000000000000000000e-01) (174, 4, 5.00000000000000000000e-01) (174, 4, 5.00000000000000000000e-01) (174, 4, 5.00000000000000000000e-01) (174, 4, 5.00000000000000000000e-01) (173, 4, 5.00000000000000000000e-01) (174, 4, 5.00000000000000000000e-01) (174, 4, 5.00000000000000000000e-01) (174, 4, 5.00000000000000000000e-01) (174, 4, 5.00000000000000000000e-01) (173, 4, 5.00000000000000000000e-01) (174, 4, 5.00000000000000000000e-01) (174, 4, 5.00000000000000000000e-01) (174, 4, 5.00000000000000000000e-01) (174, 4, 5.00000000000000000000e-01) (173, 4, 5.00000000000000000000e-01) (174, 4, 5.00000000000000000000e-01) (174, 4, 5.00000000000000000000e-01) (174, 4, 5.00000000000000000000e-01) (174, 4, 5.00000000000000000000e-01) (173, 4, 5.00000000000000000000e-01) (174, 4, 5.00000000000000000000e-01) (174, 4, 5.00000000000000000000e-01) (174, 4, 5.00000000000000000000e-01) (174, 4, 5.00000000000000000000e-01) (173, 4, 5.00000000000000000000e-01) (174, 4, 5.00000000000000000000e-01) (174, 4, 5.00000000000000000000e-01) (174, 4, 5.00000000000000000000e-01) (174, 4, 5.00000000000000000000e-01) (174, 4, 5.00000000000000000000e-01) (0, 0, 0.00000000000000000000e+00) (253, 4, 5.00000000000000000000e-01) (254, 4, 5.00000000000000000000e-01) (254, 4, 5.00000000000000000000e-01) (254, 4, 5.00000000000000000000e-01) (254, 4, 5.00000000000000000000e-01) (253, 4, 5.00000000000000000000e-01) (254, 4, 5.00000000000000000000e-01) (254, 4, 5.00000000000000000000e-01) (254, 4, 5.00000000000000000000e-01) (254, 4, 5.00000000000000000000e-01) (253, 4, 5.00000000000000000000e-01) (254, 4, 5.00000000000000000000e-01) (254, 4, 5.00000000000000000000e-01) (254, 4, 5.00000000000000000000e-01) (254, 4, 5.00000000000000000000e-01) (253, 4, 5.00000000000000000000e-01) (254, 4, 5.00000000000000000000e-01) (254, 4, 5.00000000000000000000e-01) (254, 4, 5.00000000000000000000e-01) (254, 4, 5.00000000000000000000e-01) (0, 0, 0.00000000000000000000e+00) (17, 4, 5.00000000000000000000e-01) (17, 4, 5.00000000000000000000e-01) (17, 4, 5.00000000000000000000e-01) (17, 4, 5.00000000000000000000e-01) (17, 4, 5.00000000000000000000e-01) (17, 4, 5.00000000000000000000e-01) (17, 4, 5.00000000000000000000e-01) (17, 4, 5.00000000000000000000e-01) (17, 4, 5.00000000000000000000e-01) (17, 4, 5.00000000000000000000e-01) (0, 0, 0.00000000000000000000e+00) (11, 5, 5.00000000000000000000e-01) (0, 5, 0.00000000000000000000e+00) 
connections (connected_to_neuron, weight)=(216, -1.78829793010199811221e+00) (127, 1.50000000000000000000e+03) (198, 7.13784519127812700390e+02) (184, 1.50000000000000000000e+03) (157, 1.50000000000000000000e+03) (168, 1.50000000000000000000e+03) (173, 1.50000000000000000000e+03) (60, -1.50000000000000000000e+03) (186, 1.50000000000000000000e+03) (23, 1.50000000000000000000e+03) (100, 3.78394917550095177816e+00) (25, -1.50000000000000000000e+03) (142, -1.50000000000000000000e+03) (175, 1.43496346636019438847e+03) (189, -1.43398606162383634910e+03) (136, 1.50000000000000000000e+03) (1, 1.50000000000000000000e+03) (86, 1.48499999940395355225e+03) (80, 1.50000000000000000000e+03) (14, 4.73507860218192774937e+02) (57, 1.50000000000000000000e+03) (155, 1.50000000000000000000e+03) (64, 1.48499999940395355225e+03) (200, -1.50000000000000000000e+03) (71, 1.43655114745620380745e+03) (117, -1.50000000000000000000e+03) (89, 1.44156774156797496289e+03) (40, 1.50000000000000000000e+03) (130, 1.43550827701307957796e+03) (79, 1.50000000000000000000e+03) (3, -1.50000000000000000000e+03) (108, -1.50000000000000000000e+03) (177, 2.04175040146762910354e+02) (5, -1.50000000000000000000e+03) (122, 1.50000000000000000000e+03) (18, 1.25831865900137358949e+03) (167, 1.50000000000000000000e+03) (172, -1.50000000000000000000e+03) (88, 1.50000000000000000000e+03) (7, 1.36917870345838173307e+03) (120, -1.50000000000000000000e+03) (49, 1.50000000000000000000e+03) (114, 9.54742963801407427127e+02) (113, 1.46999999880790710449e+03) (8, 2.63030491915545727721e+00) (152, 1.50000000000000000000e+03) (145, 1.43606559187802827182e+03) (170, 1.38230924030080137843e-01) (97, 9.18699547519218299385e+02) (46, 1.19504775183301012476e+03) (132, -1.50000000000000000000e+03) (159, 1.50000000000000000000e+03) (214, -1.50000000000000000000e+03) (109, -4.73110857671347730502e+02) (63, 1.50000000000000000000e+03) (164, 1.50000000000000000000e+03) (182, 1.19419485458239319087e+03) (54, 1.50000000000000000000e+03) (210, 1.50000000000000000000e+03) (44, -1.50000000000000000000e+03) (129, -1.50000000000000000000e+03) (208, -1.50000000000000000000e+03) (61, 1.50000000000000000000e+03) (128, 7.62864192186286572905e+02) (34, -1.50000000000000000000e+03) (202, -1.50000000000000000000e+03) (10, 1.50000000000000000000e+03) (160, 1.50000000000000000000e+03) (116, 1.48499999940395355225e+03) (103, 1.50000000000000000000e+03) (28, 1.50000000000000000000e+03) (192, -1.50000000000000000000e+03) (211, 1.50000000000000000000e+03) (165, 3.02910034382212645099e+00) (179, 1.49897052500262566355e+03) (203, 9.54673788279834298010e+02) (66, 1.50000000000000000000e+03) (56, 1.50000000000000000000e+03) (205, 7.14033719383967536487e+02) (163, -2.27042803616751029949e+02) (135, -1.50000000000000000000e+03) (2, 1.50000000000000000000e+03) (105, -1.50000000000000000000e+03) (90, 1.50000000000000000000e+03) (22, 1.50000000000000000000e+03) (191, 1.48499999940395355225e+03) (19, -1.50000000000000000000e+03) (134, -1.50000000000000000000e+03) (176, 1.43550808933295434144e+03) (106, -1.50000000000000000000e+03) (13, -1.50000000000000000000e+03) (48, 1.50000000000000000000e+03) (201, -2.18163024681069384059e+00) (92, -1.50000000000000000000e+03) (36, 8.67615261998627484985e-01) (161, 1.43439380445358256111e+03) (72, -1.47722376895098234106e-01) (121, -1.50000000000000000000e+03) (11, 1.50000000000000000000e+03) (133, -1.50000000000000000000e+03) (58, -1.12462351466690346768e+00) (78, 1.50000000000000000000e+03) (115, 1.50000000000000000000e+03) (76, -1.50000000000000000000e+03) (65, 1.48499999940395355225e+03) (12, 1.48499999940395355225e+03) (41, -1.31888763092273666189e+03) (52, -1.50000000000000000000e+03) (144, 1.50000000000000000000e+03) (94, -1.50000000000000000000e+03) (180, 1.48499999940395355225e+03) (17, -9.55287438928191249943e+02) (85, 1.50000000000000000000e+03) (16, -1.50000000000000000000e+03) (70, 1.43544056303717320588e+03) (91, 1.50000000000000000000e+03) (93, 1.50000000000000000000e+03) (123, 1.50000000000000000000e+03) (207, 7.14427390443093599970e+02) (99, 1.50000000000000000000e+03) (84, -1.50000000000000000000e+03) (21, -1.50000000000000000000e+03) (55, 8.40719450824803482547e-01) (162, 1.50000000000000000000e+03) (29, 1.50000000000000000000e+03) (62, -1.43434393165867209063e+03) (181, 1.43405024577267386121e+03) (20, 1.50000000000000000000e+03) (50, -1.43433582391451477633e+03) (98, 1.50000000000000000000e+03) (24, -1.43453599272606015802e+03) (112, 1.50000000000000000000e+03) (195, 9.56878523683437606451e+02) (183, 1.43548007890500252870e+03) (45, 1.55140216625055588073e-01) (104, 1.50000000000000000000e+03) (68, 1.50000000000000000000e+03) (38, -1.43520252501983441107e+03) (69, -1.50000000000000000000e+03) (111, -1.50000000000000000000e+03) (95, 1.36882527300952096994e+03) (178, 1.19410470212352811359e+03) (15, 1.50000000000000000000e+03) (51, 1.50000000000000000000e+03) (212, 1.50000000000000000000e+03) (150, 1.50000000000000000000e+03) (67, 1.50000000000000000000e+03) (43, -9.54556893004640755862e+02) (59, 1.43547829285933426036e+03) (166, -1.50000000000000000000e+03) (35, 7.13002578380014028880e+02) (174, -2.20517456870801140667e+01) (188, 4.99020561568135519792e+02) (9, -7.13819293785592208224e+02) (143, 1.50000000000000000000e+03) (101, -1.50000000000000000000e+03) (4, 1.50000000000000000000e+03) (27, -1.50000000000000000000e+03) (77, 1.50000000000000000000e+03) (141, -1.50000000000000000000e+03) (169, 1.50000000000000000000e+03) (196, -7.15940284547540617410e+00) (138, 1.50000000000000000000e+03) (119, 1.19451735418507087161e+03) (193, 1.50000000000000000000e+03) (96, -1.43487699230033376807e+03) (124, -1.50000000000000000000e+03) (209, -1.32577803355166814470e+01) (87, 1.50000000000000000000e+03) (6, 1.50000000000000000000e+03) (153, 2.45709213809968041176e+01) (47, 1.50000000000000000000e+03) (42, -1.50000000000000000000e+03) (216, 1.37344316372040453622e+00) (96, -1.50000000000000000000e+03) (65, 1.50000000000000000000e+03) (136, 1.50000000000000000000e+03) (47, 1.50000000000000000000e+03) (7, 1.43478041462125679573e+03) (166, -1.07934746026950551823e+03) (50, -9.54672980855199512007e+02) (92, -1.50000000000000000000e+03) (171, 1.50000000000000000000e+03) (0, -1.50000000000000000000e+03) (197, 1.50000000000000000000e+03) (119, 1.43408757963316020323e+03) (36, 1.53149583389295598085e-02) (46, 1.19483487028881881997e+03) (138, 1.50000000000000000000e+03) (42, -1.50000000000000000000e+03) (34, -1.50000000000000000000e+03) (26, -1.50000000000000000000e+03) (101, -1.50000000000000000000e+03) (152, 1.50000000000000000000e+03) (72, -1.26047272474076663684e+01) (174, -1.27331673847636636765e+02) (143, 1.50000000000000000000e+03) (57, 1.50000000000000000000e+03) (5, -1.50000000000000000000e+03) (79, 1.50000000000000000000e+03) (175, 1.48499999940395355225e+03) (35, 1.48499999940395355225e+03) (111, -1.50000000000000000000e+03) (10, 1.50000000000000000000e+03) (163, -1.00357435288339956969e+03) (27, -1.50000000000000000000e+03) (122, 1.50000000000000000000e+03) (62, -1.50000000000000000000e+03) (141, -1.50000000000000000000e+03) (194, 1.50000000000000000000e+03) (120, -1.43437520881955356344e+03) (14, 9.54622994900879803026e+02) (184, 1.50000000000000000000e+03) (30, 1.50000000000000000000e+03) (147, 1.44398115210404229258e-02) (142, -1.50000000000000000000e+03) (80, 1.50000000000000000000e+03) (8, 1.10907592017603519707e+02) (94, -1.50000000000000000000e+03) (202, -1.50000000000000000000e+03) (44, -1.50000000000000000000e+03) (153, 2.28797627539214367687e+01) (66, 1.50000000000000000000e+03) (91, 1.50000000000000000000e+03) (95, 1.50000000000000000000e+03) (51, 1.50000000000000000000e+03) (69, -1.50000000000000000000e+03) (144, 1.50000000000000000000e+03) (59, 1.50000000000000000000e+03) (137, 1.50000000000000000000e+03) (33, -1.50000000000000000000e+03) (162, 1.50000000000000000000e+03) (39, -1.50000000000000000000e+03) (74, 1.48499999940395355225e+03) (183, 1.50000000000000000000e+03) (106, -1.50000000000000000000e+03) (41, -1.47500000000000000000e+03) (107, 1.50000000000000000000e+03) (21, -1.50000000000000000000e+03) (118, 1.50000000000000000000e+03) (98, 1.50000000000000000000e+03) (81, 1.50000000000000000000e+03) (123, 1.50000000000000000000e+03) (71, 1.50000000000000000000e+03) (89, 1.50000000000000000000e+03) (169, 1.50000000000000000000e+03) (63, 1.50000000000000000000e+03) (181, 1.48499999940395355225e+03) (117, -1.50000000000000000000e+03) (73, 1.50000000000000000000e+03) (37, 1.50000000000000000000e+03) (132, -1.50000000000000000000e+03) (99, 1.50000000000000000000e+03) (199, 1.50000000000000000000e+03) (177, 1.13265444987955402212e+03) (56, 1.50000000000000000000e+03) (130, 1.50000000000000000000e+03) (167, 1.50000000000000000000e+03) (133, -1.50000000000000000000e+03) (49, 1.19772369061628182862e+03) (190, 1.49991360072612746990e+03) (28, 1.50000000000000000000e+03) (12, 1.19472121912812895062e+03) (61, 1.50000000000000000000e+03) (161, 1.50000000000000000000e+03) (155, 1.50000000000000000000e+03) (178, 1.43482528838040730079e+03) (159, 1.50000000000000000000e+03) (116, 1.48499999940395355225e+03) (149, -4.09463795737943740960e+01) (172, -1.50000000000000000000e+03) (22, 1.50000000000000000000e+03) (193, 1.50000000000000000000e+03) (195, 1.50000000000000000000e+03) (126, -1.50000000000000000000e+03) (18, 1.50000000000000000000e+03) (196, 3.35950069259632999596e-01) (203, 1.19463886156848343489e+03) (110, 1.50000000000000000000e+03) (6, 1.50000000000000000000e+03) (52, -1.50000000000000000000e+03) (198, 4.73742961005519021001e+02) (90, 1.50000000000000000000e+03) (100, 1.36616222649653611398e+01) (1, 1.50000000000000000000e+03) (13, -1.50000000000000000000e+03) (19, -1.50000000000000000000e+03) (82, -1.50000000000000000000e+03) (85, 1.50000000000000000000e+03) (113, 1.50000000000000000000e+03) (210, 1.50000000000000000000e+03) (78, 1.50000000000000000000e+03) (208, -1.50000000000000000000e+03) (103, 1.50000000000000000000e+03) (112, 1.50000000000000000000e+03) (186, 1.50000000000000000000e+03) (67, 1.50000000000000000000e+03) (205, 1.19486868103345523195e+03) (31, 1.48499999940395355225e+03) (86, 1.50000000000000000000e+03) (156, 1.50000000000000000000e+03) (24, -7.14149307356973167771e+02) (121, -1.50000000000000000000e+03) (215, 1.50000000000000000000e+03) (204, -1.50000000000000000000e+03) (180, 1.48499999940395355225e+03) (114, 1.19739882533301556577e+03) (135, -1.50000000000000000000e+03) (32, 1.50000000000000000000e+03) (60, -1.50000000000000000000e+03) (209, -9.86516995983122910729e+01) (105, -1.50000000000000000000e+03) (200, -1.50000000000000000000e+03) (9, -9.54441767684405249383e+02) (20, 1.50000000000000000000e+03) (53, 1.50000000000000000000e+03) (45, 1.89813520412402056414e-02) (104, 1.50000000000000000000e+03) (213, -1.50000000000000000000e+03) (201, 5.34889815217003160797e+02) (29, 1.50000000000000000000e+03) (145, 1.50000000000000000000e+03) (182, 1.43402424177684019924e+03) (15, 1.50000000000000000000e+03) (23, 1.50000000000000000000e+03) (211, 1.50000000000000000000e+03) (108, -1.50000000000000000000e+03) (150, 1.50000000000000000000e+03) (192, -1.50000000000000000000e+03) (55, 5.22205636810580017482e+02) (75, 1.50000000000000000000e+03) (165, 1.15783428574610593387e+03) (168, 1.50000000000000000000e+03) (124, -1.50000000000000000000e+03) (158, 6.54749120342434707709e+02) (87, 1.50000000000000000000e+03) (157, 1.50000000000000000000e+03) (207, 9.55419265735624207991e+02) (179, 2.78497967291886894259e+01) (11, 1.50000000000000000000e+03) (170, 1.81954965972391735640e+00) (70, 1.48499999940395355225e+03) (128, 1.12920339058619811112e+03) (4, 1.50000000000000000000e+03) (139, 4.73700819967419192835e+02) (140, 1.50000000000000000000e+03) (102, -2.05708324690388479894e+01) (216, -1.24330592858731012740e+01) (155, 1.50000000000000000000e+03) (51, 1.50000000000000000000e+03) (189, -1.50000000000000000000e+03) (191, 1.50000000000000000000e+03) (152, 1.50000000000000000000e+03) (114, 1.36826493071534264345e+03) (75, 1.50000000000000000000e+03) (93, 1.50000000000000000000e+03) (23, 1.50000000000000000000e+03) (105, -1.50000000000000000000e+03) (7, 1.50000000000000000000e+03) (54, 1.50000000000000000000e+03) (50, -1.19468522458029428890e+03) (138, 1.50000000000000000000e+03) (175, 1.50000000000000000000e+03) (182, 1.19488891169168027773e+03) (167, 1.50000000000000000000e+03) (31, 1.50000000000000000000e+03) (73, 1.50000000000000000000e+03) (109, -4.74023050505508933838e+02) (153, 5.44698406069656826389e+01) (133, -1.50000000000000000000e+03) (3, -1.43455709532633773051e+03) (103, 1.50000000000000000000e+03) (118, 1.50000000000000000000e+03) (211, 1.50000000000000000000e+03) (5, -1.50000000000000000000e+03) (168, 1.50000000000000000000e+03) (143, 1.50000000000000000000e+03) (208, -1.50000000000000000000e+03) (173, 1.50000000000000000000e+03) (130, 1.50000000000000000000e+03) (32, 1.50000000000000000000e+03) (106, -1.50000000000000000000e+03) (104, 1.50000000000000000000e+03) (72, -6.88319773354144182065e-01) (66, 1.50000000000000000000e+03) (198, 1.33314055831946757280e+03) (80, 1.50000000000000000000e+03) (55, 3.81727291886534374044e+02) (186, 1.50000000000000000000e+03) (67, 1.50000000000000000000e+03) (121, -1.50000000000000000000e+03) (102, -1.71074398614623177650e+01) (22, 1.50000000000000000000e+03) (181, 1.50000000000000000000e+03) (124, -1.50000000000000000000e+03) (149, -2.36196713092881680041e+02) (163, -8.41303762256957838872e+02) (41, -1.50000000000000000000e+03) (99, 1.50000000000000000000e+03) (58, -6.45167246729805921035e+00) (141, -1.50000000000000000000e+03) (199, 1.50000000000000000000e+03) (59, 1.50000000000000000000e+03) (169, 1.50000000000000000000e+03) (129, -1.50000000000000000000e+03) (160, 1.50000000000000000000e+03) (206, 1.50000000000000000000e+03) (81, 1.50000000000000000000e+03) (120, -1.50000000000000000000e+03) (122, 1.50000000000000000000e+03) (214, -1.50000000000000000000e+03) (56, 1.50000000000000000000e+03) (116, 1.50000000000000000000e+03) (166, -1.19474108347014725950e+03) (113, 1.36858370569883982171e+03) (171, 1.50000000000000000000e+03) (14, 1.43405290388527009782e+03) (213, -1.50000000000000000000e+03) (158, 1.25421300614068201185e+02) (85, 1.50000000000000000000e+03) (9, -7.13652001392148008563e+02) (29, 1.50000000000000000000e+03) (37, 1.50000000000000000000e+03) (91, 1.50000000000000000000e+03) (110, 1.50000000000000000000e+03) (202, -1.50000000000000000000e+03) (132, -1.50000000000000000000e+03) (154, 1.50000000000000000000e+03) (82, -1.50000000000000000000e+03) (78, 1.50000000000000000000e+03) (95, 1.50000000000000000000e+03) (42, -1.50000000000000000000e+03) (34, -1.50000000000000000000e+03) (200, -1.50000000000000000000e+03) (20, 1.50000000000000000000e+03) (180, 1.50000000000000000000e+03) (11, 1.50000000000000000000e+03) (148, -1.50000000000000000000e+03) (16, -1.50000000000000000000e+03) (74, 1.50000000000000000000e+03) (185, 1.50000000000000000000e+03) (43, -9.54561421404056545725e+02) (142, -1.50000000000000000000e+03) (87, 1.50000000000000000000e+03) (26, -1.50000000000000000000e+03) (205, 1.19504703708422221098e+03) (13, -1.50000000000000000000e+03) (12, 1.48499999940395355225e+03) (193, 1.50000000000000000000e+03) (107, 1.50000000000000000000e+03) (209, -9.87263829462705615470e+01) (8, 6.62348950385692887721e+02) (176, 1.50000000000000000000e+03) (60, -1.50000000000000000000e+03) (195, 1.50000000000000000000e+03) (192, -1.50000000000000000000e+03) (131, 1.50000000000000000000e+03) (204, -1.50000000000000000000e+03) (89, 1.50000000000000000000e+03) (201, 1.95571409702885934401e+00) (76, -1.50000000000000000000e+03) (30, 1.50000000000000000000e+03) (71, 1.50000000000000000000e+03) (146, -1.50000000000000000000e+03) (45, -1.62478218512810079766e+00) (86, 1.50000000000000000000e+03) (194, 1.50000000000000000000e+03) (2, 1.50000000000000000000e+03) (77, 1.50000000000000000000e+03) (197, 1.50000000000000000000e+03) (27, -1.50000000000000000000e+03) (38, -1.50000000000000000000e+03) (97, 1.36880135535616636844e+03) (94, -1.50000000000000000000e+03) (207, 1.43462892260279750190e+03) (62, -1.43435902693927255314e+03) (134, -1.50000000000000000000e+03) (119, 1.19508978164173299774e+03) (101, -1.50000000000000000000e+03) (126, -1.50000000000000000000e+03) (159, 1.50000000000000000000e+03) (98, 1.50000000000000000000e+03) (162, 1.50000000000000000000e+03) (137, 1.50000000000000000000e+03) (177, 1.76429865094687727378e+02) (170, 5.53685691729528883798e+00) (46, 1.50000000000000000000e+03) (6, 1.50000000000000000000e+03) (24, -1.43479203249958186461e+03) (150, 1.50000000000000000000e+03) (172, -1.50000000000000000000e+03) (140, 1.50000000000000000000e+03) (178, 1.43436735184624467365e+03) (100, 7.12387582140089534732e+01) (68, 1.50000000000000000000e+03) (127, 1.50000000000000000000e+03) (115, 1.50000000000000000000e+03) (139, 1.12895962927480877624e+03) (53, 1.50000000000000000000e+03) (48, 1.50000000000000000000e+03) (188, 1.43446442737538836809e+03) (79, 1.50000000000000000000e+03) (179, 1.17124426284862965986e+03) (136, 1.50000000000000000000e+03) (25, -1.50000000000000000000e+03) (147, 3.75022264760859536104e-01) (145, 1.50000000000000000000e+03) (57, 1.50000000000000000000e+03) (52, -1.43398042728043856187e+03) (92, -1.50000000000000000000e+03) (112, 1.50000000000000000000e+03) (196, 1.31190803672041923778e-02) (210, 1.50000000000000000000e+03) (61, 1.50000000000000000000e+03) (156, 1.50000000000000000000e+03) (70, 1.50000000000000000000e+03) (69, -1.50000000000000000000e+03) (157, 1.50000000000000000000e+03) (190, 1.50000000000000000000e+03) (17, -1.50000000000000000000e+03) (128, 7.38454471601800946701e+02) (216, -1.86855926836473400954e+02) (77, 1.50000000000000000000e+03) (187, 1.50000000000000000000e+03) (162, 1.50000000000000000000e+03) (182, 1.18767986844230313181e+03) (183, 1.50000000000000000000e+03) (19, -1.50000000000000000000e+03) (136, 1.50000000000000000000e+03) (40, 1.50000000000000000000e+03) (69, -1.50000000000000000000e+03) (142, -1.50000000000000000000e+03) (3, -1.50000000000000000000e+03) (171, 1.50000000000000000000e+03) (131, 1.50000000000000000000e+03) (38, -1.50000000000000000000e+03) (190, 1.50000000000000000000e+03) (139, 1.42552994378906350903e+03) (201, 8.40041663902481161585e+01) (4, 1.50000000000000000000e+03) (189, -1.50000000000000000000e+03) (33, -1.50000000000000000000e+03) (173, 1.50000000000000000000e+03) (147, 1.00675740472110692991e+01) (161, 1.20005286147352308035e+03) (17, -1.50000000000000000000e+03) (50, -1.50000000000000000000e+03) (104, 1.50000000000000000000e+03) (35, 1.20697172704441823043e+03) (121, -1.50000000000000000000e+03) (164, 1.50000000000000000000e+03) (114, 1.43650753565142213120e+03) (22, 1.50000000000000000000e+03) (179, 3.47511474316074441049e+02) (89, 1.50000000000000000000e+03) (112, 1.50000000000000000000e+03) (176, 1.50000000000000000000e+03) (28, 1.50000000000000000000e+03) (75, 1.50000000000000000000e+03) (102, -1.50000000000000000000e+03) (207, 1.20797711065922862872e+03) (125, -1.50000000000000000000e+03) (170, 1.91861609933922530047e+01) (95, 9.53345401567390354103e+02) (109, -1.50000000000000000000e+03) (81, 1.50000000000000000000e+03) (116, 1.19709445099006552482e+03) (58, -2.14819020363690810882e+02) (85, 1.50000000000000000000e+03) (70, 1.50000000000000000000e+03) (141, -1.50000000000000000000e+03) (78, 1.50000000000000000000e+03) (65, 1.50000000000000000000e+03) (153, 9.93145871383964845336e+02) (194, 1.50000000000000000000e+03) (101, -1.50000000000000000000e+03) (199, 1.50000000000000000000e+03) (181, 1.42729262156574736764e+03) (118, 1.50000000000000000000e+03) (138, 1.50000000000000000000e+03) (156, 1.50000000000000000000e+03) (45, -7.54109712871348136787e+01) (47, 1.44045051445290459924e+03) (185, 1.50000000000000000000e+03) (211, 1.50000000000000000000e+03) (127, 1.50000000000000000000e+03) (152, 1.50000000000000000000e+03) (46, 1.20006252594958641566e+03) (117, -1.50000000000000000000e+03) (32, 1.50000000000000000000e+03) (93, 1.50000000000000000000e+03) (202, -1.50000000000000000000e+03) (150, 1.50000000000000000000e+03) (172, -1.50000000000000000000e+03) (86, 1.50000000000000000000e+03) (18, 1.50000000000000000000e+03) (119, 1.20036122248395918177e+03) (44, -1.50000000000000000000e+03) (20, 1.50000000000000000000e+03) (72, -7.69690930084098567932e+02) (186, 1.20146862277593959334e+03) (13, -1.50000000000000000000e+03) (68, 1.50000000000000000000e+03) (1, 1.50000000000000000000e+03) (122, 1.50000000000000000000e+03) (132, -1.50000000000000000000e+03) (39, -1.50000000000000000000e+03) (144, 1.50000000000000000000e+03) (200, -1.50000000000000000000e+03) (175, 1.50000000000000000000e+03) (82, -1.50000000000000000000e+03) (55, 9.39265755036455288973e+02) (48, 1.50000000000000000000e+03) (9, -1.50000000000000000000e+03) (12, 1.29968738226180153106e+03) (129, -1.50000000000000000000e+03) (130, 1.50000000000000000000e+03) (59, 1.50000000000000000000e+03) (6, 1.50000000000000000000e+03) (25, -1.50000000000000000000e+03) (76, -1.50000000000000000000e+03) (51, 1.50000000000000000000e+03) (2, 1.50000000000000000000e+03) (80, 1.50000000000000000000e+03) (54, 1.50000000000000000000e+03) (174, -1.06947221158314255263e+03) (26, -1.50000000000000000000e+03) (113, 1.50000000000000000000e+03) (166, -1.34932612400801235708e+03) (158, 1.11300358906805513470e+03) (98, 1.50000000000000000000e+03) (154, 1.50000000000000000000e+03) (96, -1.50000000000000000000e+03) (79, 1.50000000000000000000e+03) (134, -1.50000000000000000000e+03) (143, 1.50000000000000000000e+03) (57, 1.50000000000000000000e+03) (56, 1.50000000000000000000e+03) (137, 1.50000000000000000000e+03) (74, 1.19756957747804767678e+03) (90, 1.50000000000000000000e+03) (7, 1.36148791655668514977e+03) (34, -1.50000000000000000000e+03) (146, -1.50000000000000000000e+03) (184, 1.50000000000000000000e+03) (203, 1.43082325068822365211e+03) (8, 3.86499618027734015868e+02) (106, -1.50000000000000000000e+03) (160, 1.50000000000000000000e+03) (110, 1.50000000000000000000e+03) (196, 7.03346308004676767922e+00) (120, -1.43301605850100941097e+03) (103, 1.50000000000000000000e+03) (60, -1.50000000000000000000e+03) (84, -1.50000000000000000000e+03) (191, 1.50000000000000000000e+03) (97, 1.27970340489950922347e+03) (49, 1.50000000000000000000e+03) (209, -1.50000000000000000000e+03) (71, 1.50000000000000000000e+03) (105, -1.50000000000000000000e+03) (205, 1.42556193507666603182e+03) (148, -1.50000000000000000000e+03) (145, 1.50000000000000000000e+03) (63, 1.50000000000000000000e+03) (88, 1.50000000000000000000e+03) (159, 1.50000000000000000000e+03) (188, 9.54020997644895146550e+02) (204, -1.50000000000000000000e+03) (10, 1.50000000000000000000e+03) (124, -1.50000000000000000000e+03) (92, -1.50000000000000000000e+03) (64, 1.50000000000000000000e+03) (52, -1.50000000000000000000e+03) (208, -1.50000000000000000000e+03) (73, 1.50000000000000000000e+03) (66, 1.50000000000000000000e+03) (24, -1.50000000000000000000e+03) (193, 1.50000000000000000000e+03) (135, -1.50000000000000000000e+03) (157, 1.50000000000000000000e+03) (94, -1.50000000000000000000e+03) (140, 1.50000000000000000000e+03) (214, -1.50000000000000000000e+03) (123, 1.50000000000000000000e+03) (133, -1.50000000000000000000e+03) (99, 1.50000000000000000000e+03) (91, 1.50000000000000000000e+03) (149, -1.50000000000000000000e+03) (31, 1.43445335051157235284e+03) (0, -1.50000000000000000000e+03) (87, 1.50000000000000000000e+03) (15, 1.50000000000000000000e+03) (165, 1.19660124746703601772e+02) (5, -1.50000000000000000000e+03) (216, -4.53896934456364142818e+00) (30, 1.50000000000000000000e+03) (165, 1.03358109975096283506e+02) (37, 1.50000000000000000000e+03) (68, 1.50000000000000000000e+03) (144, 1.50000000000000000000e+03) (96, -1.50000000000000000000e+03) (54, 1.50000000000000000000e+03) (48, 1.50000000000000000000e+03) (15, 1.50000000000000000000e+03) (34, -1.50000000000000000000e+03) (35, 1.43267788686781432261e+03) (186, 1.50000000000000000000e+03) (119, 1.50000000000000000000e+03) (181, 1.50000000000000000000e+03) (190, 1.50000000000000000000e+03) (1, 1.50000000000000000000e+03) (124, -1.50000000000000000000e+03) (40, 1.50000000000000000000e+03) (131, 1.50000000000000000000e+03) (120, -1.43408075552624291049e+03) (0, -1.50000000000000000000e+03) (148, -1.50000000000000000000e+03) (199, 1.50000000000000000000e+03) (21, -1.50000000000000000000e+03) (65, 1.50000000000000000000e+03) (187, 1.50000000000000000000e+03) (8, 5.13284736853825691583e+01) (27, -1.50000000000000000000e+03) (19, -1.50000000000000000000e+03) (38, -1.50000000000000000000e+03) (116, 1.50000000000000000000e+03) (99, 1.50000000000000000000e+03) (155, 1.50000000000000000000e+03) (20, 1.50000000000000000000e+03) (201, 2.41018259380784996893e+02) (213, -1.50000000000000000000e+03) (170, 7.34332088817549855086e-01) (93, 1.50000000000000000000e+03) (25, -1.50000000000000000000e+03) (127, 1.50000000000000000000e+03) (196, -8.72809142051004238638e-02) (193, 1.50000000000000000000e+03) (81, 1.50000000000000000000e+03) (137, 1.50000000000000000000e+03) (29, 1.50000000000000000000e+03) (24, -1.50000000000000000000e+03) (98, 1.50000000000000000000e+03) (104, 1.50000000000000000000e+03) (63, 1.50000000000000000000e+03) (149, -2.37167235586315285900e+02) (133, -1.50000000000000000000e+03) (16, -1.50000000000000000000e+03) (117, -1.50000000000000000000e+03) (125, -1.50000000000000000000e+03) (49, 1.50000000000000000000e+03) (45, -1.13654829616810904014e+00) (32, 1.50000000000000000000e+03) (10, 1.50000000000000000000e+03) (4, 1.50000000000000000000e+03) (53, 1.50000000000000000000e+03) (36, -1.40185265601389374979e+00) (84, -1.50000000000000000000e+03) (171, 1.50000000000000000000e+03) (162, 1.50000000000000000000e+03) (42, -1.50000000000000000000e+03) (80, 1.50000000000000000000e+03) (61, 1.50000000000000000000e+03) (18, 1.50000000000000000000e+03) (52, -1.43409976190519159900e+03) (172, -1.50000000000000000000e+03) (154, 1.50000000000000000000e+03) (156, 1.50000000000000000000e+03) (184, 1.50000000000000000000e+03) (86, 1.50000000000000000000e+03) (5, -1.50000000000000000000e+03) (198, 1.13083949868481658996e+03) (185, 1.50000000000000000000e+03) (138, 1.50000000000000000000e+03) (173, 1.50000000000000000000e+03) (59, 1.19683073355500050639e+03) (2, 1.50000000000000000000e+03) (214, -1.50000000000000000000e+03) (77, 1.50000000000000000000e+03) (22, 1.50000000000000000000e+03) (152, 1.50000000000000000000e+03) (58, -2.99442403573495830038e-01) (3, -1.50000000000000000000e+03) (41, -1.50000000000000000000e+03) (39, -1.50000000000000000000e+03) (159, 1.50000000000000000000e+03) (57, 1.50000000000000000000e+03) (115, 1.50000000000000000000e+03) (128, 1.12985464589694265669e+03) (179, 1.50000000000000000000e+03) (191, 1.50000000000000000000e+03) (188, 1.50000000000000000000e+03) (208, -1.50000000000000000000e+03) (123, 1.50000000000000000000e+03) (143, 1.50000000000000000000e+03) (26, -1.50000000000000000000e+03) (153, 3.25181905739981687020e+02) (126, -1.50000000000000000000e+03) (111, -1.50000000000000000000e+03) (23, 1.50000000000000000000e+03) (139, 7.14381387280015587748e+02) (82, -1.50000000000000000000e+03) (122, 1.50000000000000000000e+03) (94, -1.50000000000000000000e+03) (204, -1.50000000000000000000e+03) (11, 1.50000000000000000000e+03) (157, 1.50000000000000000000e+03) (145, 1.50000000000000000000e+03) (205, 1.19529482949933208147e+03) (130, 1.50000000000000000000e+03) (183, 1.50000000000000000000e+03) (55, 4.71408239779903937006e+00) (101, -1.50000000000000000000e+03) (62, -1.43806968622442946071e+03) (90, 1.50000000000000000000e+03) (189, -1.50000000000000000000e+03) (158, 7.82492601946431022952e+02) (46, 1.50000000000000000000e+03) (163, -6.38919447617408422957e+02) (161, 1.50000000000000000000e+03) (73, 1.50000000000000000000e+03) (100, -4.15356505889472682469e+00) (75, 1.50000000000000000000e+03) (60, -1.50000000000000000000e+03) (118, 1.50000000000000000000e+03) (51, 1.50000000000000000000e+03) (164, 1.50000000000000000000e+03) (192, -1.50000000000000000000e+03) (160, 1.50000000000000000000e+03) (110, 1.50000000000000000000e+03) (43, -1.43449782838837018062e+03) (203, 7.14528365251965965399e+02) (167, 1.50000000000000000000e+03) (9, -4.73376542490047256706e+02) (95, 1.12890867230889625716e+03) (67, 1.50000000000000000000e+03) (176, 1.50000000000000000000e+03) (56, 1.50000000000000000000e+03) (66, 1.50000000000000000000e+03) (83, -1.00571965203187629889e+00) (136, 1.50000000000000000000e+03) (13, -1.50000000000000000000e+03) (209, -9.83856209494951059469e+01) (112, 1.50000000000000000000e+03) (85, 1.50000000000000000000e+03) (33, -1.50000000000000000000e+03) (6, 1.50000000000000000000e+03) (17, -1.50000000000000000000e+03) (92, -1.50000000000000000000e+03) (182, 1.50000000000000000000e+03) (76, -1.50000000000000000000e+03) (194, 1.50000000000000000000e+03) (102, -4.10076381407634542597e+01) (47, 1.43691737914661393916e+03) (72, -7.24247130130480032406e-01) (50, -1.19450158243732630581e+03) (129, -1.50000000000000000000e+03) (150, 1.50000000000000000000e+03) (79, 1.50000000000000000000e+03) (103, 1.50000000000000000000e+03) (207, 1.50000000000000000000e+03) (121, -1.50000000000000000000e+03) (88, 1.50000000000000000000e+03) (134, -1.50000000000000000000e+03) (97, 1.12954806966406613356e+03) (69, -1.50000000000000000000e+03) (89, 1.50000000000000000000e+03) (202, -1.50000000000000000000e+03) (106, -1.50000000000000000000e+03) (216, -5.39635078684565616669e+00) (28, 1.50000000000000000000e+03) (99, 1.50000000000000000000e+03) (179, 7.14162053942824059050e+02) (138, 1.50000000000000000000e+03) (162, 1.19566358412431486613e+03) (34, -1.50000000000000000000e+03) (125, -1.50000000000000000000e+03) (84, -1.50000000000000000000e+03) (148, -1.50000000000000000000e+03) (15, 1.50000000000000000000e+03) (64, 1.19551501598103436663e+03) (168, 1.50000000000000000000e+03) (56, 1.50000000000000000000e+03) (200, -1.43486812453792185806e+03) (188, 7.14542722577215727142e+02) (54, 1.50000000000000000000e+03) (35, 9.55012964709870743718e+02) (13, -1.43599637117396832764e+03) (201, 1.04008868746208619882e+02) (135, -1.19608304702691475541e+03) (12, 9.55295972798463481013e+02) (151, -1.50000000000000000000e+03) (9, -9.73202017891539270522e+01) (106, -1.50000000000000000000e+03) (101, -1.50000000000000000000e+03) (2, 1.50000000000000000000e+03) (170, 1.40391587725787001517e+01) (149, -4.66505022500005111397e+02) (126, -1.19695361040679472353e+03) (209, -5.66886310770050698693e+01) (187, 9.55747423550512735346e+02) (80, 1.43654811750652538649e+03) (100, 9.44602619971620072192e+01) (167, 1.50000000000000000000e+03) (47, 1.19565177169071444041e+03) (108, -1.50000000000000000000e+03) (193, 9.56066801432263901006e+02) (180, 1.50000000000000000000e+03) (203, 7.14167146687320837373e+02) (55, 6.70478990107649508445e+01) (53, 1.50000000000000000000e+03) (165, 2.53231711978772437988e+02) (103, 1.50000000000000000000e+03) (111, -9.56376819695002950539e+02) (49, 1.50000000000000000000e+03) (98, 1.19598734073800278566e+03) (70, 4.74454462766751930758e+02) (68, 1.50000000000000000000e+03) (36, 1.80210113949340993145e+01) (166, -6.25744991111794888639e+02) (122, 1.19670299859475039739e+03) (132, -1.50000000000000000000e+03) (202, -1.50000000000000000000e+03) (46, 9.55067232480362690694e+02) (25, -1.50000000000000000000e+03) (195, 9.55848862873626103465e+02) (150, 1.50000000000000000000e+03) (123, 1.50000000000000000000e+03) (78, 1.50000000000000000000e+03) (88, 1.43609141781212952083e+03) (65, 1.19572013141769843969e+03) (207, 9.93745598691709375316e+01) (14, 9.54788963445748322556e+02) (113, 1.43534283078927410315e+03) (19, -1.19506089476035367625e+03) (4, 1.43553233352315487537e+03) (194, 1.19625135941635812742e+03) (199, 1.50000000000000000000e+03) (104, 1.50000000000000000000e+03) (155, 1.50000000000000000000e+03) (62, -2.36007202900994315087e+02) (22, 1.19589399744284582994e+03) (141, -1.50000000000000000000e+03) (66, 1.50000000000000000000e+03) (169, 1.50000000000000000000e+03) (211, 1.50000000000000000000e+03) (16, -1.50000000000000000000e+03) (142, -1.50000000000000000000e+03) (89, 9.54955448317863783814e+02) (136, 1.50000000000000000000e+03) (147, 9.55761772405550757981e+00) (145, 1.19629998960748980608e+03) (119, 1.43513361397075709647e+03) (205, 9.55164664444026129786e+02) (44, -1.43786581873637305762e+03) (175, 9.55042097687124623917e+02) (81, 1.50000000000000000000e+03) (92, -1.19548932102452931758e+03) (27, -1.43739577287383008297e+03) (130, 1.19566942895578154094e+03) (71, 1.43574806028174793937e+03) (204, -1.50000000000000000000e+03) (133, -1.50000000000000000000e+03) (23, 1.50000000000000000000e+03) (11, 1.50000000000000000000e+03) (206, 1.43581180028783796843e+03) (87, 1.50000000000000000000e+03) (124, -1.50000000000000000000e+03) (183, 1.19556328991429813868e+03) (191, 1.43482164989254988541e+03) (105, -1.50000000000000000000e+03) (45, 2.11543730843456891932e+01) (212, 1.50000000000000000000e+03) (10, 1.43538578373918380748e+03) (48, 1.50000000000000000000e+03) (134, -1.50000000000000000000e+03) (163, -5.10246815871366663941e+02) (107, 1.50000000000000000000e+03) (18, 1.19566762558594018628e+03) (215, 1.50000000000000000000e+03) (73, 1.43538800538310852062e+03) (30, 1.50000000000000000000e+03) (86, 1.19508272646297041319e+03) (102, -1.80232724349598953495e+02) (39, -1.50000000000000000000e+03) (93, 1.50000000000000000000e+03) (94, -1.50000000000000000000e+03) (176, 9.55641838419075725142e+02) (171, 1.50000000000000000000e+03) (69, -1.43581763238452140286e+03) (24, -1.19469413659763267788e+03) (178, 4.73914730226120695988e+02) (32, 1.50000000000000000000e+03) (33, -1.50000000000000000000e+03) (210, 1.19579896283944594870e+03) (85, 1.43615667533564169389e+03) (82, -1.43788567688791818000e+03) (190, 1.43533219090828742992e+03) (115, 7.14968599034034468787e+02) (181, 9.92476362065715704830e+01) (7, 1.12938324855537575786e+03) (197, 1.50000000000000000000e+03) (213, -1.50000000000000000000e+03) (109, -2.51011057197867899049e+02) (137, 1.43607900609510738832e+03) (97, 1.11432351203641769644e+03) (77, 1.50000000000000000000e+03) (164, 1.50000000000000000000e+03) (17, -1.19530693058259498684e+03) (76, -1.50000000000000000000e+03) (120, -1.32080445704272938201e+03) (51, 1.43608896893325049859e+03) (79, 1.50000000000000000000e+03) (159, 1.43605048715757925493e+03) (185, 1.43645031564003056701e+03) (3, -9.82606322557920321970e+01) (72, -1.57144386838749028357e+02) (29, 1.43548353756848177909e+03) (43, -4.73586371950853560975e+02) (154, 1.50000000000000000000e+03) (114, 4.74118172535003850498e+02) (161, 7.15083178474993019336e+02) (96, -1.45279643263428988575e+03) (208, -1.50000000000000000000e+03) (118, 9.55457335184881458190e+02) (182, 5.48094813016705984410e+02) (174, -1.39947832042724485291e+02) (117, -1.50000000000000000000e+03) (143, 1.50000000000000000000e+03) (58, -8.74355902868198420208e+00) (146, -1.50000000000000000000e+03) (184, 1.50000000000000000000e+03) (198, 4.74228733401848444373e+02) (186, 9.55502240045704525073e+02) (42, -1.50000000000000000000e+03) (26, -1.50000000000000000000e+03) (91, 1.50000000000000000000e+03) (129, -1.50000000000000000000e+03) (41, -7.16507876467150936151e+02) (116, 1.19546179904825930862e+03) (67, 1.19624892296375423939e+03) (153, 1.42128435944687538495e+02) (216, -4.58155556719193235438e+00) (83, -1.09449654208794058263e+01) (124, -1.50000000000000000000e+03) (34, -1.43627648190031368358e+03) (68, 1.50000000000000000000e+03) (66, 1.50000000000000000000e+03) (42, -1.50000000000000000000e+03) (157, 1.50000000000000000000e+03) (51, 1.50000000000000000000e+03) (106, -1.50000000000000000000e+03) (174, 2.75599189483894733144e+01) (136, 1.50000000000000000000e+03) (17, -1.43525112844666000456e+03) (23, 1.50000000000000000000e+03) (189, -9.58793077467810689996e+02) (96, -1.43513567181711550802e+03) (109, -1.09287346233907192072e+03) (100, 3.77513906761320239269e+00) (70, 1.19531441590909184924e+03) (7, 1.36077992717518645804e+03) (211, 1.50000000000000000000e+03) (24, -1.43504639514568225422e+03) (195, 1.43472203422262236927e+03) (32, 1.50000000000000000000e+03) (158, 9.33905920079011742096e-03) (201, -3.04542521549420452942e+00) (135, -1.50000000000000000000e+03) (132, -1.50000000000000000000e+03) (154, 1.50000000000000000000e+03) (59, 1.19571294379971891431e+03) (26, -1.50000000000000000000e+03) (185, 1.43924516617259041595e+03) (10, 1.43470373379736111019e+03) (193, 1.43476266977860495899e+03) (206, 1.44151559204531326941e+03) (208, -1.43562301306729750650e+03) (81, 1.50000000000000000000e+03) (58, 7.08970498458389719598e-02) (103, 1.50000000000000000000e+03) (20, 1.50000000000000000000e+03) (30, 1.50000000000000000000e+03) (12, 1.36834101646526005425e+03) (137, 1.43529305872856252790e+03) (63, 1.43471404438762829159e+03) (155, 1.50000000000000000000e+03) (111, -1.43502306307315529921e+03) (214, -1.50000000000000000000e+03) (133, -1.50000000000000000000e+03) (60, -1.50000000000000000000e+03) (176, 1.19504759388500133355e+03) (49, 1.19555728790211605883e+03) (77, 1.19734083803506837285e+03) (55, 1.60114869408464111089e+00) (205, 2.36334519335598230327e+02) (97, 5.66984617526934016496e+02) (86, 1.33329930131790342784e+03) (113, 7.82515128895828297573e+02) (41, -1.43486859127802290459e+03) (167, 1.50000000000000000000e+03) (85, 1.50000000000000000000e+03) (64, 1.37003994560400633418e+03) (171, 1.50000000000000000000e+03) (199, 1.50000000000000000000e+03) (200, -1.50000000000000000000e+03) (89, 7.14737413726113345547e+02) (212, 1.50000000000000000000e+03) (88, 1.50000000000000000000e+03) (31, 1.43516239003913028682e+03) (95, 8.62284241908136664279e+02) (116, 1.43472476507647797916e+03) (65, 1.43477312303258941029e+03) (28, 1.43723175379006625008e+03) (27, -1.50000000000000000000e+03) (25, -1.50000000000000000000e+03) (173, 1.50000000000000000000e+03) (62, -1.19735426285164612636e+03) (143, 1.50000000000000000000e+03) (170, 2.02883782186475458698e-01) (57, 1.50000000000000000000e+03) (165, 7.52644017967893397270e+00) (197, 1.50000000000000000000e+03) (80, 1.50000000000000000000e+03) (115, 1.43653039520924721728e+03) (2, 1.50000000000000000000e+03) (138, 1.50000000000000000000e+03) (156, 1.50000000000000000000e+03) (122, 9.56091995311315827166e+02) (84, -1.50000000000000000000e+03) (163, -7.44302517129818852482e+02) (123, 1.43610524364781781514e+03) (16, -1.50000000000000000000e+03) (107, 1.50000000000000000000e+03) (40, 1.43788646645683957104e+03) (178, 2.06201169709761567006e+00) (129, -1.50000000000000000000e+03) (150, 1.43636866775904422866e+03) (131, 1.50000000000000000000e+03) (164, 1.50000000000000000000e+03) (148, -1.50000000000000000000e+03) (76, -1.43707391318768441124e+03) (101, -1.50000000000000000000e+03) (37, 1.50000000000000000000e+03) (14, 9.54398466845697043937e+02) (8, 2.00112722632881734341e+01) (47, 1.43474554625078008030e+03) (61, 1.50000000000000000000e+03) (3, -2.37567644760565457318e+02) (46, 9.54805005718247230106e+02) (177, 1.56863472950515870252e+02) (121, -1.50000000000000000000e+03) (90, 1.50000000000000000000e+03) (99, 1.50000000000000000000e+03) (145, 1.50000000000000000000e+03) (38, -1.43502895365863741972e+03) (210, 1.19570638925067873970e+03) (78, 1.50000000000000000000e+03) (104, 1.50000000000000000000e+03) (4, 1.43679825800387311574e+03) (160, 1.50000000000000000000e+03) (67, 1.50000000000000000000e+03) (147, 2.03284974831221143532e+00) (161, 1.19492923446582153701e+03) (202, -1.50000000000000000000e+03) (6, 1.43516044209973438228e+03) (87, 1.50000000000000000000e+03) (33, -1.50000000000000000000e+03) (36, 6.79415857295777025904e-01) (21, -1.50000000000000000000e+03) (130, 1.43482195073290631626e+03) (120, -1.31865893033641486909e+03) (190, 9.55446873747986046510e+02) (18, 7.01864960095619608182e+02) (126, -1.08094715291740794783e+03) (128, 1.43599870676831886662e+00) (91, 1.50000000000000000000e+03) (98, 1.43478179481550023411e+03) (182, 2.36815090289734797580e+02) (105, -1.50000000000000000000e+03) (118, 1.19540679118756474963e+03) (39, -1.50000000000000000000e+03) (186, 1.19532351051990212909e+03) (192, -1.50000000000000000000e+03) (172, -1.50000000000000000000e+03) (71, 1.50000000000000000000e+03) (52, -7.14346804570347330809e+02) (93, 1.50000000000000000000e+03) (73, 1.50000000000000000000e+03) (72, -4.23669979762038551030e+00) (82, -1.43539044268819907302e+03) (146, -1.50000000000000000000e+03) (1, 1.50000000000000000000e+03) (35, 4.82155451785553412769e-01) (187, 1.50000000000000000000e+03) (53, 1.50000000000000000000e+03) (75, 1.50000000000000000000e+03) (142, -1.50000000000000000000e+03) (162, 2.36990151030615976424e+02) (151, -1.50000000000000000000e+03) (29, 1.43631045205828559119e+03) (169, 1.43571735081856400029e+03) (48, 1.43610096657519989094e+03) (196, -2.51149475148092449217e+01) (207, 2.36525202530107520715e+02) (54, 1.50000000000000000000e+03) (92, -1.43526176294541619427e+03) (139, 1.11507113121866396455e+02) (19, -1.50000000000000000000e+03) (213, -1.50000000000000000000e+03) (9, -7.14206467193785101699e+02) (74, 1.43480106706841752384e+03) (79, 1.50000000000000000000e+03) (127, 7.13906315249747649432e+02) (45, -1.28940838602054430595e+00) (110, 1.50000000000000000000e+03) (216, -1.31989134340427682446e+02) (53, 1.50000000000000000000e+03) (156, 1.50000000000000000000e+03) (72, -2.74205538880268079538e+02) (31, 1.50000000000000000000e+03) (2, 1.50000000000000000000e+03) (105, -1.50000000000000000000e+03) (193, 1.50000000000000000000e+03) (159, 1.50000000000000000000e+03) (83, -1.68515050079335537703e+01) (40, 1.50000000000000000000e+03) (50, -1.43311279672177670363e+03) (120, -1.47500000000000000000e+03) (9, -9.54794305288546638621e+02) (17, -1.50000000000000000000e+03) (189, -1.43557978250924907115e+03) (79, 1.50000000000000000000e+03) (165, 9.74151270750333083015e+02) (47, 1.50000000000000000000e+03) (161, 1.50000000000000000000e+03) (201, 1.21245112511200360927e+02) (34, -1.50000000000000000000e+03) (209, -7.15466072198857659714e+02) (68, 1.50000000000000000000e+03) (1, 1.50000000000000000000e+03) (81, 1.50000000000000000000e+03) (15, 1.50000000000000000000e+03) (180, 1.50000000000000000000e+03) (138, 1.50000000000000000000e+03) (100, 2.12335638738592848540e+02) (167, 1.50000000000000000000e+03) (200, -1.50000000000000000000e+03) (82, -1.50000000000000000000e+03) (170, 1.73861013491247078377e+01) (24, -1.43318676180234251660e+03) (4, 1.50000000000000000000e+03) (112, 1.50000000000000000000e+03) (97, 7.42627347057517681606e+02) (211, 1.50000000000000000000e+03) (75, 1.50000000000000000000e+03) (60, -1.50000000000000000000e+03) (70, 1.50000000000000000000e+03) (173, 1.50000000000000000000e+03) (90, 1.50000000000000000000e+03) (99, 1.50000000000000000000e+03) (187, 1.50000000000000000000e+03) (184, 1.50000000000000000000e+03) (46, 1.50000000000000000000e+03) (202, -1.50000000000000000000e+03) (87, 1.50000000000000000000e+03) (164, 1.50000000000000000000e+03) (22, 1.50000000000000000000e+03) (71, 1.50000000000000000000e+03) (123, 1.50000000000000000000e+03) (51, 1.43646885876307487706e+03) (133, -1.50000000000000000000e+03) (37, 1.50000000000000000000e+03) (41, -9.54474304346186954717e+02) (98, 1.50000000000000000000e+03) (28, 1.50000000000000000000e+03) (8, 6.18557539271841960726e+02) (96, -1.50000000000000000000e+03) (168, 1.50000000000000000000e+03) (10, 1.50000000000000000000e+03) (74, 1.50000000000000000000e+03) (80, 1.50000000000000000000e+03) (88, 1.50000000000000000000e+03) (42, -1.50000000000000000000e+03) (56, 1.50000000000000000000e+03) (84, -1.50000000000000000000e+03) (172, -1.50000000000000000000e+03) (109, -9.55550274103325364194e+02) (12, 1.50000000000000000000e+03) (44, -1.50000000000000000000e+03) (206, 1.50000000000000000000e+03) (160, 1.50000000000000000000e+03) (55, 9.60090324344934487044e+01) (121, -1.50000000000000000000e+03) (106, -1.50000000000000000000e+03) (48, 1.50000000000000000000e+03) (118, 1.50000000000000000000e+03) (19, -1.50000000000000000000e+03) (196, -6.45764390952145816982e+00) (78, 1.50000000000000000000e+03) (26, -1.50000000000000000000e+03) (143, 1.50000000000000000000e+03) (194, 1.50000000000000000000e+03) (114, 1.43466128245544496167e+03) (36, 4.50487487759602700521e+00) (146, -1.50000000000000000000e+03) (64, 1.50000000000000000000e+03) (214, -1.50000000000000000000e+03) (67, 1.50000000000000000000e+03) (182, 4.74037510127831069440e+02) (101, -1.50000000000000000000e+03) (32, 1.50000000000000000000e+03) (115, 1.50000000000000000000e+03) (59, 1.50000000000000000000e+03) (154, 1.50000000000000000000e+03) (7, 1.36819913717089661986e+03) (94, -1.50000000000000000000e+03) (113, 1.43409795416455403938e+03) (145, 1.50000000000000000000e+03) (54, 1.50000000000000000000e+03) (117, -1.50000000000000000000e+03) (183, 1.50000000000000000000e+03) (13, -1.50000000000000000000e+03) (103, 1.50000000000000000000e+03) (150, 1.50000000000000000000e+03) (147, 3.99238689923137641813e+01) (122, 1.50000000000000000000e+03) (208, -1.50000000000000000000e+03) (169, 1.50000000000000000000e+03) (29, 1.50000000000000000000e+03) (76, -1.50000000000000000000e+03) (198, 1.19563425132178667809e+03) (104, 1.50000000000000000000e+03) (73, 1.50000000000000000000e+03) (35, 1.50000000000000000000e+03) (108, -1.50000000000000000000e+03) (135, -1.50000000000000000000e+03) (125, -1.50000000000000000000e+03) (38, -1.50000000000000000000e+03) (128, 1.02611429075714249848e+03) (191, 1.50000000000000000000e+03) (20, 1.50000000000000000000e+03) (140, 1.50000000000000000000e+03) (151, -1.50000000000000000000e+03) (195, 1.50000000000000000000e+03) (212, 1.50000000000000000000e+03) (0, -1.43838012682442627010e+03) (199, 1.50000000000000000000e+03) (126, -1.50000000000000000000e+03) (176, 1.50000000000000000000e+03) (136, 1.50000000000000000000e+03) (207, 1.43797498509912975351e+03) (124, -1.50000000000000000000e+03) (163, -1.00615523151228899223e+03) (157, 1.50000000000000000000e+03) (61, 1.50000000000000000000e+03) (52, -1.50000000000000000000e+03) (21, -1.50000000000000000000e+03) (89, 1.50000000000000000000e+03) (91, 1.50000000000000000000e+03) (62, -1.43254899143571492459e+03) (134, -1.50000000000000000000e+03) (130, 1.50000000000000000000e+03) (186, 1.43616213931189577124e+03) (63, 1.50000000000000000000e+03) (171, 1.50000000000000000000e+03) (111, -1.43627074365080443386e+03) (142, -1.50000000000000000000e+03) (66, 1.50000000000000000000e+03) (30, 1.50000000000000000000e+03) (119, 1.43680474581869907524e+03) (203, 1.19517600092968450554e+03) (92, -1.50000000000000000000e+03) (110, 1.50000000000000000000e+03) (158, 1.40062406762793017378e+02) (23, 1.50000000000000000000e+03) (188, 1.50000000000000000000e+03) (215, 1.50000000000000000000e+03) (132, -1.50000000000000000000e+03) (27, -1.50000000000000000000e+03) (45, 2.16681248332860931782e+01) (129, -1.50000000000000000000e+03) (181, 1.43450609642982453806e+03) (185, 1.50000000000000000000e+03) (141, -1.50000000000000000000e+03) (77, 1.50000000000000000000e+03) (14, 1.50000000000000000000e+03) (116, 1.50000000000000000000e+03) (205, 1.19511797006359802253e+03) (166, -8.40248168737261835304e+02) (216, -4.84261962025584864477e+02) (2, 1.50000000000000000000e+03) (6, 1.50000000000000000000e+03) (199, 1.50000000000000000000e+03) (164, 1.50000000000000000000e+03) (128, 3.21849926204590758516e+02) (12, 1.50000000000000000000e+03) (51, 1.19666468321035154077e+03) (197, 1.50000000000000000000e+03) (33, -1.50000000000000000000e+03) (147, 3.36680831003548819425e+00) (109, -2.74599435647007908301e+02) (152, 1.43663326063712975156e+03) (3, -1.19550429149242313542e+03) (35, 1.19521183172507221570e+03) (58, -8.92436047373313954267e+02) (148, -1.50000000000000000000e+03) (183, 1.50000000000000000000e+03) (172, -1.50000000000000000000e+03) (69, -1.50000000000000000000e+03) (211, 1.50000000000000000000e+03) (65, 1.19538455968785979167e+03) (112, 1.50000000000000000000e+03) (111, -1.50000000000000000000e+03) (106, -1.50000000000000000000e+03) (168, 1.50000000000000000000e+03) (72, 1.70347128121704327608e-01) (189, -1.43557921681586208251e+03) (53, 1.50000000000000000000e+03) (87, 1.50000000000000000000e+03) (37, 1.50000000000000000000e+03) (129, -1.50000000000000000000e+03) (127, 1.43448081931528918176e+03) (88, 1.50000000000000000000e+03) (85, 1.50000000000000000000e+03) (70, 1.50000000000000000000e+03) (190, 1.50000000000000000000e+03) (132, -1.50000000000000000000e+03) (160, 1.50000000000000000000e+03) (141, -1.50000000000000000000e+03) (187, 1.43556724966296314960e+03) (157, 1.50000000000000000000e+03) (20, 1.50000000000000000000e+03) (134, -1.50000000000000000000e+03) (95, 1.19493949137395361504e+03) (155, 1.50000000000000000000e+03) (184, 1.50000000000000000000e+03) (17, -1.50000000000000000000e+03) (122, 1.50000000000000000000e+03) (124, -1.50000000000000000000e+03) (159, 1.43787526065430938615e+03) (169, 1.50000000000000000000e+03) (126, -9.55142470230751314375e+02) (40, 1.50000000000000000000e+03) (205, 1.43616408141673355203e+03) (114, 1.19503018658192695511e+03) (59, 1.50000000000000000000e+03) (182, 7.14729739345856387445e+02) (34, -1.50000000000000000000e+03) (73, 1.50000000000000000000e+03) (203, 4.77832052515467751164e+02) (56, 1.50000000000000000000e+03) (202, -1.50000000000000000000e+03) (158, 2.75969630358539859571e+02) (167, 1.50000000000000000000e+03) (52, -1.19521631593018310014e+03) (11, 1.50000000000000000000e+03) (28, 1.50000000000000000000e+03) (83, -3.17184152099135463487e+00) (42, -1.50000000000000000000e+03) (48, 1.50000000000000000000e+03) (0, -1.50000000000000000000e+03) (80, 1.50000000000000000000e+03) (46, 2.37923738041287037959e+02) (9, -1.43345342334813130947e+03) (15, 1.50000000000000000000e+03) (151, -1.50000000000000000000e+03) (81, 1.43863575806272024238e+03) (89, 9.54556003192294951987e+02) (214, -1.50000000000000000000e+03) (5, -1.50000000000000000000e+03) (90, 1.50000000000000000000e+03) (36, 2.16459416759506915184e+01) (204, -1.50000000000000000000e+03) (113, 1.19571983889461853323e+03) (49, 1.50000000000000000000e+03) (66, 1.50000000000000000000e+03) (137, 1.43921455225679756040e+03) (19, -1.19790672071025505829e+03) (103, 1.50000000000000000000e+03) (45, -2.11183072687432144221e+02) (130, 1.50000000000000000000e+03) (125, -1.50000000000000000000e+03) (41, -9.60030454982094397565e+02) (179, 7.14802750727409375031e+02) (100, 1.21229333831276107958e+02) (77, 1.50000000000000000000e+03) (10, 1.50000000000000000000e+03) (150, 1.43893500852651277455e+03) (26, -1.50000000000000000000e+03) (71, 1.50000000000000000000e+03) (131, 1.50000000000000000000e+03) (55, 3.71953699752415047897e+02) (79, 1.44017096202637458191e+03) (175, 1.43508598466274952443e+03) (99, 1.43865993407171959007e+03) (200, -1.50000000000000000000e+03) (4, 1.50000000000000000000e+03) (210, 1.50000000000000000000e+03) (191, 1.50000000000000000000e+03) (38, -1.43652082926112780115e+03) (8, 6.78548555703837621422e+01) (173, 1.50000000000000000000e+03) (101, -1.50000000000000000000e+03) (102, -4.25782047600366269080e+01) (201, 5.08615176412167357967e+00) (170, 1.09742302278347345634e+01) (117, -1.50000000000000000000e+03) (7, 1.43481972599474124763e+03) (74, 1.50000000000000000000e+03) (97, 5.47183353892287414055e+02) (194, 1.43580187840724261150e+03) (145, 1.50000000000000000000e+03) (61, 1.50000000000000000000e+03) (209, -4.94293350019037944776e+01) (67, 1.50000000000000000000e+03) (23, 1.50000000000000000000e+03) (43, -7.15899589141838760042e+02) (165, 7.30980840141068028970e+02) (47, 1.43499023938855680171e+03) (68, 1.50000000000000000000e+03) (118, 1.50000000000000000000e+03) (144, 1.50000000000000000000e+03) (57, 1.50000000000000000000e+03) (29, 1.50000000000000000000e+03) (119, 9.55642035797392281893e+02) (176, 1.50000000000000000000e+03) (135, -1.43594051575198159298e+03) (161, 1.43500668001851590816e+03) (174, -5.65689163811043840724e+02) (208, -1.50000000000000000000e+03) (24, -1.19417852426159879542e+03) (108, -1.50000000000000000000e+03) (27, -1.50000000000000000000e+03) (198, 1.19496785164865036677e+03) (13, -1.50000000000000000000e+03) (181, 9.55629408756532029656e+02) (146, -1.50000000000000000000e+03) (62, -9.55147875411057157180e+02) (215, 1.50000000000000000000e+03) (91, 1.50000000000000000000e+03) (154, 1.50000000000000000000e+03) (14, 1.43201727852741350944e+03) (63, 1.50000000000000000000e+03) (96, -1.50000000000000000000e+03) (92, -1.50000000000000000000e+03) (185, 1.50000000000000000000e+03) (18, 1.50000000000000000000e+03) (60, -1.50000000000000000000e+03) (136, 1.50000000000000000000e+03) (193, 1.50000000000000000000e+03) (94, -1.50000000000000000000e+03) (171, 1.50000000000000000000e+03) (195, 1.43544920726846271464e+03) (16, -1.50000000000000000000e+03) (84, -1.50000000000000000000e+03) (120, -1.19651953433492303702e+03) (196, -4.35193736806320252697e+00) (133, -1.50000000000000000000e+03) (192, -1.50000000000000000000e+03) (149, -2.33336744361703267714e+02) (115, 1.43627052668825399451e+03) (213, -1.50000000000000000000e+03) (140, 1.50000000000000000000e+03) (216, -4.45565715027178654850e+00) (159, 1.50000000000000000000e+03) (84, -1.50000000000000000000e+03) (166, -1.50000000000000000000e+03) (13, -1.50000000000000000000e+03) (34, -1.50000000000000000000e+03) (202, -1.50000000000000000000e+03) (16, -1.50000000000000000000e+03) (188, 1.19579784997615115572e+03) (212, 1.50000000000000000000e+03) (94, -1.50000000000000000000e+03) (189, -1.50000000000000000000e+03) (185, 1.50000000000000000000e+03) (76, -1.50000000000000000000e+03) (26, -1.50000000000000000000e+03) (98, 1.50000000000000000000e+03) (106, -1.50000000000000000000e+03) (43, -1.50000000000000000000e+03) (32, 1.50000000000000000000e+03) (124, -1.50000000000000000000e+03) (168, 1.50000000000000000000e+03) (184, 1.50000000000000000000e+03) (131, 1.50000000000000000000e+03) (125, -1.50000000000000000000e+03) (133, -1.50000000000000000000e+03) (29, 1.50000000000000000000e+03) (140, 1.50000000000000000000e+03) (74, 1.43415691893798452838e+03) (115, 1.50000000000000000000e+03) (130, 1.50000000000000000000e+03) (178, 9.54385817653706794772e+02) (99, 1.50000000000000000000e+03) (9, -1.50000000000000000000e+03) (179, 1.19450178097335742677e+03) (205, 1.43325005450692106024e+03) (23, 1.50000000000000000000e+03) (195, 1.50000000000000000000e+03) (71, 1.50000000000000000000e+03) (60, -1.50000000000000000000e+03) (65, 1.50000000000000000000e+03) (126, -1.50000000000000000000e+03) (194, 1.50000000000000000000e+03) (7, 1.33210791216222287403e+03) (127, 1.43376746801172157575e+03) (155, 1.50000000000000000000e+03) (120, -1.50000000000000000000e+03) (14, 1.19662583978459838363e+03) (36, 7.29608011398529328062e+01) (144, 1.50000000000000000000e+03) (67, 1.50000000000000000000e+03) (192, -1.50000000000000000000e+03) (25, -1.50000000000000000000e+03) (180, 1.50000000000000000000e+03) (102, -4.96799417561655616282e+02) (78, 1.50000000000000000000e+03) (55, 3.93626731310992965973e+02) (196, 2.17333971684798088475e+00) (111, -1.50000000000000000000e+03) (197, 1.50000000000000000000e+03) (146, -1.50000000000000000000e+03) (51, 1.50000000000000000000e+03) (136, 1.50000000000000000000e+03) (142, -1.50000000000000000000e+03) (116, 1.43427001737966497785e+03) (44, -1.50000000000000000000e+03) (183, 1.50000000000000000000e+03) (154, 1.50000000000000000000e+03) (110, 1.50000000000000000000e+03) (128, 1.36774465737591162906e+03) (160, 1.50000000000000000000e+03) (69, -1.50000000000000000000e+03) (47, 1.50000000000000000000e+03) (167, 1.50000000000000000000e+03) (27, -1.50000000000000000000e+03) (15, 1.50000000000000000000e+03) (135, -1.50000000000000000000e+03) (83, -4.90399109616361386088e+02) (56, 1.50000000000000000000e+03) (90, 1.50000000000000000000e+03) (70, 1.43363538334327722623e+03) (73, 1.50000000000000000000e+03) (97, 1.12142188290649073679e+03) (151, -1.50000000000000000000e+03) (96, -1.50000000000000000000e+03) (22, 1.50000000000000000000e+03) (117, -1.50000000000000000000e+03) (199, 1.50000000000000000000e+03) (169, 1.50000000000000000000e+03) (75, 1.50000000000000000000e+03) (39, -1.50000000000000000000e+03) (206, 1.50000000000000000000e+03) (68, 1.50000000000000000000e+03) (35, 1.50000000000000000000e+03) (114, 1.43379820647815949997e+03) (121, -1.50000000000000000000e+03) (112, 1.50000000000000000000e+03) (123, 1.50000000000000000000e+03) (157, 1.50000000000000000000e+03) (161, 1.20060956511136805602e+03) (211, 1.50000000000000000000e+03) (214, -1.50000000000000000000e+03) (80, 1.50000000000000000000e+03) (95, 1.36751498931717242158e+03) (28, 1.50000000000000000000e+03) (198, 1.43371039173120971100e+03) (10, 1.50000000000000000000e+03) (172, -1.50000000000000000000e+03) (59, 1.50000000000000000000e+03) (40, 1.50000000000000000000e+03) (62, -1.50000000000000000000e+03) (137, 1.50000000000000000000e+03) (100, 2.53044437863637369901e+02) (173, 1.50000000000000000000e+03) (91, 1.50000000000000000000e+03) (87, 1.50000000000000000000e+03) (139, 1.19404636210992521228e+03) (158, 6.52442324167268225210e+02) (50, -1.50000000000000000000e+03) (109, -1.50000000000000000000e+03) (66, 1.50000000000000000000e+03) (77, 1.50000000000000000000e+03) (2, 1.50000000000000000000e+03) (61, 1.50000000000000000000e+03) (57, 1.50000000000000000000e+03) (11, 1.50000000000000000000e+03) (143, 1.50000000000000000000e+03) (156, 1.50000000000000000000e+03) (33, -1.50000000000000000000e+03) (20, 1.50000000000000000000e+03) (107, 1.50000000000000000000e+03) (31, 1.19473727568996218906e+03) (101, -1.50000000000000000000e+03) (79, 1.50000000000000000000e+03) (215, 1.50000000000000000000e+03) (147, -7.37737725054256832102e-01) (200, -1.50000000000000000000e+03) (1, 1.50000000000000000000e+03) (104, 1.50000000000000000000e+03) (175, 1.43382054737563021263e+03) (41, -1.50000000000000000000e+03) (129, -1.50000000000000000000e+03) (37, 1.50000000000000000000e+03) (150, 1.50000000000000000000e+03) (46, 1.26759791750708018299e+03) (193, 1.50000000000000000000e+03) (204, -1.50000000000000000000e+03) (6, 1.50000000000000000000e+03) (4, 1.50000000000000000000e+03) (176, 1.50000000000000000000e+03) (177, 8.99204780480788258501e+02) (108, -1.50000000000000000000e+03) (12, 1.43305970736567269341e+03) (207, 1.19681733190819272750e+03) (30, 1.50000000000000000000e+03) (63, 1.50000000000000000000e+03) (17, -1.50000000000000000000e+03) (85, 1.50000000000000000000e+03) (5, -1.50000000000000000000e+03) (92, -1.50000000000000000000e+03) (190, 1.50000000000000000000e+03) (191, 1.43418694572447725477e+03) (119, 1.43853107148134722593e+03) (145, 1.50000000000000000000e+03) (19, -1.50000000000000000000e+03) (210, 1.50000000000000000000e+03) (88, 1.50000000000000000000e+03) (203, 8.95604562974857344670e+02) (118, 1.43444492724093242941e+03) (105, -1.50000000000000000000e+03) (72, -1.45083788442431199428e+02) (45, -1.92363176952738434977e+01) (122, 1.50000000000000000000e+03) (171, 1.50000000000000000000e+03) (187, 1.50000000000000000000e+03) (216, -7.28337997982702045618e+00) (184, 1.50000000000000000000e+03) (208, -1.50000000000000000000e+03) (71, 1.50000000000000000000e+03) (65, 9.55539346911762777381e+02) (27, -1.50000000000000000000e+03) (16, -1.50000000000000000000e+03) (124, -1.50000000000000000000e+03) (128, 1.06355260115362239048e+03) (113, 1.19577668205109603150e+03) (106, -1.50000000000000000000e+03) (3, -1.43441531136380604039e+03) (12, 1.12936863738253850897e+03) (9, -7.13571089951010662844e+02) (20, 1.50000000000000000000e+03) (86, 1.50000000000000000000e+03) (212, 1.50000000000000000000e+03) (203, 9.56338317116099005943e+02) (75, 1.50000000000000000000e+03) (13, -1.50000000000000000000e+03) (158, 8.95673641351447713532e+02) (198, 7.14257079632652676082e+02) (185, 1.50000000000000000000e+03) (196, 7.10807006736241930867e+01) (131, 1.50000000000000000000e+03) (126, -1.50000000000000000000e+03) (151, -1.50000000000000000000e+03) (18, 1.40763996299267864742e+03) (112, 1.50000000000000000000e+03) (141, -1.50000000000000000000e+03) (148, -1.50000000000000000000e+03) (214, -1.50000000000000000000e+03) (30, 1.50000000000000000000e+03) (54, 1.50000000000000000000e+03) (134, -1.50000000000000000000e+03) (137, 1.50000000000000000000e+03) (52, -1.50000000000000000000e+03) (26, -1.50000000000000000000e+03) (49, 1.19663460712848063849e+03) (35, 1.19548180526179453409e+03) (202, -1.50000000000000000000e+03) (72, -1.81480092410880295972e+01) (127, 1.50000000000000000000e+03) (209, -1.66469762510355643315e+01) (79, 1.50000000000000000000e+03) (117, -1.50000000000000000000e+03) (57, 1.50000000000000000000e+03) (64, 1.19638380257227481707e+03) (180, 1.50000000000000000000e+03) (56, 1.50000000000000000000e+03) (102, -1.14100759431326395088e+02) (7, 7.86172430761376972441e+02) (41, -1.50000000000000000000e+03) (190, 1.50000000000000000000e+03) (163, -1.03618228726299520304e+02) (183, 9.55612279408105223411e+02) (2, 1.50000000000000000000e+03) (119, 7.15235618636622803024e+02) (31, 1.50000000000000000000e+03) (92, -1.50000000000000000000e+03) (210, 1.50000000000000000000e+03) (154, 1.50000000000000000000e+03) (96, -1.43498065391545014791e+03) (140, 1.50000000000000000000e+03) (145, 1.50000000000000000000e+03) (211, 1.50000000000000000000e+03) (24, -1.43490182903026061467e+03) (129, -1.50000000000000000000e+03) (191, 1.50000000000000000000e+03) (115, 1.50000000000000000000e+03) (188, 7.13843102911132291410e+02) (107, 1.50000000000000000000e+03) (108, -1.50000000000000000000e+03) (171, 1.50000000000000000000e+03) (91, 1.50000000000000000000e+03) (120, -1.43547862431135104089e+03) (62, -1.43903549013580868632e+03) (176, 1.43558244740560917307e+03) (174, -1.58111546038353480981e+01) (123, 1.50000000000000000000e+03) (172, -1.50000000000000000000e+03) (1, 1.50000000000000000000e+03) (98, 1.19581936319545138758e+03) (179, 1.19451610675573397202e+03) (215, 1.50000000000000000000e+03) (110, 1.50000000000000000000e+03) (175, 1.43558642388489442965e+03) (46, 1.43394530775575481130e+03) (74, 1.43574575549054134171e+03) (155, 1.50000000000000000000e+03) (99, 1.50000000000000000000e+03) (165, 7.84621470040981616734e+00) (8, 4.81840553136213884500e+02) (88, 1.50000000000000000000e+03) (37, 1.50000000000000000000e+03) (200, -1.50000000000000000000e+03) (4, 1.50000000000000000000e+03) (43, -1.19483267832903334238e+03) (81, 1.50000000000000000000e+03) (116, 1.50000000000000000000e+03) (44, -1.50000000000000000000e+03) (0, -1.43548746650552516257e+03) (187, 1.50000000000000000000e+03) (125, -1.50000000000000000000e+03) (59, 1.50000000000000000000e+03) (82, -1.19594988087136948707e+03) (36, 3.82619065380294387513e-01) (162, 1.19567376532621028673e+03) (121, -1.50000000000000000000e+03) (97, 7.58846810728574155291e+02) (95, 1.43450379709174512755e+03) (94, -1.50000000000000000000e+03) (69, -1.50000000000000000000e+03) (182, 1.50000000000000000000e+03) (201, 2.32365592371177820397e+00) (213, -1.50000000000000000000e+03) (84, -1.50000000000000000000e+03) (157, 1.50000000000000000000e+03) (23, 1.50000000000000000000e+03) (33, -1.50000000000000000000e+03) (51, 1.50000000000000000000e+03) (83, -1.71090420706733059575e+00) (150, 1.50000000000000000000e+03) (42, -1.50000000000000000000e+03) (34, -1.50000000000000000000e+03) (14, 9.55262666011969486135e+02) (28, 1.50000000000000000000e+03) (152, 9.55428847342664198550e+02) (135, -1.50000000000000000000e+03) (160, 1.50000000000000000000e+03) (76, -1.50000000000000000000e+03) (80, 1.50000000000000000000e+03) (138, 1.50000000000000000000e+03) (11, 1.50000000000000000000e+03) (89, 1.19547527968381518804e+03) (207, 7.14181947809055373000e+02) (67, 1.50000000000000000000e+03) (40, 1.50000000000000000000e+03) (68, 1.50000000000000000000e+03) (139, 9.54468495207130786184e+02) (61, 1.50000000000000000000e+03) (149, -8.54375282526309092646e+02) (73, 1.43569936951576892170e+03) (161, 1.19577288317266152262e+03) (205, 7.14475180076295487197e+02) (47, 1.19593621982964918971e+03) (103, 1.50000000000000000000e+03) (29, 1.50000000000000000000e+03) (25, -1.50000000000000000000e+03) (142, -1.50000000000000000000e+03) (136, 1.50000000000000000000e+03) (114, 1.19450099388634748721e+03) (122, 1.50000000000000000000e+03) (204, -1.50000000000000000000e+03) (15, 1.50000000000000000000e+03) (17, -1.50000000000000000000e+03) (195, 1.50000000000000000000e+03) (55, 9.11031701289818727219e+01) (10, 1.50000000000000000000e+03) (66, 1.43602925298911736718e+03) (77, 1.50000000000000000000e+03) (192, -1.50000000000000000000e+03) (170, 6.44166841965285952298e-01) (58, 1.07361320783172793369e+01) (186, 1.50000000000000000000e+03) (168, 1.50000000000000000000e+03) (178, 9.55190788247692239565e+02) (60, -1.50000000000000000000e+03) (153, 9.61691477137788069740e+02) (181, 1.43378781637516340197e+03) (109, -1.20879555547601898979e+03) (104, 1.50000000000000000000e+03) (130, 1.43514189387409442134e+03) (216, 3.23683883190597765367e-01) (41, -1.43419952903477314976e+03) (57, 1.50000000000000000000e+03) (207, 1.19121448152757284333e+03) (55, 9.36273675868087309482e+01) (56, 1.50000000000000000000e+03) (54, 1.50000000000000000000e+03) (159, 1.50000000000000000000e+03) (183, 1.19561578747320118055e+03) (135, -1.43426144999800089863e+03) (34, -1.50000000000000000000e+03) (3, -1.19647394539879610420e+03) (76, -1.50000000000000000000e+03) (62, -1.50000000000000000000e+03) (25, -1.50000000000000000000e+03) (14, 1.18620216603370590747e+03) (44, -1.50000000000000000000e+03) (167, 1.50000000000000000000e+03) (118, 1.50000000000000000000e+03) (151, -1.50000000000000000000e+03) (211, 1.50000000000000000000e+03) (198, 7.13787614593299394983e+02) (187, 1.50000000000000000000e+03) (88, 1.50000000000000000000e+03) (145, 1.43510423296003864380e+03) (160, 1.50000000000000000000e+03) (100, 9.42043092512333313238e-01) (19, -1.50000000000000000000e+03) (117, -1.50000000000000000000e+03) (206, 1.43695845807702289676e+03) (83, -1.13744076368814901912e+02) (94, -1.50000000000000000000e+03) (173, 1.50000000000000000000e+03) (58, -1.02109303902900450112e+00) (26, -1.50000000000000000000e+03) (194, 1.50000000000000000000e+03) (2, 1.50000000000000000000e+03) (193, 1.19564869751471223935e+03) (48, 1.50000000000000000000e+03) (63, 1.19565049552607479200e+03) (69, -1.50000000000000000000e+03) (29, 1.50000000000000000000e+03) (110, 1.50000000000000000000e+03) (111, -1.43424881271807316807e+03) (22, 1.50000000000000000000e+03) (180, 9.54810724126262243772e+02) (144, 1.43575524927338642556e+03) (168, 1.50000000000000000000e+03) (189, -1.50000000000000000000e+03) (38, -1.43412652889428500202e+03) (91, 1.50000000000000000000e+03) (78, 1.50000000000000000000e+03) (106, -1.50000000000000000000e+03) (28, 1.43730697062862191160e+03) (124, -1.50000000000000000000e+03) (107, 1.50000000000000000000e+03) (143, 1.50000000000000000000e+03) (123, 1.50000000000000000000e+03) (174, -2.43447395292922720955e+02) (77, 1.50000000000000000000e+03) (46, 7.21274292695497706518e+02) (52, -1.19395864827224886540e+03) (141, -1.50000000000000000000e+03) (82, -1.43410982256172064808e+03) (37, 1.43578722190519852120e+03) (122, 1.19618069649959807066e+03) (8, 9.47968516589803633643e-01) (148, -1.50000000000000000000e+03) (17, -1.50000000000000000000e+03) (203, 9.54691234818009206720e+02) (49, 1.50000000000000000000e+03) (146, -1.50000000000000000000e+03) (214, -1.50000000000000000000e+03) (16, -1.50000000000000000000e+03) (182, 9.54766799146396692777e+02) (109, -3.15510593891882990647e+02) (18, 9.73006346517756355752e+02) (215, 1.50000000000000000000e+03) (171, 1.50000000000000000000e+03) (113, 1.19462369485761928445e+03) (102, -7.13804093025272322848e+02) (177, 5.96332348262425625762e+02) (158, 5.44977843685181369437e+02) (184, 1.50000000000000000000e+03) (119, 9.53848067808503628839e+02) (172, -1.50000000000000000000e+03) (96, -1.43417610503522519139e+03) (27, -1.50000000000000000000e+03) (201, 1.50950122136459832234e+01) (133, -1.50000000000000000000e+03) (61, 1.50000000000000000000e+03) (84, -1.50000000000000000000e+03) (87, 1.50000000000000000000e+03) (140, 1.50000000000000000000e+03) (80, 1.43830934692145910958e+03) (20, 1.50000000000000000000e+03) (205, 9.54839093289635115980e+02) (155, 1.50000000000000000000e+03) (43, -1.50000000000000000000e+03) (13, -1.50000000000000000000e+03) (128, 5.75188538179660781680e+02) (161, 1.19560465636539402112e+03) (9, -9.54660723026317782569e+02) (45, 4.80527222810766563299e+00) (186, 1.19564864395248832807e+03) (142, -1.50000000000000000000e+03) (93, 1.50000000000000000000e+03) (190, 1.50000000000000000000e+03) (169, 1.50000000000000000000e+03) (32, 1.50000000000000000000e+03) (154, 1.50000000000000000000e+03) (129, -1.50000000000000000000e+03) (112, 1.50000000000000000000e+03) (24, -9.55282458138084507482e+02) (92, -1.43560956779566595287e+03) (121, -1.50000000000000000000e+03) (137, 1.50000000000000000000e+03) (53, 1.50000000000000000000e+03) (89, 1.43375540202394518019e+03) (99, 1.50000000000000000000e+03) (127, 1.37515145448925659366e+03) (126, -1.47500000000000000000e+03) (188, 1.19402695770278137388e+03) (47, 1.50000000000000000000e+03) (60, -1.50000000000000000000e+03) (79, 1.50000000000000000000e+03) (185, 1.50000000000000000000e+03) (85, 1.50000000000000000000e+03) (212, 1.50000000000000000000e+03) (147, 4.30518706296408293355e+00) (33, -1.50000000000000000000e+03) (15, 1.50000000000000000000e+03) (139, 1.19266761700980509886e+03) (67, 1.50000000000000000000e+03) (138, 1.50000000000000000000e+03) (95, 1.36849790326791253392e+03) (81, 1.50000000000000000000e+03) (50, -1.07812625649965184493e+03) (70, 1.43458345629138193544e+03) (36, -4.39552998607917189133e-01) (178, 7.13903919145954091618e+02) (157, 1.50000000000000000000e+03) (90, 1.50000000000000000000e+03) (176, 1.19611982021952871946e+03) (64, 1.19493878930959454010e+03) (213, -1.50000000000000000000e+03) (116, 1.43609498733266650561e+03) (101, -1.50000000000000000000e+03) (73, 1.43529335579422286173e+03) (104, 1.50000000000000000000e+03) (1, 1.50000000000000000000e+03) (164, 1.50000000000000000000e+03) (196, -2.40660102126045529758e+02) (98, 1.19565460496830883130e+03) (30, 1.50000000000000000000e+03) (86, 1.48499999940395355225e+03) (6, 1.43488340101520157077e+03) (35, 7.48318927047110491912e+02) (208, -1.50000000000000000000e+03) (72, -2.56568241367432818834e+01) (7, 9.54864438392421334356e+02) (200, -1.50000000000000000000e+03) (210, 1.19571473071414175138e+03) (197, 1.50000000000000000000e+03) (97, 9.54703358529507227104e+02) (10, 1.50000000000000000000e+03) (199, 1.50000000000000000000e+03) (125, -1.50000000000000000000e+03) (23, 1.50000000000000000000e+03) (105, -1.50000000000000000000e+03) (202, -1.50000000000000000000e+03) (192, -1.50000000000000000000e+03) (108, -1.50000000000000000000e+03) (165, 4.93377966958622266702e+02) (216, -8.28262654529609854137e+00) (94, -1.50000000000000000000e+03) (68, 1.50000000000000000000e+03) (194, 1.50000000000000000000e+03) (80, 1.50000000000000000000e+03) (78, 1.50000000000000000000e+03) (59, 1.19558845831247958813e+03) (90, 1.50000000000000000000e+03) (52, -1.50000000000000000000e+03) (155, 1.50000000000000000000e+03) (127, 1.50000000000000000000e+03) (76, -1.50000000000000000000e+03) (61, 1.50000000000000000000e+03) (159, 1.50000000000000000000e+03) (96, -1.50000000000000000000e+03) (6, 1.50000000000000000000e+03) (124, -1.50000000000000000000e+03) (145, 1.50000000000000000000e+03) (97, 3.41961635983439578013e+01) (184, 1.50000000000000000000e+03) (156, 1.50000000000000000000e+03) (38, -1.43555829970478816904e+03) (132, -1.50000000000000000000e+03) (192, -1.50000000000000000000e+03) (46, 1.19388268192513169197e+03) (165, 2.47774631824025675542e+02) (191, 1.50000000000000000000e+03) (119, 9.52718271346126357457e+02) (116, 1.50000000000000000000e+03) (130, 1.50000000000000000000e+03) (143, 1.50000000000000000000e+03) (10, 1.43509168485082477673e+03) (179, 3.87349562458469520720e+01) (126, -1.19557441866359567939e+03) (202, -1.50000000000000000000e+03) (160, 1.50000000000000000000e+03) (81, 1.50000000000000000000e+03) (63, 1.43506278793789238080e+03) (79, 1.50000000000000000000e+03) (110, 1.50000000000000000000e+03) (60, -1.50000000000000000000e+03) (82, -1.50000000000000000000e+03) (26, -1.50000000000000000000e+03) (15, 1.43686909506227129896e+03) (24, -1.19483771350186930249e+03) (115, 1.43498286632723898038e+03) (34, -1.50000000000000000000e+03) (112, 1.50000000000000000000e+03) (92, -1.50000000000000000000e+03) (75, 1.50000000000000000000e+03) (54, 1.50000000000000000000e+03) (55, 7.26806663847379547105e-02) (45, -8.90462122837249736573e-02) (175, 1.43459654479859455023e+03) (41, -1.43477232868687451628e+03) (128, 4.70047981580307464355e+02) (101, -1.50000000000000000000e+03) (72, 3.26161290078389731750e-02) (198, 1.36894278494505306298e+03) (152, 1.50000000000000000000e+03) (8, 2.39391760944797672706e-02) (62, -1.50000000000000000000e+03) (20, 1.50000000000000000000e+03) (98, 1.43508863310791343793e+03) (58, -1.24432434190520702089e+01) (3, -1.43485282493100703505e+03) (181, 1.43502781439975251487e+03) (207, 9.56518112372681343913e+02) (65, 7.14164617206938146410e+02) (150, 1.50000000000000000000e+03) (183, 1.50000000000000000000e+03) (106, -1.50000000000000000000e+03) (123, 1.50000000000000000000e+03) (102, -5.98211935046243866054e+02) (158, 8.91757475928052906200e-02) (4, 1.50000000000000000000e+03) (37, 1.43622357094932272048e+03) (53, 1.50000000000000000000e+03) (113, 1.32346344543157147200e+03) (208, -1.50000000000000000000e+03) (178, 1.19527567586845771075e+03) (211, 1.50000000000000000000e+03) (83, 8.64829695005405046926e-02) (1, 1.50000000000000000000e+03) (103, 1.50000000000000000000e+03) (172, -1.50000000000000000000e+03) (139, 4.75906794004148082422e+02) (144, 1.50000000000000000000e+03) (214, -1.50000000000000000000e+03) (134, -1.50000000000000000000e+03) (176, 1.43536808846064036516e+03) (122, 1.50000000000000000000e+03) (107, 1.50000000000000000000e+03) (148, -1.50000000000000000000e+03) (42, -1.50000000000000000000e+03) (40, 1.50000000000000000000e+03) (19, -1.50000000000000000000e+03) (43, -9.54889035397088036916e+02) (108, -1.50000000000000000000e+03) (5, -1.50000000000000000000e+03) (201, 2.18763163110086367169e+01) (154, 1.50000000000000000000e+03) (120, -1.31826016421941176304e+03) (169, 1.43618673704070897656e+03) (105, -1.50000000000000000000e+03) (147, 4.33115297108551455807e+00) (35, 1.42174791258615778133e+03) (171, 1.50000000000000000000e+03) (180, 1.50000000000000000000e+03) (16, -1.50000000000000000000e+03) (151, -1.50000000000000000000e+03) (11, 1.50000000000000000000e+03) (14, 7.13725787389604420241e+02) (168, 1.50000000000000000000e+03) (27, -1.43552580933345166159e+03) (212, 1.50000000000000000000e+03) (136, 1.50000000000000000000e+03) (109, -9.54354071910917241439e+02) (36, 3.04184590871502669174e+00) (185, 1.50000000000000000000e+03) (49, 1.43624675425222494596e+03) (73, 1.43478198211280687246e+03) (89, 1.50000000000000000000e+03) (114, 7.14565813335819257190e+02) (117, -1.50000000000000000000e+03) (177, 1.49348084074562279966e+02) (71, 1.43595097658633744686e+03) (195, 1.50000000000000000000e+03) (44, -1.50000000000000000000e+03) (215, 1.50000000000000000000e+03) (129, -1.50000000000000000000e+03) (93, 1.50000000000000000000e+03) (69, -1.50000000000000000000e+03) (74, 1.50000000000000000000e+03) (174, -5.59328818858745989928e+02) (209, -1.42931354805500745897e+02) (210, 1.50000000000000000000e+03) (199, 1.50000000000000000000e+03) (118, 1.50000000000000000000e+03) (25, -1.50000000000000000000e+03) (157, 1.50000000000000000000e+03) (200, -1.43558738645129187717e+03) (12, 2.31638103394530190826e+02) (140, 1.50000000000000000000e+03) (29, 1.50000000000000000000e+03) (141, -1.50000000000000000000e+03) (18, 1.10830422721918921525e+03) (95, 1.18886691478570196523e+03) (189, -1.50000000000000000000e+03) (57, 1.50000000000000000000e+03) (161, 1.43508528149403423413e+03) (48, 1.50000000000000000000e+03) (17, -9.55273173616861186019e+02) (193, 1.50000000000000000000e+03) (2, 1.50000000000000000000e+03) (187, 1.50000000000000000000e+03) (33, -1.50000000000000000000e+03) (133, -1.50000000000000000000e+03) (32, 1.50000000000000000000e+03) (137, 1.50000000000000000000e+03) (31, 1.50000000000000000000e+03) (28, 1.50000000000000000000e+03) (87, 1.50000000000000000000e+03) (131, 1.50000000000000000000e+03) (186, 9.57142622011696630580e+02) (70, 9.56620229213080847330e+02) (64, 1.50000000000000000000e+03) (23, 1.50000000000000000000e+03) (13, -1.50000000000000000000e+03) (88, 1.50000000000000000000e+03) (21, -1.50000000000000000000e+03) (153, 1.63095339046277310047e+00) (104, 1.50000000000000000000e+03) (91, 1.50000000000000000000e+03) (216, -2.67242624046442722729e+00) (141, -1.50000000000000000000e+03) (101, -1.50000000000000000000e+03) (27, -1.50000000000000000000e+03) (122, 1.50000000000000000000e+03) (162, 1.43584793333197035281e+03) (119, 1.43587104545879424222e+03) (131, 1.50000000000000000000e+03) (39, -1.50000000000000000000e+03) (202, -1.50000000000000000000e+03) (183, 1.43571349225520316395e+03) (75, 1.50000000000000000000e+03) (93, 1.50000000000000000000e+03) (152, 1.48499999940395355225e+03) (26, -1.50000000000000000000e+03) (173, 1.50000000000000000000e+03) (175, 1.19676422119152130108e+03) (120, -1.33529075036232507045e+03) (146, -1.50000000000000000000e+03) (210, 1.43898806732452112556e+03) (123, 1.50000000000000000000e+03) (71, 1.50000000000000000000e+03) (80, 1.50000000000000000000e+03) (148, -1.50000000000000000000e+03) (87, 1.50000000000000000000e+03) (198, 1.43557696868915127197e+03) (69, -1.50000000000000000000e+03) (166, -6.00523127888522708417e+02) (194, 1.50000000000000000000e+03) (191, 1.48499999940395355225e+03) (190, 1.50000000000000000000e+03) (144, 1.43714295237211194944e+03) (45, 3.66469737236462922425e+00) (170, 9.61595448246693429439e+00) (7, 9.55485423735068593487e+02) (118, 1.50000000000000000000e+03) (110, 1.50000000000000000000e+03) (172, -1.50000000000000000000e+03) (29, 1.50000000000000000000e+03) (55, 4.87762144861187962874e+01) (8, 8.96348541131812197591e+01) (159, 1.50000000000000000000e+03) (76, -1.50000000000000000000e+03) (187, 1.50000000000000000000e+03) (21, -1.50000000000000000000e+03) (180, 1.48499999940395355225e+03) (94, -1.50000000000000000000e+03) (143, 1.50000000000000000000e+03) (15, 1.50000000000000000000e+03) (208, -1.50000000000000000000e+03) (31, 7.16162914787337967937e+02) (142, -1.50000000000000000000e+03) (114, 1.19543508070001826127e+03) (50, -1.50000000000000000000e+03) (49, 